<?xml version="1.0"?>
<opencv_storage>
<opencv_ml_ann_mlp>
  <format>3</format>
  <layer_sizes>
    120 40 65</layer_sizes>
  <activation_function>SIGMOID_SYM</activation_function>
  <f_param1>1.</f_param1>
  <f_param2>1.</f_param2>
  <min_val>-9.4999999999999996e-01</min_val>
  <max_val>9.4999999999999996e-01</max_val>
  <min_val1>-9.7999999999999998e-01</min_val1>
  <max_val1>9.7999999999999998e-01</max_val1>
  <training_params>
    <train_method>BACKPROP</train_method>
    <dw_scale>1.0000000000000001e-01</dw_scale>
    <moment_scale>1.0000000000000001e-01</moment_scale>
    <term_criteria>
      <epsilon>1.0000000000000000e-10</epsilon>
      <iterations>1000</iterations></term_criteria></training_params>
  <input_scale>
    1.2366563531554098e+01 -1.3551568354144392e-01
    4.0852378554665592e+00 -5.2939336199957898e-01
    2.8464365261665412e+00 -1.7839823194246405e+00
    4.3803938236266875e+00 -3.8082564187993664e+00
    4.6034642920774012e+00 -3.7841572552220701e+00
    4.3693172252251440e+00 -3.6140609964658550e+00
    4.5286417897310862e+00 -3.9063104702319449e+00
    2.9111146378752886e+00 -1.7223749666608059e+00
    3.3549087424041901e+00 -5.6073919383051085e-01
    7.0419757478753437e+00 -2.1346820190190738e-01
    4.4009106216835070e+00 -3.3055211383778409e+00
    5.0451664781912484e+00 -4.2561737442397662e+00
    4.5502453196460664e+00 -3.5320367215560484e+00
    4.6609182355792935e+00 -3.6394839503915857e+00
    4.9142848411288815e+00 -3.9193605449224314e+00
    4.8334219735397355e+00 -3.7303886708749707e+00
    4.5901429125164581e+00 -3.4296815266713296e+00
    4.7143872466879833e+00 -3.6653213285941897e+00
    4.7587607281408060e+00 -3.9225283954226624e+00
    3.9211140662901736e+00 -2.6970061555096558e+00
    2.7821754445737118e-01 -3.0913486353652986e-01
    4.8167845489550401e-02 -3.4612118646454093e-01
    1.6229159832830728e-02 -8.4126622670575835e-01
    1.2354816743279810e-02 -1.4693742727588710e+00
    1.1265116027852103e-02 -1.4182915747992000e+00
    1.1004853875144860e-02 -1.4464933827269777e+00
    1.1887698585583440e-02 -1.4453511600973801e+00
    1.4574405720079906e-02 -8.6179932718574703e-01
    3.0628402064947453e-02 -3.7186052134954933e-01
    1.2268817053427904e-01 -1.7595802168266739e-01
    8.5432294568874745e-02 -2.0022601495328798e-01
    2.9203064552767739e-02 -4.1626715408172366e-01
    1.3004270598218652e-02 -1.0862094147402603e+00
    1.2238698950755050e-02 -1.8997283515993169e+00
    1.2563338181289728e-02 -1.5850309439414774e+00
    1.1794894532775308e-02 -1.5749799525726096e+00
    1.2245633087089067e-02 -1.8806067331644722e+00
    1.2398449376674898e-02 -1.0646089271596004e+00
    2.3798649597533993e-02 -4.2280843124424494e-01
    8.2350635499110703e-02 -1.7836019993346444e-01
    1.0021908507875416e-01 -2.0831229673921139e-01
    2.9130977594456712e-02 -4.0766469089130764e-01
    1.2222117695681954e-02 -1.0184405884062555e+00
    1.2030856918216702e-02 -1.6959885978039222e+00
    1.1485110397149780e-02 -1.2753071437041570e+00
    1.0714296389536408e-02 -1.2378058633437161e+00
    1.2128049941763369e-02 -1.6484360977495158e+00
    1.1846027533993036e-02 -9.9178526912077736e-01
    2.3135688257735067e-02 -4.1731921532374777e-01
    6.6989333344023877e-02 -1.7627676391255570e-01
    8.7791027574582362e-02 -1.7102930069228076e-01
    3.0491542058649783e-02 -3.9901443550585824e-01
    1.2370033944176947e-02 -1.0710346541009610e+00
    1.2037751984897919e-02 -1.7743855742698633e+00
    1.1254690644242404e-02 -1.4326118133620678e+00
    1.0826208312567908e-02 -1.4071977848768553e+00
    1.1902030996002658e-02 -1.6266147285764854e+00
    1.1670986539680461e-02 -9.3552449360717849e-01
    2.2115338425152599e-02 -4.0315106607024975e-01
    6.8227414148258031e-02 -1.7914408773136850e-01
    7.7070466804572718e-02 -1.4067946666838257e-01
    3.3635366053335503e-02 -3.5990835328727205e-01
    1.1849872421913795e-02 -9.6826323117702406e-01
    1.1188262869200055e-02 -1.6645763609607354e+00
    1.1678781522573328e-02 -1.7483647738461106e+00
    1.1881136955231535e-02 -1.8707572213651775e+00
    1.2192843196059337e-02 -1.8237310229044557e+00
    1.2158371161127810e-02 -9.1265221651244477e-01
    2.2440078817182296e-02 -3.6752185292252704e-01
    7.4118988068641492e-02 -1.7634217739604816e-01
    7.6050322485252800e-02 -1.4081375319145720e-01
    3.8812686954959409e-02 -3.2200313528162194e-01
    1.1765075654995166e-02 -9.4975032356532174e-01
    1.1446567900035129e-02 -1.6931620407495904e+00
    1.1480421044708951e-02 -1.6351549055919339e+00
    1.1407142331718230e-02 -1.7221442974433749e+00
    1.1728661381845900e-02 -1.8103013175965093e+00
    1.2046247971319963e-02 -9.3726543064138035e-01
    2.2847450415854922e-02 -3.5359464199636098e-01
    7.5391905159198733e-02 -1.7546207778452327e-01
    7.9738999358455007e-02 -1.4949155288337190e-01
    3.5520190688808427e-02 -3.4928269065032491e-01
    1.1973495142350033e-02 -9.9802695264870023e-01
    1.1901703622764310e-02 -1.6550186862334162e+00
    1.1094198974702629e-02 -1.2556926256643171e+00
    1.0913321436204212e-02 -1.3455289596699105e+00
    1.1362855932886494e-02 -1.6244899305553113e+00
    1.1818550411639572e-02 -9.4371914676968116e-01
    2.2750765816183505e-02 -3.7639178152167974e-01
    7.6086795644878344e-02 -1.8818178874193633e-01
    9.3207388378599987e-02 -1.6046890779677966e-01
    3.0161411184132288e-02 -3.6073151190468217e-01
    1.1988141050995686e-02 -1.0539499231691543e+00
    1.2576833559096239e-02 -1.7938821808802115e+00
    1.1749981539190818e-02 -1.2747322619674666e+00
    1.1189611119744532e-02 -1.3768358234777334e+00
    1.1547894968060470e-02 -1.6909228498809061e+00
    1.2216733711463179e-02 -9.9628771464498889e-01
    2.3275646536374400e-02 -4.0157446498151089e-01
    7.4500866536272289e-02 -2.0677465711259643e-01
    1.1002459840183773e-01 -1.7850220008583345e-01
    3.0592784421820930e-02 -3.6377930482711779e-01
    1.2788763472721801e-02 -1.0444961382410438e+00
    1.1754407501115199e-02 -1.6915623520360132e+00
    1.3030340492071163e-02 -1.5795670302121814e+00
    1.3359684288723753e-02 -1.8069950984765315e+00
    1.1688134075987313e-02 -1.7349942007146981e+00
    1.3745912142253475e-02 -1.0017014448406842e+00
    2.5566251563028958e-02 -3.9817036952723073e-01
    7.2949487768406679e-02 -1.9744856229220151e-01
    1.3499925017012310e-01 -1.6879710625349137e-01
    4.4039328612280201e-02 -3.2166957650285705e-01
    1.6700563360330996e-02 -8.1364344058380744e-01
    1.2598878506294367e-02 -1.2609290308510082e+00
    1.1118296650631380e-02 -1.2245621576903438e+00
    1.1511040854117201e-02 -1.2803617747736300e+00
    1.2433033973076223e-02 -1.2298758119647020e+00
    1.6478247543371013e-02 -7.4100583952163002e-01
    3.3372177502873794e-02 -3.2835564371791015e-01
    1.3401429045109864e-01 -1.7960265724458435e-01</input_scale>
  <output_scale>
    5.2631578947368418e-01 4.9999999999999994e-01 5.2631578947368418e-01
    4.9999999999999994e-01 5.2631578947368418e-01 4.9999999999999994e-01
    5.2631578947368418e-01 4.9999999999999994e-01 5.2631578947368418e-01
    4.9999999999999994e-01 5.2631578947368418e-01 4.9999999999999994e-01
    5.2631578947368418e-01 4.9999999999999994e-01 5.2631578947368418e-01
    4.9999999999999994e-01 5.2631578947368418e-01 4.9999999999999994e-01
    5.2631578947368418e-01 4.9999999999999994e-01 5.2631578947368418e-01
    4.9999999999999994e-01 5.2631578947368418e-01 4.9999999999999994e-01
    5.2631578947368418e-01 4.9999999999999994e-01 5.2631578947368418e-01
    4.9999999999999994e-01 5.2631578947368418e-01 4.9999999999999994e-01
    5.2631578947368418e-01 4.9999999999999994e-01 5.2631578947368418e-01
    4.9999999999999994e-01 5.2631578947368418e-01 4.9999999999999994e-01
    5.2631578947368418e-01 4.9999999999999994e-01 5.2631578947368418e-01
    4.9999999999999994e-01 5.2631578947368418e-01 4.9999999999999994e-01
    5.2631578947368418e-01 4.9999999999999994e-01 5.2631578947368418e-01
    4.9999999999999994e-01 5.2631578947368418e-01 4.9999999999999994e-01
    5.2631578947368418e-01 4.9999999999999994e-01 5.2631578947368418e-01
    4.9999999999999994e-01 5.2631578947368418e-01 4.9999999999999994e-01
    5.2631578947368418e-01 4.9999999999999994e-01 5.2631578947368418e-01
    4.9999999999999994e-01 5.2631578947368418e-01 4.9999999999999994e-01
    5.2631578947368418e-01 4.9999999999999994e-01 5.2631578947368418e-01
    4.9999999999999994e-01 5.2631578947368418e-01 4.9999999999999994e-01
    5.2631578947368418e-01 4.9999999999999994e-01 5.2631578947368418e-01
    4.9999999999999994e-01 5.2631578947368418e-01 4.9999999999999994e-01
    5.2631578947368418e-01 4.9999999999999994e-01 5.2631578947368418e-01
    4.9999999999999994e-01 5.2631578947368418e-01 4.9999999999999994e-01
    5.2631578947368418e-01 4.9999999999999994e-01 5.2631578947368418e-01
    4.9999999999999994e-01 5.2631578947368418e-01 4.9999999999999994e-01
    5.2631578947368418e-01 4.9999999999999994e-01 5.2631578947368418e-01
    4.9999999999999994e-01 5.2631578947368418e-01 4.9999999999999994e-01
    5.2631578947368418e-01 4.9999999999999994e-01 5.2631578947368418e-01
    4.9999999999999994e-01 5.2631578947368418e-01 4.9999999999999994e-01
    5.2631578947368418e-01 4.9999999999999994e-01 5.2631578947368418e-01
    4.9999999999999994e-01 5.2631578947368418e-01 4.9999999999999994e-01
    5.2631578947368418e-01 4.9999999999999994e-01 5.2631578947368418e-01
    4.9999999999999994e-01 5.2631578947368418e-01 4.9999999999999994e-01
    5.2631578947368418e-01 4.9999999999999994e-01 5.2631578947368418e-01
    4.9999999999999994e-01 5.2631578947368418e-01 4.9999999999999994e-01
    5.2631578947368418e-01 4.9999999999999994e-01 5.2631578947368418e-01
    4.9999999999999994e-01 5.2631578947368418e-01 4.9999999999999994e-01
    5.2631578947368418e-01 4.9999999999999994e-01 5.2631578947368418e-01
    4.9999999999999994e-01 5.2631578947368418e-01 4.9999999999999994e-01
    5.2631578947368418e-01 4.9999999999999994e-01 5.2631578947368418e-01
    4.9999999999999994e-01</output_scale>
  <inv_output_scale>
    1.8999999999999999e+00 -9.4999999999999996e-01
    1.8999999999999999e+00 -9.4999999999999996e-01
    1.8999999999999999e+00 -9.4999999999999996e-01
    1.8999999999999999e+00 -9.4999999999999996e-01
    1.8999999999999999e+00 -9.4999999999999996e-01
    1.8999999999999999e+00 -9.4999999999999996e-01
    1.8999999999999999e+00 -9.4999999999999996e-01
    1.8999999999999999e+00 -9.4999999999999996e-01
    1.8999999999999999e+00 -9.4999999999999996e-01
    1.8999999999999999e+00 -9.4999999999999996e-01
    1.8999999999999999e+00 -9.4999999999999996e-01
    1.8999999999999999e+00 -9.4999999999999996e-01
    1.8999999999999999e+00 -9.4999999999999996e-01
    1.8999999999999999e+00 -9.4999999999999996e-01
    1.8999999999999999e+00 -9.4999999999999996e-01
    1.8999999999999999e+00 -9.4999999999999996e-01
    1.8999999999999999e+00 -9.4999999999999996e-01
    1.8999999999999999e+00 -9.4999999999999996e-01
    1.8999999999999999e+00 -9.4999999999999996e-01
    1.8999999999999999e+00 -9.4999999999999996e-01
    1.8999999999999999e+00 -9.4999999999999996e-01
    1.8999999999999999e+00 -9.4999999999999996e-01
    1.8999999999999999e+00 -9.4999999999999996e-01
    1.8999999999999999e+00 -9.4999999999999996e-01
    1.8999999999999999e+00 -9.4999999999999996e-01
    1.8999999999999999e+00 -9.4999999999999996e-01
    1.8999999999999999e+00 -9.4999999999999996e-01
    1.8999999999999999e+00 -9.4999999999999996e-01
    1.8999999999999999e+00 -9.4999999999999996e-01
    1.8999999999999999e+00 -9.4999999999999996e-01
    1.8999999999999999e+00 -9.4999999999999996e-01
    1.8999999999999999e+00 -9.4999999999999996e-01
    1.8999999999999999e+00 -9.4999999999999996e-01
    1.8999999999999999e+00 -9.4999999999999996e-01
    1.8999999999999999e+00 -9.4999999999999996e-01
    1.8999999999999999e+00 -9.4999999999999996e-01
    1.8999999999999999e+00 -9.4999999999999996e-01
    1.8999999999999999e+00 -9.4999999999999996e-01
    1.8999999999999999e+00 -9.4999999999999996e-01
    1.8999999999999999e+00 -9.4999999999999996e-01
    1.8999999999999999e+00 -9.4999999999999996e-01
    1.8999999999999999e+00 -9.4999999999999996e-01
    1.8999999999999999e+00 -9.4999999999999996e-01
    1.8999999999999999e+00 -9.4999999999999996e-01
    1.8999999999999999e+00 -9.4999999999999996e-01
    1.8999999999999999e+00 -9.4999999999999996e-01
    1.8999999999999999e+00 -9.4999999999999996e-01
    1.8999999999999999e+00 -9.4999999999999996e-01
    1.8999999999999999e+00 -9.4999999999999996e-01
    1.8999999999999999e+00 -9.4999999999999996e-01
    1.8999999999999999e+00 -9.4999999999999996e-01
    1.8999999999999999e+00 -9.4999999999999996e-01
    1.8999999999999999e+00 -9.4999999999999996e-01
    1.8999999999999999e+00 -9.4999999999999996e-01
    1.8999999999999999e+00 -9.4999999999999996e-01
    1.8999999999999999e+00 -9.4999999999999996e-01
    1.8999999999999999e+00 -9.4999999999999996e-01
    1.8999999999999999e+00 -9.4999999999999996e-01
    1.8999999999999999e+00 -9.4999999999999996e-01
    1.8999999999999999e+00 -9.4999999999999996e-01
    1.8999999999999999e+00 -9.4999999999999996e-01
    1.8999999999999999e+00 -9.4999999999999996e-01
    1.8999999999999999e+00 -9.4999999999999996e-01
    1.8999999999999999e+00 -9.4999999999999996e-01
    1.8999999999999999e+00 -9.4999999999999996e-01</inv_output_scale>
  <weights>
    <_>
      -1.7649385786398895e+00 -3.8977030065124776e+00
      -2.1016662143916481e-01 -7.7907613813844712e-01
      -8.1918769002813641e-01 -2.4668971282963403e-01
      1.1039328010603877e+00 -9.8188295413526527e-01
      -1.5045285522127123e+00 -1.9547579894965450e-01
      1.4136954003202158e+00 -3.9941614378825521e+00
      -2.3870924806140521e+00 1.4259319642739399e+00
      -6.2220459684816731e-01 -6.9235579173970985e-01
      -2.1937217469985506e+00 -2.1694496127952614e+00
      2.1650938754930285e+00 -4.5543951192701763e-02
      3.2909121614747296e+00 2.9316309861853762e+00
      1.4493547341165445e+00 -5.1893005184996266e-01
      1.0745304685200499e+00 1.6121219790119570e-01
      -5.0709528077514654e-01 -1.1780629378086231e+00
      3.8088607225524704e+00 -6.2309141442194693e-01
      -2.0617070150502531e-01 1.8362752524118084e+00
      7.9791482731975991e-02 -1.3486880514590009e+00
      -5.7104608558339987e-01 2.8721649617029468e+00
      -3.5983764969309406e-01 1.9604916559370031e+00
      9.8529771046628933e-01 2.2598614155854650e+00
      -1.7049390280300130e+00 7.4672409974189535e-01
      2.6584924623197623e+00 5.7708179964988858e-02
      2.8888945977877428e-01 1.7613271675711031e-01
      2.3989898473548106e+00 8.6939868158608535e-01
      1.2013578318843459e+00 2.8449225244621172e+00
      -1.9300182525523106e+00 1.9173966587896077e-01
      4.3567677276403414e+00 -2.4602161712490958e+00
      -7.8800964324263881e-02 1.5321850730406212e+00
      -5.5266681508210036e-01 -3.1412163217016911e+00
      -1.9144292476543461e+00 -2.5580223731310209e-01
      4.5836245171078915e-01 -1.7759092058848075e-01
      7.6412056721563515e-01 4.6174898156957667e-01
      1.1440576239713460e+00 -7.7397063382454401e-01
      -2.2799089427176400e-01 5.1938894785502387e-01
      2.6941007717490378e-01 -7.1947451722408273e-01
      2.2720352163888666e+00 9.8167451273309420e-02
      1.3396038767515750e+00 2.1455997833654519e+00
      -6.8337802698973071e-01 3.9994198495367290e-02
      -6.3711855807907358e-01 -2.0735178850763032e+00
      -1.0106805833080801e+00 -2.2201982352484093e-01
      -1.5266150466542479e+00 1.3858452724421316e-01
      1.9592922022255057e+00 -2.4514663291904237e+00
      4.3315689104144517e-01 -1.9356034142772252e+00
      -1.3489975808862795e+00 -1.4164199751823394e+00
      9.6698797065282616e-01 2.7989386776878300e+00
      1.5170696791397504e+00 2.0525780052373284e+00
      5.4435922663942078e+00 -7.7043574364095291e-01
      2.6972391063452461e+00 -1.8782193878996174e+00
      -1.0576353704257124e-01 3.0720835693237550e-03
      1.7834350173606324e+00 1.3279844486616030e+00
      -2.0051676352310279e+00 -6.4237658813843390e-01
      1.1223102406808683e+00 -4.8471671376786691e+00
      4.0822841877573826e+00 -3.0271297737449547e+00
      6.5723181693611199e-01 1.5174556449762804e+00
      -2.6336683629434194e+00 -2.2443605958320959e-01
      3.6730875724508026e-02 -2.0831449248075526e+00
      3.7369921820318286e+00 3.1738474915567587e+00
      7.2482832340140219e-02 2.6547643498452228e-01
      -2.9151683771901702e+00 3.2052895968072037e-01
      -2.9857433465664602e+00 -1.5781967737617821e+00
      1.7402113431420946e-01 -2.3495704962069346e+00
      1.8047404505296273e-02 2.0570651649744720e+00
      1.8410452945097815e+00 3.9166459870557024e+00
      -3.8766566233893111e-03 3.3678962560611416e+00
      -2.7132521553832887e+00 -1.0561624506834615e+00
      -6.4271019832103020e+00 -9.5285336842618609e+00
      3.3434623875144331e+00 8.9433831725277440e+00
      5.4813942137910328e+00 4.9920593291454418e+00
      5.1301291589784359e+00 -8.2983383183388326e-02
      -7.9989681086411331e+00 1.1652295743602825e+00
      -5.3117099479466319e+00 -1.3426625021096390e+00
      -2.5807423694572287e+00 4.9347931934327862e+00
      -4.6887641662789861e+00 2.6405506273137722e+00
      9.9905598541929586e-01 -5.1482989014452292e+00
      1.8664564244409190e+00 1.3736687971377590e-01
      -6.1274491726359006e+00 -3.1748100434286135e+00
      2.3918621116288907e+00 -1.8330139535328247e+00
      5.9777609648500070e+00 -4.1797814036397538e+00
      -3.4562826286134616e+00 3.8301521411788420e+00
      1.7850320044223944e-01 5.1292052359171016e+00
      2.5109070771318134e+00 -5.2238180781750554e-01
      -2.6785829070980540e+00 3.1362708632247605e-01
      1.2290208169843193e+00 -8.5584402731843878e-01
      1.0365828445505680e+00 5.3261080694909861e-02
      -4.2422831936926482e+00 -1.6678588716848894e+00
      -2.9754595796119160e-01 2.0971672440420397e+00
      2.7671672999242989e+00 5.1930639030915415e+00
      3.1797541071801829e+00 -1.3810597682928312e+00
      4.2301703025540043e+00 -5.6868974290296614e-01
      -1.9561622624261190e+00 1.0516916313256990e-01
      -2.6656404750175677e+00 -3.4620997963797731e+00
      2.5038272656605507e+00 -3.4880190853905972e+00
      8.8294005857930158e-01 7.6573334545949867e-01
      3.1021293810138424e+00 -3.6732554974619882e+00
      -3.5414187507661419e+00 -4.6507081934359675e+00
      -2.5974090996180172e+00 -3.3143790639907893e+00
      6.8880373397031658e-01 -1.7017003211285373e+00
      2.9760319726885149e+00 -6.5133091572555619e+00
      -1.7209829981175628e+00 1.4663158497856335e+00
      -3.3849126944314816e+00 1.9993179701047288e+00
      3.7861250020202792e+00 3.5668797107771186e+00
      -5.3342038957620427e-03 -4.6389693432048569e+00
      1.4579541661345770e+00 5.4716426621903862e+00
      -5.3495877389148836e+00 -7.7111386152187755e-01
      1.9515616491696139e+00 -2.7488179647056201e+00
      -6.9433272252023370e-01 -4.6543396935175645e+00
      1.0361366803809511e+00 -2.5514569777696754e+00
      4.5830816553293401e+00 -5.0937150547934928e+00
      -1.9827187795617489e+00 3.4331583649641186e+00
      -7.7325146862789946e+00 3.3387486072929551e-01
      -6.6697756227467098e-02 -4.1412239671224791e+00
      7.0315870465553187e-01 -4.2409960874923573e+00
      3.5455890524040052e+00 -1.2121769861324485e+00
      -3.4138493492228004e+00 3.5132747915576695e-01
      -9.9260037647311989e+00 -2.1815003739063874e+00
      8.5355457733498312e+00 -2.6456510730955265e+00
      2.5573243342518376e-01 1.7757057060008161e+00
      2.4649169487846967e+00 -4.0400190310935162e+00
      1.8303304789070520e+00 -1.3001194958786564e+00
      -3.0477439134189481e+00 9.8809870197393792e+00
      -1.6025233359707851e+00 6.6578050652276222e-01
      -2.8584855403247156e+00 6.3349329710968250e-01
      -8.3546512675198997e-02 2.1558986800558340e+00
      6.2840280928180645e+00 -6.7121210134231279e-01
      -4.0325087747901263e+00 -2.8454966267123978e+00
      -1.0662512390801944e+00 -1.0756665098427662e+01
      2.4015440687666643e+00 -4.2862535841165501e+00
      -1.4934721583393103e-02 2.9467650631100324e+00
      2.5898938686891437e+00 4.8653259777038671e-01
      -4.2532800720746105e+00 -3.5968192675610142e+00
      1.9666993527625787e-01 3.5407126724362077e+00
      -2.1512212252410270e-01 3.7301958937758402e+00
      -5.7429404635593617e-01 1.7822940840042931e+00
      1.4942351720859903e+00 -4.4857673576840085e-01
      9.7894720083062836e-01 7.3470823760415724e+00
      2.9321637404176046e+00 1.0889316064168213e+00
      -5.0877281736528328e+00 -4.0418241412357420e-01
      6.9228043217497826e+00 -5.1461178918299764e+00
      4.4717368831613298e+00 -2.9084885097417810e+00
      -6.1562863086136210e-01 1.3352199995123104e+00
      -1.9540388227245786e+00 1.4607742086244320e+00
      7.2000201937367814e-01 -1.6879842821332731e+00
      -2.1672297596585929e-01 1.3037810498312677e-01
      3.1575393938600600e-02 -5.5586794553963550e+00
      1.5729725006804340e-01 1.2522227406811723e-01
      3.2517097373215126e-01 -6.0472763900273963e-01
      2.0616944182990964e+00 2.2540924511396107e-01
      -3.3505599158783070e+00 3.2420950463628491e+00
      -3.4023804205066782e-01 1.6379196567521139e+00
      6.3940340533598317e-01 -4.6430887118432596e+00
      -3.8087069486385849e+00 7.9319098095713447e-01
      4.5501572300301829e+00 1.8115799257302447e+00
      3.8338555300896102e+00 6.1930183482853995e-01
      5.8704296994742178e-01 -2.5441544500207343e+00
      2.5918874070702382e+00 -5.4405990535973681e-01
      1.4698077097419242e+00 1.2186491233246086e+00
      8.9963806393004830e-01 -3.3183438840179118e+00
      2.3304046576411181e+00 -2.6388467684433081e+00
      2.8913183495678267e+00 -4.3048955892908652e-01
      1.5989027426648678e-02 2.7257336331937592e+00
      3.4169290151951821e+00 3.9735689464996127e+00
      -1.0088868301145191e+00 5.9688895667297293e-01
      1.9065073127200360e-01 -4.8520352108681464e-01
      -7.2708722451542052e+00 -1.3583107629285891e+00
      3.0533224649629074e+00 2.7451407305921172e+00
      -1.1369044430190338e+00 -9.7942428164164841e-01
      -1.0781125276552654e+00 -2.5208244821702395e+00
      -6.5505222534886398e-01 1.2312285656586359e+00
      -3.7532384930033862e+00 2.3051948683220695e+00
      -1.5326936675973265e-02 -3.7774461110192341e+00
      1.0303696628971704e+00 6.5402735464781192e-01
      -1.2344521407963100e+00 2.7435810521534160e-01
      2.6326976725246682e+00 -2.2223587121717117e+00
      1.2073792198185881e-01 -1.1930540688564814e-02
      -1.1713281466102545e+00 -6.5333051583759849e-01
      6.0326464307567829e-01 1.9549586663657037e+00
      -3.2427087700705615e+00 -1.8243849774250216e+00
      4.0065860748641224e+00 7.0722939224635850e-01
      -1.3152969020158312e+00 1.7238101780221027e+00
      1.3166208398620283e+00 -1.4575290814099431e+00
      1.5193822489409003e+00 2.9625510857012838e+00
      2.4197851921080162e+00 3.3206137381791550e+00
      -1.2104240363081114e+00 4.5376848020913076e+00
      7.3480656161514590e-01 3.3571059632277314e-02
      1.4694445961164354e-01 -1.5078144070190453e+00
      4.0793112790620079e+00 4.8828010379165923e+00
      2.3095440456913803e+00 -9.1316325487195282e-01
      -3.2472512226290444e+00 1.3675866402831893e+00
      4.5866336236968799e+00 2.5923727804827794e+00
      -1.1820445462212799e+00 5.4607384672843751e-01
      3.2412222774308601e+00 -2.3845723181903419e-01
      -2.1555999161149133e+00 -2.7651951333385343e+00
      2.4970542333285964e-01 4.2943129593675855e-01
      2.7054496562453667e-01 5.9674805281703425e-01
      5.2740880391494793e-01 5.6844155654385542e-01
      5.9559138026581826e-01 -1.5832516006404649e+00
      -1.2649110832138017e+00 2.2121903306972062e+00
      -1.3726446300016080e+00 2.7287731840423204e+00
      5.4879707557062698e+00 -1.6037187427212929e+00
      -1.9214012131134275e+00 -4.5343816836059736e-01
      8.0874575853284003e-01 -1.1114231501786973e+00
      -2.3040783102824967e+00 2.0419180320001757e+00
      -3.2998560930495169e-01 -4.6416837130914523e-01
      -1.5507667844527260e+00 2.5586024001090352e-01
      3.5647121606019583e-01 8.3497557435883973e-01
      -1.4727966553496694e+00 5.2741772640007800e-01
      6.2853888915585387e-01 -3.8737964900831909e+00
      1.4768525205985947e-01 -1.7544395814988867e+00
      -4.3047780330909351e+00 3.0992731186267766e+00
      4.2102179418474961e-01 -1.3196224806543111e+00
      1.4536807956870630e+00 3.5356693805468593e+00
      1.8782603104908706e+00 -2.3461126381163568e+00
      -1.4743699788749445e+00 -2.0922921238904160e-01
      8.0626876298849770e-01 -1.3256747218655549e-01
      6.3513283206213000e-01 3.8426109747037036e+00
      -5.7481168041054431e-01 2.8458644936708344e-01
      3.0878560262007508e+00 -1.1348079479148279e+00
      1.1394016979402346e+00 3.5046917585262736e+00
      -2.0188547431260790e+00 -4.1997743507442659e-01
      1.2430138130325505e+00 -1.5562310631337731e-01
      -1.3928127041374496e+00 -7.4708695596543329e-01
      -4.1578105611958378e+00 1.9798261107724511e+00
      6.1432326870554865e-01 -1.6165302925606115e+00
      3.0128511810631642e-01 1.2057626326386723e+00
      1.2191614340384447e+00 4.2604160824239812e-01
      -2.4164977887908626e-02 -2.2720046264254306e+00
      -1.7960312421963620e+00 -2.2215838623641484e+00
      4.1106887426355751e-02 2.8499499128180954e+00
      -1.2894257855769384e+00 -1.4387563265734196e+00
      -4.9093139690434978e-01 1.5203504457938996e-01
      -1.3655486887050758e+00 -7.4182144189553822e-02
      -1.6743208631926589e+00 2.3785951046613216e-01
      -1.5816061763743920e+00 1.9976453223715018e+00
      5.2884075511515043e+00 1.2026271728721316e+00
      6.1605465508024171e-01 4.0661304664049908e-01
      2.5965173528007695e+00 2.6165408277186990e+00
      1.1985651362645608e+00 -2.4051045510712507e-01
      -2.1642332775419777e+00 5.7136615647263667e-01
      -1.7631439312176043e+00 6.9378908860462142e-03
      4.6631318277297490e-01 -2.3670887992889272e-01
      -1.7064122246566178e+00 5.5866733696284221e-01
      -2.4159970650237486e+00 1.4688368670577742e-01
      -7.3353923935329945e-01 -7.2378169764752986e-01
      -2.1705404696875101e+00 -1.0012174895618240e+00
      -3.0181532337929058e+00 2.0723669269483858e+00
      -3.3848468175439639e-01 -1.7429766250492702e+00
      1.7975205774612977e+00 -2.5922692640969647e+00
      -1.9912700195198143e+00 1.9739171980948804e+00
      2.0932715175336228e-01 -2.9540900813213598e+00
      -2.4860134634714900e-01 1.1729658142718622e+00
      -6.1084065065889120e-02 -2.2435446113420028e+00
      -1.0712466744689202e+00 2.1487095739826897e-01
      8.9342444913601848e-01 -1.9817712275704782e+00
      -1.8380496094958991e+00 8.0591055102496822e-01
      -1.9352013221707098e+00 2.4034497971524416e+00
      2.0943837190771584e+00 -8.0710259702154374e-01
      8.8925730606457665e-01 1.1326054941489920e+00
      1.2779934361006695e+00 7.3449395336952361e-01
      -1.2788788094820980e+00 3.5196821090098385e-01
      -8.2653756068232731e-01 1.9152706686866188e+00
      4.5293835476309656e+00 9.3162232999211569e-01
      -1.2692440113628354e+00 -3.9424426036814055e+00
      -7.6489366203049775e-02 2.1281706225597028e+00
      -1.0745128159476802e+00 7.4548792519435347e-01
      7.6441486312853812e-01 -1.4677546038958029e+00
      -9.3195558016843072e-01 -1.0458809132142599e-01
      5.0265102942264628e-01 3.9969485054372700e+00
      -8.2666032872336603e-01 -2.3505415596893406e-01
      3.5092522537819364e+00 -2.1289701852673808e+00
      -1.1387133333986426e+00 4.0461842899525937e+00
      -5.8883378348100635e-01 -8.3316472813045539e-01
      -2.8646964307544076e+00 -1.9773128807383125e-01
      -1.1132630807985389e+00 -3.4967851430055075e+00
      -1.6354238476031755e+00 -1.2643397158799172e+00
      -1.4513978294199028e+00 -9.8366285796290553e-01
      -1.6300078750415947e+00 -1.4097672397841951e-01
      4.8962642195205980e-01 -1.4440702933679324e+00
      -3.1229945174465921e+00 -1.6829326686041921e+00
      -3.8122612135377043e+00 1.1611990605108400e+00
      1.6842570524263041e+00 7.9607118923292586e-01
      -2.2681970309745467e-01 -4.1004297445696558e-02
      3.9564309494819057e+00 -2.0832970246893407e+00
      6.0183857822986533e-02 6.9208106934277911e+00
      -5.6263299727760501e+00 -9.2070732335757244e-01
      8.8179882678430543e-01 1.5311563602975899e+00
      1.3298105225465089e+00 -1.8658045250662563e+00
      2.9598561284873222e-03 6.8289234396822618e+00
      -1.6019792615153081e+00 -1.1645366309243517e+00
      3.7937727178607683e+00 -1.4480784201364061e+00
      -3.0434518331681706e+00 4.6477763937209071e-01
      -1.8487990184686873e+00 -4.0568266123298784e+00
      1.7132034440460837e+00 2.5220344995508426e-01
      2.5165647194913663e+00 1.1420503717763026e+00
      -3.9505205884833865e+00 -1.0318183472462907e+00
      1.9430728903221455e+00 -3.3543011742619901e+00
      3.5541301471585305e+00 -6.3004615581754353e-01
      -3.1577936376923660e-01 -2.1106791334333970e+00
      -2.9684203588674332e+00 -3.5378206058942013e-01
      -2.1683456636708356e+00 -1.4239324039344390e+00
      2.5539396034281854e+00 9.3786001806447217e-01
      1.6168010792818233e-01 -1.6035260422749555e+00
      6.9915972122483261e-01 -1.3730668596843703e+00
      -2.7044584060527671e-01 7.2247818286816434e-01
      1.5907140738221865e+00 1.0630179326999412e+00
      -2.2207029157169837e+00 4.9872013274175819e-01
      2.8089672280452378e+00 -1.6670518711412925e+00
      -4.7809988043851277e+00 5.9306364406310159e+00
      1.7829593676239259e+00 4.9484120930729270e-01
      -1.4562484260478938e+00 -1.1236018533248662e+00
      -2.7604500846672151e+00 2.3633707578733790e-01
      -7.9925443323015777e-01 -2.6574629852973496e-02
      -3.0200460333391854e+00 1.6008483529257169e+00
      1.2232924171263646e+00 -3.2607613107816054e+00
      -3.4222861932926647e+00 -3.6649088416152087e+00
      1.3287055071630705e+00 -1.5347248692683875e+00
      -3.6039571197173053e+00 2.7202235921599621e-01
      5.3420349713707049e-01 -7.6359714616871210e-01
      2.8731589132738411e+00 -9.5202326413348837e-01
      -1.1736301991642242e+00 -1.9738524346420425e-01
      -2.4463151121185551e+00 -1.1443814838754779e-01
      2.9960731425721336e+00 -1.1577577219899406e+00
      2.9050030895285084e-01 3.2645991232167884e+00
      -8.9342193440628281e-01 1.3195265605319202e+00
      -1.9080737874109083e-01 2.8978687612776866e+00
      6.7596464940565149e-01 -1.2611259778029835e+00
      -1.2380146734649367e+00 1.5966393606579046e+00
      -2.1543488411051355e+00 9.6445578113488098e-02
      -2.5011099376525778e+00 -4.9024983361852736e-01
      -3.7705001954133754e+00 3.1614570078437126e-01
      -1.0347365590316537e-01 1.4529937223193756e+00
      1.8366440997856481e+00 2.1371724460970931e+00
      -2.7091887193959767e+00 1.1984458339391826e-01
      -6.6031522745175253e-01 5.2372336947436737e-01
      4.1804101550085990e+00 -2.6764669029079440e+00
      -1.6818642728763606e+00 -5.6602096196719665e-01
      1.8255041615168575e+00 -2.3022076355513268e+00
      -2.8527721025077818e-01 1.1099965155599367e+00
      -4.2050753196227131e-01 -1.5888018048089672e+00
      3.9940681638415296e+00 1.7526157089143798e-01
      9.0622628912107095e-02 3.8179296281671813e+00
      -4.1083498775194718e+00 1.3122753642858958e+00
      2.2692803805912849e+00 2.5104393741830364e+00
      -1.3097283130816295e-01 -1.5299498984884492e+00
      4.7470836998536861e+00 -5.8511991627270099e-01
      2.5233751126435466e+00 1.9432116481384663e+00
      1.3527558844893406e+00 -4.5041116211209804e+00
      9.4444811867107348e-01 -2.2681316992019722e+00
      1.1816260751512011e+00 -2.6033622540017282e-01
      -8.8799979439658150e-01 -8.5026488733239214e-01
      -2.4153683748964840e+00 5.1880515100521691e+00
      3.6148549426340149e-01 2.5075316212645622e+00
      -1.3069657765682057e+00 2.1924283199880215e+00
      -1.3783004542732293e+00 8.1592504783364739e-01
      3.6236315853760943e+00 6.2223464435755294e-01
      1.4935625717181720e+00 2.4167280346442364e+00
      8.3843686649644911e-01 -3.0076547219825769e+00
      -1.0319740206950956e+00 1.2793800323273818e+00
      1.1712775278247676e+00 2.0917911498715391e-01
      1.5489007816528897e+00 -2.6423495337904961e+00
      -5.2180345140516571e-01 -2.0467241311610125e+00
      -6.3889499450038545e-01 1.8932940340392995e-01
      -4.0258739924436196e-02 2.4156529286416712e+00
      1.0505104766550395e-01 -6.4997335020787705e+00
      2.3595009529858069e+00 1.8141317663463112e+00
      -1.0054600969937997e+00 -2.7346058017587316e+00
      -4.1533771825892291e-01 -2.6690417292587556e+00
      2.7140143362725850e+00 -2.7005992649682451e+00
      -8.3366601623518199e-01 -1.3022883087152972e+00
      3.3653504680122395e+00 2.8831586739326465e-01
      -6.4134273738767575e+00 1.9154458352203643e+00
      -3.2519105701134110e-01 3.8659314753809300e+00
      -8.5379046542393811e-01 1.6263245240678597e+00
      -4.2111736455307619e-01 -4.5515102886906744e+00
      -1.4694711888170098e+00 1.8324758068410181e+00
      -9.7169047160033661e-01 -1.6468739384872937e+00
      -1.6999960325048027e-01 -4.4672552380737907e+00
      -2.0996263208567716e+00 2.4434039314215830e+00
      2.3720450060432987e+00 -8.1531549484566856e-01
      3.1466135947537350e+00 -1.9953762697684843e+00
      -2.1438218975251724e-01 -3.4764984492427087e+00
      -2.6190131369013652e+00 -9.0067718408183339e-01
      -8.6372793924196478e-01 2.9457343942734449e-01
      1.1162156660342535e+00 -3.4124550736683479e-03
      2.1637593014665306e+00 2.6670774801991852e+00
      1.1684525612731336e+00 1.4421569081178134e+00
      -9.3216783300449801e-01 -4.4242447823116180e+00
      -5.6378210282083130e-01 -3.5028176510317506e+00
      1.7580401258106051e+00 1.1953346527679887e+00
      3.0687015583562696e+00 3.3131663534047928e-01
      -1.6730211631704421e+00 2.1552542756164145e-01
      -1.8358117768447191e-01 3.8258822703565711e-02
      -5.4830794291923479e-01 1.2962382260159073e+00
      3.8859960193635606e-01 -5.1786095133060495e-01
      -2.6846404778974993e+00 4.4220223582636047e+00
      3.9642452921501592e-01 2.5279057179028634e+00
      1.1460037531810141e+00 -1.2374041523474402e+00
      1.6064846681969833e+00 2.6337744534948775e+00
      1.4279078417501959e-01 -2.2915161515997462e+00
      2.2499158154816601e+00 -1.1335228620631443e+00
      1.3757274601115514e+00 7.1613635309627433e-01
      1.0376622546820462e+00 -3.2282348399216332e+00
      -7.7872459570991326e-01 -5.1068740194344775e+00
      -2.3036708734285813e+00 6.5159672111071232e-01
      -9.4157940295396714e-01 7.1743483926663254e-01
      -4.9465415157919207e-01 5.2801210289887779e-01
      1.5131592906513358e+00 1.6070291617059798e+00
      -1.7858899248055806e+00 -5.5552712201385634e-01
      -1.1373596260183794e+00 -1.1982176373704130e+00
      7.5501895892030424e-01 -4.4172681364240579e-01
      5.4235931196877516e+00 2.7749423550068699e+00
      2.8899140103088703e+00 -3.5795198140998687e+00
      2.9507268709451817e+00 2.3155194280312954e+00
      1.1775058154406470e+00 -1.7556076632615587e+00
      1.2484937909915523e+00 1.9208191230619512e-01
      -2.9459629580798801e+00 -6.6028447087978781e-01
      6.3204788615107799e-01 -7.9186253655552619e-01
      -1.5799062188584605e+00 7.0182219632617715e-01
      2.5875536441539548e-01 1.8921476449155501e-02
      -2.1864240869357698e+00 1.2279220456225318e-01
      -9.9193102743649331e-01 -4.4789833771409358e+00
      3.7188588472829385e+00 -2.6542687850707591e+00
      2.2215120800596302e-01 -6.5894831514923446e-01
      -6.2571093681431655e-01 7.1704511059372811e-01
      1.2973059312359017e-01 -1.3557255463517528e+00
      -9.5752779273012212e-01 1.0070111388288576e+00
      -2.9116649318861126e-01 -4.2269645447271351e+00
      1.9622005502589126e+00 -6.9366400381648841e-01
      2.2819819376475294e+00 -1.4061225405727833e+00
      -1.8682114776249361e+00 -9.6565578540605002e-01
      3.2387010264147081e-01 1.3016780137598352e-01
      5.5133379835703362e+00 -6.8099755352943145e-02
      1.7302951536414561e+00 -1.1121611138557439e+00
      1.4100882208475363e+00 9.9530818153315481e-01
      1.3314257965966412e+00 4.6908029429317244e+00
      -1.1111151546699434e+00 2.8369505980259597e+00
      -2.2917787199091468e+00 -6.6087359359355158e-01
      1.3744494155170579e+00 4.4299724157436465e-01
      1.4851816176321719e+00 -2.7008520406855823e+00
      -2.6708324540257165e+00 3.6016670313689436e-02
      -8.5707218927566164e-01 2.6008625181296385e+00
      -5.1260592077968326e-01 -1.0716051892934568e+00
      3.2129059510656801e+00 2.8300875685393483e+00
      -1.8361082101022971e-01 1.9928301594278310e+00
      2.2327242940810277e+00 9.8750429439062826e-01
      3.2292352150038965e+00 -1.2184827687844113e+00
      -4.9406608372891492e-01 -8.8200944235515646e+00
      3.7208518094509352e-01 -9.1017741221366011e-01
      -2.1038898750206432e+00 -4.5318907249393575e-01
      -1.4073096534862533e+00 9.6079851097177660e-01
      -2.0328678544519803e+00 -3.1538833302678859e+00
      5.4176204445010683e+00 1.4019019585239834e+00
      1.7635333176130394e+00 1.7027380678921125e-01
      1.2034696019376732e+00 -3.2517441531596334e+00
      8.7408434611032249e+00 7.0101497097454457e+00
      -1.6095333411528707e+00 -1.4968508122394126e+00
      7.4886633632479240e+00 5.3635783555825811e-01
      1.0891470364814120e+00 -1.7935868270472879e+00
      -8.7594452708310233e-01 -2.3203228513220591e+00
      1.0598789999821094e+00 -8.4043897784619259e-01
      4.4714778965987922e-01 1.4386662313782939e+00
      -8.1355666496514267e-01 -1.9830281137890151e+00
      -4.7023774580799751e+00 -1.1693612741315103e+00
      -2.4559283477893465e-01 5.0961820388113459e+00
      2.4939945074269582e-01 4.1426454394591392e+00
      2.3248978714348660e+00 7.7640216241800197e-01
      -6.0120327675376195e-01 -6.7674339149371345e+00
      -1.8348510595176708e+00 1.2247943837538652e-01
      -4.7093707234564269e-01 4.3628709297525612e+00
      1.7510913890274251e+00 1.5476011802424889e+00
      -3.6889048605335155e+00 -8.4563091092302212e-01
      3.8321078429512583e+00 -4.2054682231448554e-01
      4.0213548376521402e+00 -1.0467658661160528e+00
      -3.1942556276634155e+00 5.3803022714381816e+00
      3.1905314014482906e+00 4.3419063406746865e+00
      3.2611087899422295e+00 1.3932160136847478e+00
      -2.6276536774143917e+00 3.4454072786406109e+00
      -2.3055417182924054e+00 -1.6410030526843864e+00
      2.3043440861572044e+00 -4.0147437858284789e+00
      2.7199442514989891e+00 -1.4092717686441086e-01
      -1.5131851378542638e-01 2.0235179214255669e-01
      1.2309850954661761e+00 -1.4959874822841570e+00
      -1.2290972499858301e+00 -9.2415586537202599e-01
      -4.2514625331599493e-01 4.2149608416508650e+00
      -2.8711640190514096e+00 -2.0528535410169408e+00
      2.7055535010490694e-01 -4.0671132769473060e+00
      -2.5992894322684519e+00 6.2039645252556825e+00
      -3.1878497223531720e-02 -8.6065662587926847e-02
      -1.7141943413962804e+00 4.6049480331825388e+00
      3.0776645362704791e+00 6.5695748825851750e+00
      5.6804693182194464e-02 4.9284397162000793e-01
      1.9900884281221556e+00 2.7413791440330968e+00
      3.0326833475785393e+00 -7.0888494382772818e+00
      2.2904470332686988e+00 9.0654743166836091e+00
      -4.9497603763450915e+00 -3.9590885547748620e+00
      5.2648727456354658e+00 9.7692117278305357e+00
      7.0996412378094247e+00 -2.9408467142479360e+00
      -3.6741867627775222e+00 -4.3596230399577696e+00
      6.1404390495293324e+00 1.7688426096268173e+00
      1.2243916551288532e+00 3.2285296482364134e+00
      -1.6341383020802064e-01 -7.0420290194769120e+00
      1.4676543787310865e+00 3.8289922714116171e+00
      9.0264562332152951e-02 -4.8630080412548136e+00
      -1.4408227435977579e+00 -2.5127315565541092e-01
      1.5282750958814493e+00 1.1815873977181381e+00
      -4.8657182350495276e+00 -1.4410913494299984e+00
      -1.0420928027959702e+00 4.3222231199610723e+00
      -4.4577193951203302e+00 2.2846930994887615e+00
      7.7618213278280761e+00 -1.8067416180641283e+00
      9.2014189857169644e+00 -2.4345927130213236e+00
      7.9872777430822088e+00 4.3451721914467596e+00
      4.6100844574647259e-01 5.1367625541746065e-01
      1.2951354963312240e+00 3.2723757546121433e+00
      1.8432954083244191e+00 2.0568023017116923e+00
      -3.0175348110041962e+00 -4.3725555958687101e+00
      4.5956172985769190e-03 2.8896338060501794e+00
      1.3581319079318281e+00 -3.5311264646954768e+00
      2.6570502972327716e+00 1.8529019594999996e-01
      5.4710440988426390e+00 1.3203549764114444e+00
      -2.7355243772193880e+00 -2.5854597749008397e+00
      2.9117065657467651e+00 -1.5050692948981290e+00
      -8.8953471542856799e-01 1.6261465578968903e+00
      -2.5958144300023775e+00 -1.0660639387548039e+00
      -3.4836921185276887e-01 3.9967249690975395e+00
      -3.3881734504804322e+00 -3.4889176682643341e-01
      -2.1856721108142523e+00 2.2370357377479246e+00
      -2.3605328170898718e+00 3.4534140642484568e+00
      -1.6374698988396119e+00 -2.7014468882952767e+00
      4.6659834361155834e+00 -3.6556734135237425e+00
      -3.4552649688089163e+00 -2.5169168946320669e-01
      -2.9799907627430180e+00 -1.6555574378000639e+00
      -1.6384965790467261e+00 6.6821842618518330e+00
      1.7499757010497450e+00 2.3095009697797289e+00
      -8.0073575239993144e-01 -1.9307582941513015e+00
      2.0069469594264686e+00 3.2930029481874605e+00
      -3.2638700044869724e+00 -1.2121078152080171e+00
      -3.2125626203653472e+00 3.4897725082111242e-01
      -8.6155952287725268e-01 -2.5468790478675079e+00
      2.0972023200763168e+00 3.5920358815356410e+00
      -1.1592751002143336e+00 -1.1244931909619871e+00
      2.4998156427258342e+00 -7.0485728598669928e-01
      -3.9939301547870980e+00 -1.1293627650004276e+00
      1.9614579085037396e+00 -1.5670789453273342e+00
      8.8519933411266261e-01 -3.2499853422819487e+00
      -1.5613890085392319e+00 6.4905076474031720e-01
      2.6562530235023418e-01 1.2645152148739685e+00
      -1.2416391596643244e+00 1.1302032962021498e+00
      -4.2975610598396692e+00 -1.1502351553556120e+00
      -1.7572480431192894e+00 6.8571363030636223e-01
      -4.5012082786885994e+00 6.1773827425948569e-01
      -9.8625904152998523e-01 -5.2013722973155820e+00
      3.4313896891206439e+00 2.8223244547615772e-01
      -8.6896659710823401e-02 1.0651088899603049e+00
      4.4512270738319826e+00 1.3603870495265158e+00
      1.4624269201335478e+00 1.0897708219813572e-01
      -1.6762140879935181e+00 -6.8798458607752151e+00
      -2.2694167962633047e+00 -1.4500623314046928e+00
      -4.1207029142158019e-01 -1.5179279335676705e+00
      -1.4439567661620185e+00 7.5025980441598517e+00
      -1.1059439506194686e+00 -5.7263786141809081e-01
      -1.3418514156315333e+00 -1.6320090839294037e+00
      -2.1568703182862170e+00 -1.2182995409318469e+00
      -4.0373780687965410e-01 -2.9320351969790877e+00
      -1.8874614076658429e+00 4.1846557795478079e-01
      -9.2557706620954006e-01 7.6541572416748749e-01
      4.3594012714032443e-01 -3.3151805132602678e-02
      -6.9067106126924946e-02 -4.2918016705866835e+00
      -2.7774329877975754e+00 -4.4023877655293306e+00
      -8.4325320905675405e-01 2.4656566314167012e+00
      -1.2191650768900000e+00 3.5325791882247010e-01
      -5.5220510223149735e-02 2.6573950304919052e+00
      -3.0382216258489991e-01 -2.2329214393645040e+00
      2.3974051320023446e+00 -6.7444224175957579e-01
      1.4074136210712309e+00 2.0385286514867023e+00
      6.3829528445180310e+00 4.9512676053611040e+00
      -3.9067833455610641e+00 6.6843280948830464e-01
      -2.4345779485304426e+00 4.9063500625119949e-01
      2.3358434068293682e-01 -3.7284342724355648e+00
      1.6734750644054339e+00 1.0680309240437605e-01
      5.8736309672114406e-01 2.4333052104348774e+00
      -2.6525471574360853e+00 -6.8365813845852622e-02
      1.4716820076001627e+00 5.9724535937619549e+00
      3.2029201662678077e+00 -1.2988656953461375e+00
      -4.3996250058043636e+00 -3.1270215214427504e+00
      -9.3402236474987210e-01 -1.0886520653783260e+00
      2.8323607381626941e+00 1.4913697964275144e-01
      1.6395960505233278e+00 1.0092342015079669e+01
      -8.4365015246876029e-01 -2.8568740743887249e+00
      -3.3599551325528489e+00 -4.2947276191817769e+00
      -3.2828499976261400e+00 -1.5168521166867639e+00
      -1.3157247676225114e+00 3.8120834461296980e+00
      2.2281714059729901e-01 -7.2705466447328426e-01
      -1.5521540708564361e+00 8.1840524412068927e-01
      3.2555876098450871e+00 1.6344751158616107e+00
      1.4270284607960713e+00 -3.2130339844171778e+00
      -1.1025885659461874e+00 -2.9640875198732983e+00
      4.0990479204418664e+00 -5.2279639336054053e+00
      -2.3696078280443715e+00 -4.8838834817124405e-01
      -2.8755749392181622e+00 2.4206857911234665e+00
      4.5319704195679114e+00 6.4263148415518256e-01
      -3.5544870407467397e+00 -6.5864123551427909e+00
      -1.9299929907821103e+00 -5.4936652138534781e-01
      -5.7041837488248126e-01 8.3487005487462707e-01
      6.8279898019020924e-01 -3.7122794440622497e+00
      1.8875596392958194e+00 -3.7785259287164288e+00
      1.9248961661321424e+00 1.4084860769766772e-01
      -2.3972266751166305e+00 9.6348296565470851e-02
      5.8998984114874586e+00 -2.0006563447228389e+00
      -2.4041602509946380e+00 7.1616939020691883e-01
      -7.5598056219404783e-02 -8.8119468730814599e-01
      2.1508185284990717e+00 2.7789475702754901e-01
      1.9072555086400145e+00 -2.5602566003439451e+00
      -4.7883672261042259e-01 -1.8240658835644745e+00
      -2.1067691317551596e+00 -2.7916431710215148e+00
      -4.9927703053989250e+00 9.3114669856736554e-01
      -1.5211097291296336e+00 7.3904657288502840e-01
      5.7505523415568272e-01 3.1854345543876095e+00
      -2.7725561559995024e+00 2.4494159454007045e+00
      2.1184487337362721e+00 -3.8829251093916350e+00
      -2.1021995939968869e+00 -1.1342059569048031e+00
      2.3572989702416458e+00 1.0816990213170692e+00
      3.4695055684397583e-02 -1.4210712979927334e+00
      1.4309871967302734e+00 9.6435393794200652e-01
      -2.4230761760752983e-01 -4.4185821922514021e+00
      1.9557784351085390e+00 -2.0163702790129885e+00
      2.4940240385053052e+00 -5.9518116666843390e-01
      2.4800442532975362e+00 1.0767793740116147e+00
      -3.1539695933462775e+00 2.1778325353772789e+00
      -6.6249079154391843e-01 2.4788853752043920e+00
      1.3990466395878076e+00 -4.6229146978630076e-01
      2.0532900874452437e-01 3.5377248880214829e-01
      -1.8433832936356684e+00 3.3330532459467471e-01
      -1.6704054810832816e+00 -6.0469154763502675e-01
      -1.8540398268898486e+00 1.0178946082911249e+00
      3.5840686972832323e+00 -1.5522150462004298e+00
      1.2777800323013122e+00 2.9676860989674774e+00
      -3.7221111443925792e-01 -1.9039895699217602e-01
      1.8386986907133338e+00 3.7031740276616771e+00
      -2.3901387728421843e+00 -3.5291030426664536e+00
      5.8015574643095782e+00 4.2868089080857852e-01
      1.3494456673399067e+00 -3.4645545142101626e+00
      -7.0074996986723903e-01 -5.1244624539637647e+00
      -1.0682791520932968e+00 2.3204206481200353e+00
      -3.0910313506333364e-01 2.0444041122458891e+00
      -2.4410141060734518e+00 -1.0703156291477531e-01
      6.9971821604493589e-01 4.5887881345233943e+00
      4.5581915334430889e-01 -3.1145130554284450e+00
      -2.0239322950361776e+00 2.2811600330191579e+00
      1.5881222869367997e+00 1.3839082920305716e+00
      -5.0051452787813924e+00 -5.6751636009001502e-02
      -4.5899018100949535e-01 -3.5423254903120163e+00
      4.7948184940672105e+00 2.4845953320620784e+00
      -1.8428152151993866e+00 -3.8542475774984637e+00
      -2.2073776507694824e+00 1.5084383201729785e+00
      2.9792716144114877e+00 -1.6908330082116694e+00
      -1.1991527852434389e+00 3.5575230710716905e+00
      -8.0721291806613955e+00 3.8195231601910278e+00
      2.9874315558433997e+00 2.5436745723111120e+00
      1.0635182920087791e+00 -5.3328907851230536e+00
      3.9069771990677515e-02 3.2251859444721052e+00
      1.1390648327784745e+00 -1.8653598730169754e+00
      -4.8259260631427814e-01 -2.4501698969610608e+00
      -3.5458531481165623e+00 3.8544469923657156e+00
      8.1910082557153940e-01 -3.1183504428855033e+00
      -7.5730651799012239e-01 -3.1783787159968959e+00
      -4.0313932609342169e+00 4.0368440785511783e+00
      -1.3878365076166861e+00 3.0869839955753440e+00
      -1.2711566853559073e+00 3.6186801019925134e+00
      1.4695606882766807e+00 -1.0474013918129681e+00
      -3.0138036920401734e+00 -3.0308743183414157e+00
      -1.4159561449954869e+00 -4.9171799959075218e+00
      -7.0854178390173927e-01 1.4190441421290152e+00
      9.4360027395691848e-01 -4.5787836423882080e+00
      -2.0525102750608664e+00 5.8648904156063599e+00
      -1.5149530895791301e+00 1.2785308403274509e+00
      1.7743388104864362e+00 5.1392218929932971e+00
      -4.2918835192277704e+00 1.1243518883279509e+00
      1.3881074319729725e+00 -3.7759955065859074e-01
      -2.4601073612357722e+00 -4.9850922078470008e+00
      -1.1972622354215401e+00 1.5399999907641966e+00
      4.8685182178461579e+00 -2.5981672559973584e-01
      -3.8418091728751231e+00 -1.9829040181927389e+00
      4.7627657695131651e+00 -2.7442860727079936e+00
      -5.0501340176612164e-01 -1.8802983079371696e+00
      1.5694491224251097e+00 3.7883674139427936e-01
      -8.9403935729498385e-01 6.3579871506832442e-01
      -3.7097457591710743e+00 2.9969757409672240e+00
      -4.5612489412896302e+00 -1.1781198391140904e+00
      -1.2890917233052211e-03 4.4365358403640476e-01
      3.1068727777064481e-01 3.8402859210276898e+00
      5.8072888181063087e-01 -7.3403658298447982e-01
      -9.5483196339140897e-01 -1.0714065974768709e+00
      5.9750207943134912e+00 -4.0010709398437472e+00
      7.3048024758741494e+00 1.5315925033474311e+00
      1.7955146181670234e+00 3.0674007138206969e+00
      2.0872989098946371e+00 2.5589692018475256e+00
      4.7157322862703035e+00 -4.5918670724787285e+00
      -4.4033346658424177e+00 -6.5623932387228845e-01
      -2.1123162451136634e+00 -1.2461033007339233e+00
      1.0720100178799405e+00 2.1868924584352030e+00
      4.1052616202872561e-01 -4.5365481911163066e+00
      3.5695938957165396e-01 -2.3327109018937087e+00
      5.4670878470890054e+00 -5.2444750808212879e+00
      2.0872089128217822e-01 -1.9915227846838603e+00
      4.5129886537153135e-01 1.7786586826264323e+00
      2.0471616385462060e-01 2.9491107136376521e-01
      2.7883115455207808e+00 -3.3561077665418320e+00
      -1.3945044800564638e-01 2.1101619658404962e+00
      8.3068369722396407e-01 -1.0534570493973705e+00
      6.7247681255690317e-01 8.0049585721746286e-01
      1.2026992629876483e+00 2.3329056446718927e-01
      1.6563212696806529e+00 -3.0416482307142316e+00
      1.9254950638292638e+00 -3.8746508009180149e+00
      1.4009887350278747e+00 -1.9937486569795508e+00
      4.3142746352388239e-01 -3.3993384943548968e+00
      -4.4868648265991959e+00 6.8960665553945799e-01
      -3.1313825986056676e+00 -1.7283736180573628e+00
      2.6141043496481164e-01 2.9239544109174389e+00
      5.1280268353610632e+00 4.4772178323063851e+00
      -8.0748709533373886e-01 -3.5384296204523591e-01
      -4.2290292267433802e+00 8.7043878197239188e-01
      -4.3875097175938002e-02 7.5636521425016556e-01
      1.5360600832472346e-01 5.8234395702248900e+00
      1.0858953253049994e+00 -1.4607651458504625e+00
      -1.0355177352882770e+00 -1.9896601832599687e+00
      5.2564707069376713e+00 -2.0430592551214386e+00
      -5.9209792611725165e-01 -2.3717117673101793e+00
      5.8523052501786550e+00 3.6377494868235655e-01
      -1.9358569559172023e+00 2.2086822110249263e-01
      3.9231422891689625e+00 1.6857801420824206e+00
      2.4062740168152605e+00 -4.8962022455453127e+00
      -1.5481403950060784e+00 1.5371019980136240e+00
      1.2971955752703579e+00 7.7359794374910775e+00
      1.6725523004385687e+00 -6.0753333480876670e-01
      6.2492406547788732e+00 -4.8192281259393921e+00
      -4.0532707880494154e+00 7.7976945684534167e+00
      -7.8849935565499418e-01 1.7321229375251652e+00
      -3.4674846385251183e+00 1.6783846455983085e+00
      -1.2641871828114486e+00 6.9341344257972883e+00
      -3.1506936265368912e+00 2.4894780322325514e+00
      -1.1408936437690242e+00 9.1299902962322599e-01
      -1.8508423183171471e-01 -1.5491923697200619e-01
      1.5473326699134489e+00 -2.3971097709225071e+00
      2.7571453815095365e-01 -2.2564254907789354e+00
      2.3464551355598520e+00 -3.2184075489554504e+00
      5.3887553866958005e+00 -1.5919596200916168e+00
      -1.1337051687059683e+00 -3.5428187080387104e+00
      2.3016113214898142e+00 2.7567875549138199e+00
      -3.6332178028963287e+00 1.9947893853890883e-01
      3.2649567498191909e+00 2.1706198584383611e+00
      -6.2441586120275971e-01 -6.1937512930718448e+00
      2.2325338246537880e+00 -9.3755868849169355e-01
      -2.6789304020613343e+00 3.2645988424922452e+00
      -1.5617463679718859e+00 3.0705431033897499e+00
      -1.9587889500773203e+00 -4.7047165658670469e+00
      -2.0605936469244961e+00 2.6374631640031407e+00
      3.0705789142327680e+00 2.6816083891516493e+00
      -2.4624081921103738e+00 6.8135675516460656e+00
      -6.3431585744605909e+00 3.0467858094784739e+00
      -3.0975399751439534e+00 4.7458369158961684e+00
      -3.0490599246821892e+00 5.8499896688891873e-01
      -5.1116580271480339e-01 3.6568472663037945e+00
      -8.1465915021637325e-01 5.1214423438830750e+00
      -3.3742095896895663e-01 -3.5524720303472557e-01
      7.8143550242008200e+00 4.7045653080996847e-01
      2.4154885151585219e+00 1.6681392137096458e+00
      -3.5586865905491436e+00 -6.7463177733316249e+00
      2.2552395327642372e+00 3.5281676065617260e+00
      1.4827412787905785e+00 1.3685300463695587e+00
      5.3530423487595624e-01 -1.6283029900974590e+00
      6.3342490659309725e-01 -4.1537082849908398e+00
      -1.5934439239234452e+00 -2.3895661425989552e+00
      -4.7152864090589102e+00 3.9774505145926393e+00
      -7.0039837408566330e-01 1.4008807541986007e-01
      1.6415180631423003e+00 -7.8915868349551310e+00
      2.3821148639663692e+00 1.1301956618381535e+00
      3.9114400408091501e+00 -1.0680430402910650e+00
      -6.6829857638447687e-01 4.4783033209656615e+00
      -5.8840536521342059e+00 -3.3950639723015691e-01
      -5.5998730558984429e+00 -6.8822297722376380e-01
      2.4767538279941110e+00 -1.0614629907399842e+00
      1.7303959778651954e+00 -1.1440960060618517e+00
      -3.2557071842089549e+00 4.5387025921698037e+00
      -1.0756425412462309e+00 -6.6824019409202222e+00
      4.7894490079992655e+00 -1.1840227667657341e+00
      1.0994084638082411e+00 9.4514920090673318e-02
      -5.5300844678767380e-01 -3.5653652594373404e+00
      -1.6943229103892412e+00 2.4140376456225483e+00
      -1.4205790987300306e+00 -1.3021231158435345e+00
      -4.4950581689091056e+00 1.0534606623388356e+00
      1.4327156383382311e-01 -8.1264364807766469e+00
      2.1979757186091455e+00 3.0717003072701976e+00
      -2.5470890369703261e+00 1.6389067359317679e+00
      4.0963111876049192e+00 -2.4161242798221122e-01
      4.5623063923803236e-01 1.7548156476303844e+00
      -1.0537469589262503e+00 -1.4164933250335705e+00
      -1.0705268608002505e+00 9.1648866230934267e-01
      1.4017312367553967e+00 2.8052432242748111e+00
      -4.1086531760159559e+00 -8.3348940592500767e-02
      -3.2685707173736395e-02 -5.2526604525469389e-01
      -1.8928435040786098e+00 7.9617809675102280e-01
      1.3067673318553876e+00 9.2592854591364870e-01
      2.4523667013647370e+00 1.4079783443906699e-01
      1.6015064934645193e-01 1.4864982779055325e-01
      1.2974450424256829e+00 -2.9973506280063873e+00
      1.8803478595713139e+00 2.7243103868005512e+00
      3.4962047201638508e-01 1.3335655769468899e+00
      -2.7091161990892392e+00 -2.0926598420628897e-01
      2.3263676803005748e+00 1.9585161320844424e+00
      6.9198181176142418e-02 2.0073197604787194e+00
      1.0057996520183343e+00 -1.4952249327532285e+00
      -4.5562224574736360e-01 -2.7527723829138968e+00
      5.1300955468916678e+00 -6.3619322014059831e-01
      2.4335760463191636e+00 2.1540237971690641e+00
      1.5635434123519389e+00 3.1536695609173654e-01
      -3.3112815808401455e+00 5.4495170214029398e-01
      -1.5116242603508800e+00 -1.6240348602162868e+00
      2.9620097026699135e+00 -5.4705088521478140e-01
      2.9934625009084068e+00 -1.8056035403581683e+00
      -1.7587874020568564e-01 -1.7248258172924360e+00
      -4.4665630683844187e-01 -3.2066591690963091e+00
      -4.9975481367304981e+00 -2.0536163277355519e+00
      -4.4782102285892424e+00 2.2089215042682810e+00
      -1.0820277195475356e+00 -3.1255346052834758e+00
      8.5675652162821958e-01 -6.5320626077007604e-01
      -2.0469254455535557e+00 2.4140712556221851e+00
      1.5374172946616818e+00 -5.7672279910963731e-01
      -6.6511484574367330e-01 2.5458951822168281e+00
      3.5641326698620115e+00 4.5344635739457075e+00
      9.8656119914705243e-01 -1.0675425148388695e+00
      -5.0503294659912550e+00 -2.6014480569553640e+00
      -2.2787326614140224e+00 8.2493103706301341e-01
      -1.4353538642122472e+00 4.9319261081645988e-01
      -1.9446399005775279e+00 -5.7750505929800661e-02
      -6.4612597845393593e-01 -3.1501233983230796e+00
      -6.0105497525074936e-01 -2.1114007582777159e+00
      2.6772455596524662e+00 -3.0165665178963602e-01
      7.4682717079334937e+00 -1.4478686479048448e+00
      -6.5253091217800874e-01 1.6762406626504653e+00
      2.2962247121360740e-01 8.2298477558504690e-01
      1.6308302234897696e+00 3.9211492077142247e+00
      -2.4041788246568747e+00 1.3377528089500945e-01
      -9.6848391316740496e+00 -2.9531754901268303e-01
      -2.9786424913457460e-01 -9.3942415034045845e-01
      4.8163370541144532e+00 -2.4751376160641461e+00
      -7.6022469160160382e+00 -4.6557061665257721e-01
      -3.4411990796821756e-01 1.0500929065901403e+00
      2.8613253403016309e-01 3.7263402692556871e+00
      4.8923922715681939e-01 6.7223133188232798e-01
      1.9492432899820953e+00 -1.5890302766392614e+00
      -8.7073220550279683e-03 -2.2126209376908843e+00
      -5.9925194277262044e+00 5.6744896529748292e+00
      -1.6086563067104347e+00 1.9476680359148919e+00
      -2.5183152712415198e+00 3.6609685577436739e+00
      -7.1286608036107459e+00 -2.7049090742979955e+00
      6.1627150355659088e+00 -7.8711289399563789e-01
      -5.1380734409987481e+00 4.1864075359755661e+00
      5.8853284777893577e+00 -5.7587909491551557e+00
      1.0675951930651013e+00 1.1720602688894248e+00
      -2.2657790006484757e+00 -5.5761663362383986e+00
      -4.6320566743416508e-01 5.1779696050708157e+00
      -2.9774996114016212e+00 -3.1993193381264482e+00
      -6.4459715917651961e+00 1.6882879783966639e-01
      -2.8383028337720700e-01 -2.7165885462169430e+00
      1.3918163186595107e+00 1.0557557953474446e+00
      -2.8467882543169098e+00 -5.5237104331985005e+00
      -6.7886249432431156e-01 -6.0735646102742207e+00
      2.5279572492331042e+00 5.0555190777923995e+00
      2.8099211680316398e+00 -3.9257399142166244e-01
      6.2021962398410500e+00 -1.6962697570353278e+00
      -1.4687014179260527e+00 -3.4079540259193175e+00
      -2.3597446346629986e-01 3.5210973583437957e+00
      -4.7583438965894309e-01 -1.4672940895745918e+00
      -2.6347801114668186e+00 -1.9282499299416638e+00
      -9.7956696722830222e-02 1.8773901110885256e+00
      5.6212650094900862e+00 2.6345597064036648e+00
      -4.4314067171795068e+00 -5.6625315383029644e+00
      5.8764901415073840e+00 -2.8868569560294004e+00
      2.1212646077317761e+00 2.3964690095828689e+00
      -3.1490081492678232e+00 1.5833154071130866e+00
      2.9698056304939424e+00 1.2732518109877482e+00
      1.9130024998818667e+00 -7.2475288367891044e-01
      -4.0271325642970366e+00 1.0587188636284754e+00
      -9.5294151461142074e-01 -3.0645739234869587e+00
      1.5833746789495371e+00 -5.5810182904446979e+00
      1.9589334967823160e+00 -2.2404924874033313e-01
      1.2154886232315589e+00 -4.2139482060090740e+00
      2.4076969342138042e+00 4.8826818530973206e+00
      5.7514994794300796e+00 -1.6985572695113549e+00
      -2.3185582717367326e+00 -6.7223606502371123e+00
      7.7320346378455240e-01 1.6850375652721208e+00
      1.7625928434291440e+00 -3.4618549016460656e+00
      -2.8039593443514352e+00 -4.0036150665391563e+00
      2.1801450868807621e+00 -6.8550949640292593e+00
      -6.6041973450224167e-01 1.8910160639726363e+00
      2.1453499544328345e+00 3.7957707031766246e+00
      -7.8731981279367291e+00 -4.3918088462795080e+00
      -1.1139763380713941e+00 -4.6588290080141164e+00
      -3.3765753145852315e+00 6.4189560323103549e+00
      -1.4519096412783823e+00 -2.3140401110786337e+00
      -9.8639138080836997e+00 7.7295858032602869e+00
      4.5046702428894143e+00 1.5429291491701074e+00
      2.4129257506409427e+00 -3.2020177922633200e+00
      4.7481749696321834e-01 -4.0869553750001336e-01
      2.8685830018537395e+00 -6.8074838979462760e+00
      -2.2505541625846126e-01 7.0400259720196239e+00
      1.4337999236382279e-01 6.4308501723162004e-01
      -9.9238722058464934e-01 -3.0645264796989102e+00
      -6.4855687577084211e+00 -2.3505205106443112e+00
      1.3079604905166378e-01 -1.9911337516897742e-01
      2.4156691442692432e-01 4.7046313682654706e+00
      6.4439912587764858e-01 -6.4093773855288374e+00
      -3.8413426179374696e-02 -3.0772365230319032e+00
      6.3287810908905273e+00 -8.4968737188601846e+00
      3.9106397730511029e+00 -3.9480669011402986e-01
      -2.6434814528029515e+00 1.6850949379822020e+00
      -1.0233081363614698e+01 -1.6280795572590616e+00
      4.9428776988946321e+00 -1.5090788420840355e+00
      -5.7956122960489420e+00 6.2768287088168540e-01
      -1.0251609872852316e+00 -4.5030304397404066e+00
      -7.1390310999668056e+00 -8.3285634276762153e+00
      5.2948577265084422e+00 2.7067806816910639e-01
      1.5842076251481754e+00 1.3491158722903065e+00
      -6.1597611700404387e-01 4.4597226418600595e+00
      -1.6743291269950886e+00 -3.7475517217903080e+00
      3.8314830188005748e+00 4.3940655577692844e+00
      1.0006859120930925e-01 -4.0902290896183796e-01
      6.4569368922863202e+00 6.5183318363469098e+00
      -5.2029645486724707e+00 5.8023303025021917e+00
      4.0845032012462195e+00 -4.5314426597197482e-01
      -5.6528946585121709e+00 -1.0392100776882336e+00
      2.9832468807325214e+00 3.5320980598855662e+00
      9.3712363045921110e-01 -7.3673622295165797e-01
      -4.6485830331963296e+00 -3.7153015891331789e+00
      3.8088113046436405e+00 -3.2858358329923409e+00
      -1.8592344629578699e+00 3.8191161344948208e+00
      -1.8716097909909455e+00 1.2122359563315936e+00
      2.6295803972351344e+00 2.1105449101062961e+00
      2.3505015050537068e+00 -1.8539853400304567e+00
      -5.7471856429754498e-01 -4.0341416212076249e+00
      -1.3859498862859858e+00 3.1926842492034000e+00
      6.1678281138656488e-01 1.3540961809412835e+00
      3.4007168318589437e-01 5.1260666301378652e+00
      -4.0229134809972900e-01 -4.0758673713297594e-01
      1.6442727660076703e-01 -4.4426722233432259e-01
      2.3337742400067745e+00 8.9186156161311239e+00
      2.8173236235183459e+00 3.1389843627534014e-01
      8.7071619038397667e+00 2.1099968043675581e+00
      1.0894665027465718e+00 -4.0249213629089176e-01
      1.0438158110707192e-01 -5.7608299861656331e-01
      -4.4341805189675316e+00 3.1075666318279643e-01
      2.5288662478498045e+00 -6.7468145093412824e-01
      -4.5413753143609695e-02 3.7960191179107441e+00
      -4.2487494163456940e+00 -1.3756771374453136e+00
      3.7316572517774658e+00 1.3952705992756713e+00
      4.1466849901508801e-01 7.8830723324921737e+00
      -4.7525001761045589e+00 -2.1316303416948146e+00
      2.1491837809475385e+00 -2.1737685359239978e-01
      3.7620264906897369e+00 -1.9901743221984660e+00
      7.8484475615270055e-01 -2.9602737476325700e+00
      4.8588191860534584e+00 5.3573431175164439e+00
      6.1816835443120741e+00 -2.9539387440522953e+00
      -1.3374189048797722e+00 2.7857483720574869e+00
      -7.8328402916035622e-01 -1.4126616392319420e+00
      4.8775929017052038e+00 3.8502424667111037e+00
      -7.6835494379812874e-01 1.7184045711185190e+00
      3.7486700684545800e+00 5.5317769343999079e-01
      7.7857936066003672e+00 3.9692877705068752e+00
      -1.0573926671594673e+00 2.6852394995333122e+00
      3.9389603849475807e+00 6.7901876665111749e-01
      -2.8972898172834944e+00 6.3238019771510467e-01
      2.8206113288138401e+00 3.2800529532578515e-01
      -1.5970742902204007e+00 2.7305724167805576e+00
      -9.4604169184052402e+00 6.5996618633233528e-01
      -5.1829098276245678e-01 2.5318393592094699e+00
      2.1910224400966198e+00 4.4435610206152925e+00
      7.9528037071230551e-01 -4.1074872110792970e+00
      1.1159373273486248e+00 9.6383136479716247e-01
      8.5463572951592737e-01 -1.3838969473088949e+00
      5.0566217103410125e+00 -3.5129671385932610e+00
      4.2864829178315587e+00 3.6675457858828735e+00
      2.9869322748587696e-01 -2.1062113428980966e+00
      -2.7218933703064780e+00 -5.1564277239793981e+00
      -2.7296742989703695e+00 1.9915093457020066e+00
      9.1948371477776047e-01 2.1054724647024689e-01
      3.8500928403419041e+00 1.5532552816358058e+00
      -2.2873704063559025e-01 -2.4604431920866534e+00
      -2.3762686756904037e+00 -1.0529321819495550e+00
      6.1200447396583635e-01 4.8413050012728709e+00
      8.4304869284111805e-01 -3.3582994146268341e-01
      5.9212508174357914e-02 4.0632945446369293e+00
      8.5566966013969925e-01 2.0278256334561382e+00
      8.0250063909446592e+00 -3.1708154538024091e+00
      6.1103226898616458e-01 -1.1244030882413509e+00
      2.5426033386797515e+00 4.8230810107714550e+00
      5.9726492490159522e-01 6.4947875970729640e+00
      1.7932468811367637e+00 -2.9259620487626714e+00
      4.1581435512228886e+00 -1.4682490084264401e+00
      -1.6773689124942068e+00 1.5095842007892308e+00
      4.6084405383955946e+00 -2.2303144857491679e+00
      -3.6392288001695616e-01 -2.9135232806626767e+00
      -5.7511053107515031e-01 2.2975497142847936e+00
      1.1466822554394571e+00 -3.9022533543066471e+00
      6.1585472611096759e-01 -7.6434640786462504e-01
      -2.3301122784940598e-01 5.5018764247324714e-02
      1.7574508368646662e+00 -1.5594005530164976e+00
      -1.7028866322802538e+00 1.4931546200843888e+00
      8.0393867366441973e-01 -3.7053020537856179e-01
      -6.3532612767903596e-01 -1.9173992288435643e-01
      1.7638133373318710e+00 3.9235243197032781e+00
      5.8803274989752663e-01 -3.3735039647528509e+00
      2.5669489783837873e-02 -2.0336572741062255e+00
      2.9149823636656635e+00 -4.6142686689535841e+00
      1.6679229036158174e+00 2.7490347577257146e+00
      -5.7008640829386943e+00 -2.1229783376426234e+00
      2.5063617906074587e+00 1.5566941956557832e+00
      -3.2389704503731953e-01 -2.2861439452262347e+00
      4.3883559582172822e+00 1.1847670599554656e+00
      -7.5362059335112175e-01 -4.0698367837826055e+00
      4.5552699460437213e-01 -1.7194802295843050e+00
      1.7804873184497736e+00 -6.6705308412949571e-01
      -3.4932636899370979e+00 -9.5550657480954204e-01
      2.0682165596135515e-02 -8.6780987339250507e-02
      -7.3481402780613758e-01 4.0436352710532395e+00
      -2.0841333307598529e+00 1.0769049303466238e+00
      -7.9859071809978344e-01 -4.3334749786434168e+00
      -1.7030234817554739e+00 7.5053113041662656e-01
      3.4254267611921061e+00 6.4748992812619766e-01
      -1.3530738251389671e+00 -2.1717005236737301e+00
      2.0985632867396062e+00 3.6159719884111592e+00
      3.1402196017838331e+00 2.3819824304701811e+00
      8.4428672310745134e-01 1.9975924862504244e+00
      2.2223056937265375e+00 5.5221654634174300e-01
      -1.3615823709073733e+00 4.3471990453920678e-01
      1.1840058729512777e+00 -3.4375469853826783e+00
      2.8158900205273962e+00 -3.3573598248927805e+00
      -2.2313859642480058e+00 2.2947445537729800e+00
      -3.0370725896933508e+00 -3.0104295385477857e+00
      -5.1943216823424909e-01 -8.8677791472873180e-01
      -2.2296769601248442e-01 -3.8830474683961363e-01
      1.1477658755360398e-01 -1.8266347561348109e-01
      2.0595262838359703e+00 -3.3743137068796275e-01
      1.2019558053438639e+00 -4.6853204447287471e+00
      -4.7405402476922515e-01 -4.6352624252497963e+00
      1.8077586264707872e+00 2.8365387452794057e+00
      -5.0253667921408169e+00 -6.1777183018546067e+00
      3.4152260341349230e+00 4.2512772998425516e+00
      4.4882098085935540e-01 1.7313855084112701e+00
      2.5458942640269440e+00 9.3078715348547925e-01
      7.1720218990664621e+00 3.7259824669511894e+00
      3.3550065493763719e+00 5.2337762182719025e+00
      7.5108575160236546e-01 -1.7889680609471417e+00
      6.0743298287055678e+00 1.7896950371348155e-01
      1.3220141306006308e+00 -2.0155084517997208e+00
      -2.5163306754899537e+00 2.2958680235954367e+00
      8.9636615557900456e-01 1.5957580800809370e+00
      1.0292077037930271e+01 6.6059735919708740e-01
      1.5465257852397643e+00 -1.0757460325452013e+00
      -5.1310443774659831e+00 -1.8318546198860045e-01
      -1.0866730487711278e+00 4.1702302447780299e+00
      9.7670336804082791e-01 -1.7692888863205112e+00
      7.2805109949076197e-01 7.4889699043010827e-01
      1.7542682690330553e+00 -1.1487997658190494e+00
      -1.9599592857446183e-01 -1.5469366468382810e+00
      1.9181236540386457e+00 -4.0778377295150481e+00
      1.0410645236454257e+00 -1.1515630308288149e-01
      -1.2842047760851902e+00 -4.5604123657542699e+00
      2.8446675401690009e+00 7.8070152409424276e+00
      -1.5541422058441614e+00 4.0105463968408250e-01
      -8.6210985773007953e-01 3.5121363635335126e+00
      -1.4595486628013288e+00 1.7657399121497195e+00
      -1.6958921340002111e+00 3.0355117213734730e+00
      7.1938605480831898e-03 9.8900523708341375e+00
      -3.0326345135848265e+00 1.3753619377303266e+00
      -2.2821577051562389e+00 1.0705875841792483e+00
      3.8097821471743702e+00 -4.3647936098243232e+00
      1.0690153101738284e+00 -5.5145027841943883e-01
      -2.5369411664380683e+00 -8.1026657642260371e+00
      -5.6047685466322505e+00 3.3341349126720976e+00
      3.7805283001493288e+00 9.2680760212254021e-01
      -2.1078997072917551e+00 5.7262545451215701e+00
      -3.3406432474396108e-01 2.0663972044934020e+00
      -5.5217770108324049e-01 -2.7772851917196140e-02
      5.2989215296623848e-01 -5.3793719216246210e+00
      -6.2483307088945728e-02 -5.0429246128975116e+00
      4.7295121422452207e+00 -2.7533435213914537e+00
      -5.9906000893693834e-01 -1.1258708478052557e+00
      -5.1628852760513100e+00 -2.4387877966507299e+00
      1.1920896287655200e+00 7.2828822648710165e+00
      -2.3061526732250841e+00 -1.4727285198650217e-02
      -2.8422995758429720e-01 1.2486358878859769e+00
      8.7645367845075377e+00 -3.8121357042406521e+00
      4.9420382687026254e-01 -1.6149471446360486e+00
      7.1762141487679421e-01 -5.2187072867895812e-01
      6.2813566181007474e-01 -2.7065790743495080e+00
      5.9297481489662847e+00 3.0078080032429226e+00
      -5.3865110508699230e+00 -4.1846096270870277e+00
      3.4233243933234290e+00 -6.2091276640270783e+00
      -1.0152440148132438e+01 2.7984897041364825e+00
      -4.0842576250851019e+00 1.9333067862096878e+00
      1.2951176526830657e+00 9.2957369848110130e+00
      1.9064091900707190e+00 -8.6437982556801252e-01
      3.9099604925441707e+00 -6.1778450767988176e+00
      -2.2119628482800122e-01 3.2120920399052935e+00
      -1.6757674907033850e+00 1.3256357950479318e+00
      7.2892894153332655e-01 4.5877160041728162e+00
      2.0120490110293736e+00 -8.3229636995797796e-01
      -9.0089565655879078e-01 -7.8673316072631279e+00
      -7.7408785874749020e+00 3.3428493357534808e+00
      4.7206281107101971e+00 6.4984609487277858e+00
      2.7157683117099336e+00 5.8796045803496897e+00
      5.5006935459136441e+00 -6.4983369412443466e+00
      -1.7394845713698308e+00 -5.1633880633318459e+00
      1.2643180941256134e+00 -1.1229464267789528e+01
      1.4070296429844467e+00 1.2444727535287203e+00
      1.1468809214709736e+00 2.4414122839655550e-01
      8.0061620414458867e-01 -1.8089317090016399e+00
      3.0584887702530614e+00 -3.1986600370166687e+00
      -1.5076852316592584e+00 5.7380227498974321e+00
      1.9136177255376723e+00 5.0077956933388661e+00
      -2.7769379974458337e-02 -4.0008790729936621e+00
      7.0140214774777530e+00 1.4735404319492479e-01
      4.0607089695439385e+00 2.5805488138617638e-01
      2.6180693728974669e-01 7.3580009488469669e+00
      1.0174721825188382e+01 -1.1455091905333876e+00
      -1.9402973510750106e+00 2.5138329554606336e+00
      6.7484211021266649e+00 -2.9252464879010729e+00
      8.6434082432738124e-01 -2.7409741671363892e+00
      4.3444792044213643e-01 4.3451280229826290e+00
      2.1879526458724046e+00 -1.8172966813525553e+00
      -8.8971126691255389e+00 4.6946095931201306e+00
      3.0313912227832005e+00 5.3337705404074098e+00
      -2.0052448757532693e+00 1.7035742137679803e+00
      -3.1940883036591865e+00 -4.1429294983928844e-01
      -3.8918756018172368e-01 6.5732854465267669e+00
      1.7121353129963728e+00 5.4810198854983749e+00
      6.4376494433002120e+00 -5.5819187637200496e-01
      2.2840465652122703e+00 -3.5239373841996260e+00
      -1.3184872068980231e+00 -8.0760788275063184e+00
      1.5898243818755853e+00 -5.6943370503999100e+00
      -2.7766887872514494e+00 -6.0786650523545296e+00
      6.4569412356781042e+00 -7.9916848377563443e-01
      2.0540021644956656e+00 1.1012833239002577e+00
      1.9972487843080280e-01 9.2219342673674181e+00
      7.9205535970141909e+00 -2.8675137866749210e+00
      2.6483384123212725e+00 -6.2565482482605281e+00
      6.6292318789855607e+00 -3.0142996044222876e+00
      5.6927658500629912e+00 -2.4716281147003496e+00
      -2.3504058213341117e+00 1.0867363975750807e+01
      6.3800756725904053e+00 -2.1359096392021892e+00
      -5.2997699720704832e+00 1.2479155720798747e+01
      -5.5596903973813594e-01 -1.9769071114860239e+00
      -1.0817798331069310e+00 -5.5159901357980532e+00
      -7.5065303735242441e+00 -8.6271512307799192e+00
      4.7115492912226786e+00 1.3888169377366216e+01
      -1.4191456241856886e+00 5.3676759314610427e+00
      6.8830770982718432e+00 -5.4489853149326333e+00
      4.6140355410268947e+00 -4.4685209208478565e+00
      3.9196087238577464e+00 -1.1159627942133021e+01
      1.5799120809905171e-01 -1.3017369322064610e+01
      -3.9662843716874652e-01 -8.4251767196367293e+00
      -1.2244365470406500e+00 2.9991867320697732e+00
      -5.8297998322408218e-01 -5.4413719993459964e+00
      -5.1526562244975294e-01 4.5846433273149172e+00
      3.1549112564746733e+00 -2.7136407686002801e+00
      -9.3130837695810964e-01 -3.1938608442500116e+00
      4.8844483683382647e+00 7.8563662459257912e+00
      -3.2869635205917985e-01 2.8769251531783064e+00
      -3.0586461622197616e+00 -1.8715960926362489e+00
      -1.5929126081649143e+00 -8.2308953578005295e-01
      -4.4485067498417363e-01 5.2158484815243398e+00
      -5.0614730440284390e+00 1.0811156853213479e+00
      4.7653857406596982e+00 1.4292341462272207e+00
      3.7478471314687059e+00 -4.0413260164518698e+00
      -4.7902498687168427e-01 8.6740427940247056e+00
      -2.7279623873633638e+00 4.0180192981281024e+00
      -1.1235880066680869e-01 -3.1021306792139924e-01
      1.3898562261973282e+00 -2.9075393272664303e+00
      6.9777400297343277e+00 -3.9289614331578955e+00
      1.2110352804568090e+00 -1.5895151200981397e-01
      1.9714167830481586e+00 -2.8285482867708245e+00
      -1.3895511880424221e+00 1.2550747587797737e+00
      1.5819716081306010e+00 -3.2938763362217256e+00
      -2.9621980950383096e+00 7.6979712644078955e+00
      1.4695180265559507e+00 -8.4865245547751045e-01
      3.2428929026471902e+00 9.2843153256588107e-01
      -1.2901278037297251e-01 1.1539943379181037e+00
      9.4970467255913105e-01 1.9809394284012705e+00
      -3.4222121606322617e+00 4.1670097868595359e+00
      -4.6127648516344708e+00 1.5862105108556928e+00
      -1.5864054287166933e+00 1.3532590084331506e+00
      -8.3822693091965961e-01 -1.4057441843245955e+00
      4.4733345006115153e+00 -7.2343252600404084e-01
      1.5942025751260980e+00 -1.1117476751201452e+00
      -3.3207180744864079e-01 4.5043005841556183e-01
      4.0372583101430826e-01 3.4607471554397224e+00
      4.7460869985353638e+00 -3.2451202088231978e+00
      3.2623239324944118e+00 -3.1330959608877391e+00
      3.2649977387031179e+00 -2.2720546596980570e-01
      4.2714687767494111e+00 -1.7281538765234055e+00
      -3.6404854425163274e-01 1.2715481760573728e+00
      5.9512456046712903e-01 2.1001483912721803e+00
      -4.8796215456409275e-01 -2.2073386672173026e-01
      8.8486314896062668e-01 1.0054798415572397e+00
      -2.8090147603477180e+00 -1.7406167898606182e+00
      1.9873905893978956e+00 -1.7229508610696331e+00
      3.4487970976603717e+00 1.8020736214541160e+00
      3.5364870596594145e+00 -3.6412413672081403e+00
      -4.9617555681755765e-01 -1.2049004817567361e+00
      1.9273492271348527e+00 -8.8684206117090558e-01
      1.4617402400626125e+00 3.5758696319787098e+00
      2.7562191775715030e+00 -1.0113437443440760e+00
      2.4382772178986651e+00 3.0292378897151413e+00
      2.9310708158436651e+00 -9.7569657552127653e-01
      -1.3634194367292387e+00 -2.7130788949232256e+00
      -1.7866835009052984e+00 -2.3364952452132462e-01
      4.0475772368882392e+00 -4.6251082506409498e+00
      1.4879948064263055e+00 8.4641435881781169e-01
      -1.1370798234381865e+00 9.4569273090766104e-01
      -3.2024656578718989e+00 -1.5576564123776246e+00
      4.0823675763813710e-01 3.5342423915330916e+00
      7.6826703283347300e+00 -1.6440613560796367e+00
      -4.8092685679924546e-01 7.3426310767496572e-01
      9.3058482943156751e-01 -1.8748989436197350e-01
      3.4619107466931770e-01 -4.9461307853005211e-02
      -1.3892188412203632e+00 -4.1209534665552390e+00
      3.3908759691348767e-01 -2.3220922908006929e+00
      4.0151672840146313e-01 -9.2775847115079413e-01
      2.0350493293172263e+00 -1.1542216461862562e+00
      -6.9318664407151820e-01 1.5258552428597525e+00
      2.6886501764553499e+00 1.4090621034762152e+00
      -6.0133796250037488e+00 -1.2240079317108896e+00
      -3.3328785308698883e-01 8.2142566105602266e-01
      3.3073926647469976e+00 2.0480104587236414e-01
      -1.1524544831265717e+00 8.3298938321789029e-01
      -2.6344635061315151e+00 2.5936433309508997e+00
      -7.7423921254708938e-01 5.7435518101273245e-02
      -6.8849992973019738e+00 -8.7477970268661376e-01
      2.5091392974500337e+00 -1.9012109373849233e+00
      -5.8699561242396090e+00 -1.6918797413433198e+00
      -2.3801138021374957e+00 -3.9127586577699786e-01
      -3.8335726366419315e-01 1.3992095130682194e+00
      -1.9277602181498215e+00 6.4838904565270672e-01
      1.7398295717755038e-01 -1.1369691026344297e+00
      -2.2532204956123056e+00 -1.2483120228003817e+00
      -2.9393677035422838e+00 -1.2212008468869835e+00
      -4.0490581925268847e+00 -7.1510136758477953e+00
      -4.0186693236774778e+00 3.4900833902978698e+00
      1.7144402965799102e+00 2.7755557345218449e+00
      -2.2123303089721085e+00 1.8916011456629416e+00
      2.1987967163721418e+00 4.1226963057321191e+00
      -2.1250908636494406e+00 -3.4677387342465482e+00
      6.0157708427443630e+00 1.1990787748791922e+00
      -2.8907057147853745e+00 5.1313688226838066e+00
      -2.5127781325614711e+00 -9.5095474540979452e-01
      5.7937466230355961e-01 -2.7253505360339467e+00
      8.6108116959065006e-01 -2.2754820053955291e-01
      -1.0175584381648752e+01 -7.2928346783198794e+00
      1.5875169216454061e+00 8.6386876450006280e+00
      -2.0461266517525539e-01 5.4344963028946536e-01
      3.0131507753196907e+00 2.1031670179049478e+00
      -2.6113834103630009e+00 -3.3269845224085803e-01
      -4.1210132508065653e+00 -5.7616585525590169e+00
      -2.9883897893923894e-01 2.1466668783504803e-01
      9.9052347293341825e-01 1.7428924981382570e+00
      -1.2005766020661008e+00 -4.2148404977832037e+00
      1.5125690410528656e+00 -1.1921213414735833e+01
      -4.5286403155140880e+00 7.0450524674478807e-02
      2.8155409051784752e+00 3.3837915728882915e+00
      2.7448031958318864e-01 3.2723926482979575e+00
      1.9780495179242454e+00 -1.3418728055928018e+00
      -2.7479519813306710e+00 3.1248680584505117e+00
      1.9441596296955628e+00 6.7418517400931597e+00
      -1.7914333899431631e+00 1.3919156117751994e+00
      -2.3406562573431677e+00 -4.2542408610268447e+00
      7.5588670380285592e+00 -4.0459930724356186e+00
      8.0695851059874446e+00 2.1398147951679722e+00
      -1.6806509693916383e+00 -7.3803283324373599e+00
      -3.1716128642868964e+00 1.3176742182277719e+00
      5.7598664066915162e-01 -1.3101443910976890e-01
      3.3629488535738381e+00 5.3661992579173816e+00
      -1.5666162391133878e+00 3.9204569435459753e+00
      2.3875185307460809e+00 -4.6695307636762653e+00
      -4.3012352888453009e-02 -5.5100380944577205e+00
      -5.2068286833736446e+00 6.3229781805451148e+00
      6.8824501530925817e+00 4.8270502087307090e+00
      -3.2366875396287043e+00 -2.3919130208814150e+00
      3.4881862689737431e+00 -3.0913919023997201e+00
      7.0433739441844057e-01 2.6614341827923427e-01
      -3.0364318338498704e+00 5.1794151815373484e+00
      3.5717135810169869e+00 -7.5802023541242507e+00
      3.8687230395509753e-01 -5.2056464865636833e+00
      -5.1505194775058283e-01 1.4689168955238747e+00
      -4.6473790146297767e-01 -3.2250844128281031e-01
      -8.2212487457168137e+00 -1.3129745619315989e+00
      2.8749530261849219e+00 -5.5983746697756223e+00
      -4.7537302055450628e+00 2.0219401096587064e+00
      3.5552319030531532e+00 1.4149632916816099e+00
      -2.4782341062142814e+00 -2.6376453191664422e+00
      -6.0358784721991154e-01 -6.2605764285576964e+00
      2.7685609844074848e+00 -2.0083109300172808e-01
      -3.0693507122118352e-01 -9.2627400231213319e-01
      -3.9855048144088405e+00 -9.9738497137038984e-01
      1.1445418009614074e-01 6.8518705996496694e+00
      2.0580454778636539e+00 1.0098710782671432e+00
      3.9386656993635301e+00 2.5974464112779048e+00
      3.2063428875223674e+00 5.2222438260304225e+00
      1.0419813473618080e+00 -3.6317630634579325e+00
      4.1293730248003984e+00 -4.4566019720188930e+00
      -1.9231138520843307e+00 1.0748732721224887e+00
      -3.0037795898473019e+00 -3.8054623380995150e+00
      -1.2543668339881067e+00 2.3286278129448412e+00
      3.9227735523488279e+00 -6.3931248570176058e-01
      1.3239794694136389e+00 3.5266096663516538e-01
      -8.2159317084354511e-01 -7.2990265505314129e+00
      -1.2229097747723980e+00 3.1425620677392865e+00
      2.0549195013075310e+00 3.5671152639674393e+00
      3.9436796678543069e+00 3.5020161915782064e+00
      -1.1877757005229286e+01 -2.4545601609827501e+00
      -1.1470811661882911e+00 5.1090514374806730e+00
      2.0283405602381519e+00 -6.5253088482009125e-01
      1.4437919197113740e+00 1.9504505697297871e+00
      -1.7580250980443732e+00 9.1934079777547514e-02
      8.8284123650014590e-01 5.4640047964597382e+00
      3.4884804358436066e+00 6.0256266173920636e+00
      1.1383506057584021e-01 3.8295490785568270e-01
      5.8607530090206534e+00 3.5705105087289013e+00
      4.5430882438646741e-01 6.5530015384008183e-02
      -4.8484844980197419e+00 -1.0510616282636354e+00
      -1.3653514162126961e+00 8.8669472452802944e-01
      1.0436037636466979e+00 2.6806333470236132e+00
      -5.3862305186207609e+00 6.0595842091874567e-02
      4.9851130492594564e-01 3.0552246083780714e+00
      -4.2629630393100332e-01 1.0060539244019422e+00
      -1.2699407505939320e+00 5.0207997899510097e+00
      -4.3713044266151675e+00 -3.9432668100979908e+00
      -3.2847208498120422e+00 -2.5071533197583231e+00
      -7.8583978364635021e-01 1.1959494591797959e+00
      -2.3497794772254337e+00 -4.6390765936970126e+00
      1.0202199171907120e+00 -7.9661069645712768e-01
      3.1900554636477536e+00 -2.8955983283954514e+00
      -1.0515222247337017e+00 -1.7159491338179333e+00
      -6.2622358151800777e+00 2.7379318254201603e+00
      6.4177127111523236e-01 6.3668130816934221e-01
      1.8444149901703877e+00 9.3952161059674140e+00
      -6.2161114836173992e-01 1.2007152805690371e+00
      3.2927627371837525e+00 3.2305448662992378e+00
      -8.0443692647010039e+00 4.5880173085516942e+00
      -4.8595908331157514e+00 -5.2751411046641321e+00
      3.3888546757719623e-01 3.5546513185905981e+00
      3.3767257089327281e+00 3.3878006790034703e+00
      -3.1641056546434063e+00 4.7545751399260840e+00
      4.0421856317235498e+00 -5.0257813741251878e-01
      7.1852368267795219e+00 4.2006466178324207e+00
      -3.4686044067089026e+00 1.0551305495143351e+01
      2.7287200942155265e+00 1.9758429888144222e-01
      4.5381344921024347e+00 3.4150543152413042e+00
      -4.4244503417883152e-01 4.8520272259983832e+00
      1.3066639913737512e+00 3.9575051075581724e+00
      2.6419200503601021e+00 6.7291247704768564e-01
      3.5340836347084461e+00 -4.1268724415078291e+00
      5.8295382684922452e-02 -4.8064090717151995e+00
      -1.8534207473292237e+00 4.8169406141904041e+00
      1.0192794890314398e+00 2.1901506499112604e+00
      -2.0049592818442776e+00 -2.5085594527896298e+00
      -6.1190872768124018e+00 -5.1824680822690130e+00
      -2.5495810684659634e+00 -3.0541982463333994e-01
      -8.3021176967659063e+00 -9.8585390216194890e-01
      1.9317836663150960e+00 -5.4083487639780925e-01
      3.5767895807606314e+00 2.6458777741729662e+00
      -1.7308636371914230e+00 2.3517016532710455e+00
      -1.1523645817578698e-02 1.2912854991624978e+00
      4.1911726195585146e+00 6.2669160323169351e+00
      2.3036258929402815e+00 -2.1062029787439527e+00
      2.2285902896435754e+00 1.5697683024477684e+00
      5.8205120119568299e-01 2.8750352337405425e+00
      1.4578643560095779e+00 -2.0443207775620870e-01
      3.4953501902032889e+00 -9.8117828099297932e-01
      1.7817505701857681e+00 -8.7833799259141054e-01
      -4.9348509584674796e+00 2.6100576380976021e-01
      1.2333117531547240e+00 1.8002711037639421e+00
      -2.0314478143452748e+00 6.4881501186782389e+00
      3.3591259073200663e+00 3.1368185489512319e+00
      -1.1095524336904483e+00 -1.7848812228610842e+00
      -3.0768432294451564e+00 9.6733473901487821e-01
      4.9604150105139420e+00 -3.3526613591609702e+00
      -3.3199219908619582e-01 3.3645454795957908e+00
      2.2614941642668471e+00 -1.4831090373214886e+00
      -3.0755121975771451e+00 -3.0399422492944543e+00
      3.8892425338391248e+00 3.2429185008788424e+00
      3.2045042621358237e+00 -4.2500420655243687e+00
      9.0143630499373983e-01 1.5133921659138352e+00
      -5.9000358965398867e+00 1.9674550884131758e+00
      -7.8059443344139967e-01 3.0650925641943338e+00
      -4.0189273335968789e-01 4.7329015344598719e+00
      1.4225103171694984e+00 1.4461503576922261e-01
      -3.9825616173847478e+00 -1.5491752935336078e+00
      -2.6781781811531942e+00 -3.4604053740025914e-01
      5.6694359397334226e+00 -4.5872826760251009e+00
      4.3432978188409637e+00 -1.9414246680094704e+00
      -8.6413068005694746e-02 3.3178280391801556e+00
      1.1476250416348992e+00 5.2925300377111677e+00
      -2.3721139866263848e-02 2.0228716536157609e-01
      -3.5472303138589101e-01 3.6264369491766915e+00
      1.0037086403235087e+00 9.0829243818125671e-01
      -5.0822695512943272e-01 1.9792794673425025e+00
      6.3969223784514391e+00 4.3328717596048598e+00
      1.5740473046261477e-01 -1.0666081919134154e+00
      1.8556867661284993e+00 -3.0670416520017767e+00
      -1.5627506186606328e+00 2.0157143641244665e-01
      6.5301933398854217e-01 4.8911561526570377e+00
      1.6291716018050117e+00 -1.7619246436308591e+00
      3.3214660382277734e+00 4.4021100742293227e+00
      -1.9681990049315436e+00 1.8296982563965509e+00
      -2.9425962577838862e+00 -5.8774086153604310e-01
      -2.8912351136581715e-01 9.7894944728682565e-01
      4.2721507237804417e+00 -9.2317929189935766e-01
      2.3848795215178904e+00 -2.1470527589210189e+00
      -1.3702807829965840e+00 -5.1928920867981123e+00
      -3.2300177768460787e+00 -2.1733119136980048e+00
      1.4661337793580331e-01 -3.6383515553361945e-01
      -1.1673327602685342e+00 2.0182132465028091e+00
      5.2833283621135063e-01 -1.8413695524006473e+00
      -2.1604941818666143e-01 1.5367566934195798e+00
      -1.1701730004171396e+00 5.7699849976088675e+00
      -9.6868134596492339e-01 9.6117695069072107e-01
      -1.0329452042514646e+00 -4.3028237018874922e+00
      -4.3416988193218042e+00 5.5781608872411308e+00
      -2.6998671555217331e+00 -7.9746162390049002e-01
      1.7038846610906162e+00 -2.2812529872274978e+00
      -4.2114531769640987e-02 -9.1586302877494064e-01
      6.8525282861065784e-01 -2.0548470985316456e+00
      6.1373622701314821e+00 2.6740859423328933e+00
      -3.1210606110675156e+00 1.3005529781339091e+00
      4.8597155053621005e-01 -5.5247344845470425e-01
      4.2737384633866615e-01 -1.6766518376666935e+00
      3.1918547080586892e+00 3.4532393986397925e-01
      -2.5053210686998195e+00 1.6343284737477126e+00
      -6.7410234184108464e-02 1.7420409062109208e+00
      2.5050702146963166e+00 1.5555155463721806e+00
      -1.0839818917286548e+00 9.3179523709813294e-01
      -6.0982794543816157e+00 8.7019106668246249e-02
      -8.3209272008845769e-01 1.9324077025118975e+00
      4.9043036986292715e-01 5.1134997810567890e+00
      -1.5161724036588944e-01 5.2086199202921550e+00
      -1.6508479773469253e+00 -3.2785510781473859e-01
      2.7126435851072488e+00 -1.8165768866505045e+00
      -8.2383498276105733e+00 9.3049586121769312e-01
      -2.5001617909922187e+00 -1.4122231182127061e+00
      -2.2971052390551048e+00 -7.3650733167563773e+00
      -4.8299108330411139e-01 -2.0372142443622865e+00
      -3.4007681945172155e+00 -3.7408855768795539e+00
      -6.1927241054467241e-01 7.0221290689411919e+00
      1.8064037206551056e+00 2.3647152485650076e+00
      1.0016042080739860e+00 -3.6763058578719123e+00
      -8.0557184189995190e-01 -9.5571501091444855e-01
      1.1514653801245269e+00 1.0953576674327170e+00
      4.8918726742295862e+00 1.3520393197253455e+00
      3.7195230763575000e+00 4.5881545296020432e-01
      -2.0654338082320987e+00 3.3338491496446983e+00
      -5.2667500248252441e+00 4.3032757514081110e+00
      -5.1340788983464405e+00 3.0583192625932887e-01
      -3.3894951249907255e+00 -3.8298445236137186e+00
      -3.2583548676092078e-01 6.8492505939176445e+00
      -1.1572242576800986e+00 7.4675743437528750e+00
      8.5399073185608354e-01 -1.8511768037929327e-01
      2.6160652603423551e+00 -9.4166682676511659e-01
      -7.6418003514175910e+00 -1.8948703848099195e+00
      -3.0447196456612939e+00 5.2977172310685177e+00
      -3.3853857406592165e+00 -2.6150744846364211e+00
      4.7918239757746619e+00 2.3436721415083142e+00
      2.1427571804532342e-01 -2.2998855239801581e+00
      -2.9577222615779988e+00 5.6771221874690072e+00
      2.2087610780661282e+00 -1.1215202902719464e-01
      -3.3637686677306156e+00 5.1741238810927781e+00
      -1.5823218815585025e+00 -5.3439696052771408e+00
      1.5009006719983640e+00 -2.0387927402393011e-01
      -1.2388238508569727e+00 -2.9936100390243414e-01
      1.6800344588736020e+00 -3.1814023556870956e+00
      3.1133269528831629e+00 1.5404563386088532e+00
      4.0923875614998053e+00 -2.5074631091053061e+00
      -1.9140231994672809e+00 3.7416992275690899e+00
      4.6769660336962876e-01 -1.0913128357623199e+01
      6.3244486405936093e-02 6.2863879623895158e-01
      3.9624872896776262e+00 1.1671650247703782e+00
      2.0530169460712422e+00 5.5371178173048774e-01
      2.2612349956599900e+00 8.9502640340607242e-01
      4.1752546282244012e+00 -6.9407741083137813e+00
      -6.0666319010106857e+00 5.0122103420910813e+00
      1.6649146345006638e+00 2.0996366718520232e+00
      -4.4747120599120436e+00 6.7142224587027283e-03
      -3.8845072615275700e+00 2.1060306302403604e+00
      -5.8691611305815288e+00 5.9798284920615530e-01
      -2.7350388481571036e-01 -1.6947667700489237e+00
      -9.7425768083546984e+00 2.1896540083490934e+00
      -7.7327727781371070e-01 -1.6232116541999784e+00
      7.9587403448833172e+00 -2.3349900744414751e+00
      -5.1927503774531321e+00 5.2349518976480534e+00
      2.1806151654076671e+00 -7.1252182766290915e+00
      -9.2804636811277363e-01 -7.0908888842955786e-01
      2.1670202779509764e+00 -1.3035338383307944e+00
      5.7482633318285750e+00 -3.3509447106723171e+00
      2.7565925835293483e+00 -1.1636328025955138e+00
      2.0831939027984978e-01 -4.5520242456030866e+00
      -3.7705499091329542e+00 6.7624748221368061e-02
      2.6350569561618595e+00 2.7824495103425777e+00
      3.8517721589347231e+00 3.1523197162511414e+00
      7.9613104082565869e+00 3.7434262371348193e-01
      2.6120978974004134e+00 -3.5821258156425149e+00
      -6.7314592413131784e+00 -7.4551532211274429e-01
      4.5735073978154324e+00 -3.9902416313353486e+00
      -1.9118815756095719e+00 1.0724934566250674e-01
      -4.1364366602733424e+00 9.4403535179232267e-01
      4.6576613637770841e+00 -1.2358717365928946e+00
      -6.3149256713727748e+00 1.8559955913276178e+00
      -6.5522664094277152e+00 -1.0630817369109040e+00
      4.9047825188662628e+00 -5.8577544651935094e+00
      -1.3806263811886377e+00 7.3238851608862605e+00
      -7.2790796387871808e+00 -2.5364340550498365e+00
      -2.7529327138305062e+00 2.6025562271104086e+00
      3.4301488302510910e+00 2.9484753742102501e+00
      -1.5394924225774638e+00 -7.4143114786590436e-01
      3.5429137442619925e+00 -1.1541167815611992e+00
      7.1411907612316494e-01 4.3051686073784170e+00
      -2.8914835126074632e+00 -2.5469598392646366e+00
      -9.3278470491371053e+00 1.3306505834507625e+00
      -3.1047899351740673e+00 2.4411923412118997e+00
      -2.3134146152582504e+00 2.6660124299682617e+00
      5.2098534235747946e+00 -7.3119896378934710e+00
      -4.6504589326505852e-01 6.0684857713919582e-01
      -1.8101158582878849e+00 2.3908517717125783e+00
      -1.5636887013209200e+00 5.7321440383880240e-01
      -5.2091571191106407e+00 -2.9621680776414494e-01
      -2.7783960747302316e+00 -3.6319778493869084e+00
      -4.3660586008958164e+00 3.0777260637634258e+00
      3.9576190122327231e+00 -3.6699188483478231e+00
      -1.6366270959769913e+00 6.1766500607186439e+00
      -2.8337905695218732e+00 1.7001983686508813e+00
      -8.0807915460080402e+00 6.4580777459867489e-01
      -1.1035016254154908e+00 -1.6184352667844921e+00
      -2.3118367559611888e+00 -1.1679187446344592e+00
      -5.9508968586617195e-01 1.8297171947309465e-01
      6.3938598367664614e+00 5.1922629331553898e+00
      -3.3683044873447998e-01 3.7064048085829016e+00
      -4.7358459599313418e+00 -5.0850764463010352e+00
      -6.6930828491988095e+00 1.9266822368942604e+00
      -3.3509984206508503e+00 -2.4730619941333321e+00
      -3.1988779268521648e+00 1.7179349942769409e-01
      -6.4295187871317794e-01 -8.8014962199461664e+00
      -3.8862368825789426e+00 -5.8536579166787041e-02
      -2.1597018841283773e+00 -8.0676103264844023e+00
      3.5572372114158479e-01 2.1394153869673835e+00
      -1.2561511912482792e+00 4.4933169214522799e+00
      -4.4407118615864810e-01 6.9027078067665659e-01
      -3.4821063775029533e+00 -8.0196685900156215e+00
      6.7036068309823111e+00 -4.3906275597271707e+00
      -1.0420985334585806e+00 9.4139847747845185e-01
      -7.0879443321367779e+00 5.4020882547591205e+00
      -3.8246220730964682e+00 3.6171162010342339e+00
      -1.7703397147407185e+00 -4.7344862868504993e+00
      -3.5227721208861644e+00 7.3149403167897455e+00
      -5.7839221588386058e-01 5.5458830870317355e-01
      4.1228710396430701e-01 2.9565454980978809e+00
      9.0649103085482741e-01 4.5300469416573170e+00
      -8.1528921594298387e-01 1.0417900624515972e+00
      -5.4550311400071756e+00 3.6368090953329917e+00
      1.4348188151886827e+00 -4.0515049496782876e+00
      -1.9055932694248425e+00 -2.4700910372340890e-01
      9.7305547049349861e-01 -6.0598090273554135e+00
      -1.5136009972234197e+00 4.2779049969311250e-01
      -1.4053769539320518e-01 2.1999317640111975e-02
      1.0776316811425737e+00 4.9070629872279475e-02
      -5.7402310079845176e-01 1.8820652673643681e+00
      8.2264493923492013e-02 -6.6837686015951736e-01
      -5.0162772114534295e+00 -4.8579960871195880e+00
      4.4914131974211804e+00 -2.4393949445044796e+00
      -3.9187424447679389e+00 1.3800847783584711e+00
      -2.0615624902428946e+00 1.7946319686524002e+00
      -4.1138303814953208e+00 -1.7344030835677833e+00
      6.5909593711702019e-01 -1.7135022105705393e+00
      -6.0497069241491763e+00 6.3931915230307601e-01
      -7.2918909251429398e-01 4.4816735717717577e+00
      8.1508471794538917e-01 -2.6243877171534167e+00
      -1.5366242269475148e+00 -2.0551441509453294e+00
      -7.3574146923118997e+00 2.1377494529609895e+00
      4.6514182739378223e+00 2.4371750579981399e-01
      -1.7495983347618238e+00 1.3801686695106719e+00
      -2.5219408887825270e+00 -3.2869724788935168e+00
      -4.5249534513102052e-01 1.1138528901288496e+00
      4.1647788871279126e+00 4.9597032265069778e+00
      -1.4960785536394888e-01 -4.3612249166766759e+00
      -6.2914808741688988e-01 -1.2179733768083643e+00
      -3.5939255451466590e+00 5.5013527456493208e+00
      5.0838089420694810e-01 -4.8150418243712290e-01
      1.0665284069184660e+00 2.6837900137056656e+00
      -1.6303966376737851e+00 9.3440009434444626e-01
      -3.2183282544092080e+00 8.9642867326779196e-01
      -4.3421755024079278e+00 4.6863874401136902e+00
      2.8613594655768098e+00 -3.1802874674821089e+00
      -2.8594325258370290e+00 -1.5368371678427180e+00
      4.5482322246140083e-01 2.6564547659268505e+00
      -1.4315376773498862e+00 5.2160908539422071e+00
      -1.1410280514387032e+00 1.0669070011557094e+00
      -1.0571266326246611e+00 2.6513468236555284e+00
      1.6198878913296091e+00 9.4053588437196101e-01
      -7.3199276260060608e-01 -2.7311394125067223e-01
      -3.1487803896723641e+00 1.2209391707113417e+00
      1.4927835391260271e+00 3.4080424733269354e-01
      9.0366570079756914e-01 2.0583065474277063e-02
      1.9569633694463264e+00 -5.6920470812111135e-01
      -2.3983450874921282e+00 3.7467282680735234e+00
      -1.7520562398608268e+00 -1.3944875228632858e+00
      3.0779603275383444e-01 1.1120053318483409e+00
      -1.6145686981889336e+00 5.5852782327491535e-01
      -1.0825027772300486e-01 4.0500151197105150e-01
      -1.8934505720409345e-01 5.8145764937377784e+00
      3.0352095748092709e+00 -2.4160683688262687e+00
      6.5770251724518936e-01 -2.6644412985980472e+00
      -4.3827623666575599e+00 -3.4610100114899405e+00
      -5.6059485034490741e+00 2.5263435259460265e+00
      -1.9633767104036053e+00 -3.5236534282122980e+00
      -1.4994376357722068e+00 -9.9774191647516816e-02
      -2.5908030589566664e+00 -8.8946717854091062e-01
      2.6490023509565980e-01 2.0215893830799501e+00
      -4.1731973705441444e-01 -2.4783407819540444e+00
      -1.7940696237493114e+00 -1.4046941311000798e+00
      1.5361130646604601e-01 5.9762523674842516e+00
      1.4666192884052962e+00 -2.6177465544337186e-01
      -1.0401719088174741e+00 2.6324573341183273e+00
      -1.3800063914039968e+00 -2.9837149883590975e-02
      -7.4350818547682440e-01 4.8148254609246072e-01
      1.9971015539181527e+00 -5.1670620508801524e-01
      -5.7989065969021949e+00 -1.2616818287912362e-01
      2.2196764235568103e+00 -1.1057623043894140e+00
