<?xml version="1.0"?>
<opencv_storage>
<opencv_ml_ann_mlp>
  <format>3</format>
  <layer_sizes>
    120 40 65</layer_sizes>
  <activation_function>SIGMOID_SYM</activation_function>
  <f_param1>1.</f_param1>
  <f_param2>1.</f_param2>
  <min_val>-9.4999999999999996e-01</min_val>
  <max_val>9.4999999999999996e-01</max_val>
  <min_val1>-9.7999999999999998e-01</min_val1>
  <max_val1>9.7999999999999998e-01</max_val1>
  <training_params>
    <train_method>BACKPROP</train_method>
    <dw_scale>1.0000000000000001e-01</dw_scale>
    <moment_scale>1.0000000000000001e-01</moment_scale>
    <term_criteria>
      <epsilon>0.</epsilon>
      <iterations>1000</iterations></term_criteria></training_params>
  <input_scale>
    6.4955508818145598e+00 -2.2131093888990688e-01
    2.9889521030390029e+00 -6.3309872339501994e-01
    2.8925998431162072e+00 -1.9548887266583546e+00
    4.1354823157065761e+00 -3.5180224623503360e+00
    4.1078808876984638e+00 -3.2663206252000458e+00
    4.1500074722467692e+00 -3.4149339116102055e+00
    3.3624671365255709e+00 -2.7013799171164368e+00
    2.6370910387501447e+00 -1.2791675285255695e+00
    3.9975893640280469e+00 -4.3003074075102704e-01
    1.3198495624211848e+01 -1.4389848456032042e-01
    3.4560360553819893e+00 -2.2670195873101160e+00
    4.7509952319472202e+00 -3.9251860451104168e+00
    4.4193796176684108e+00 -3.3851056449308645e+00
    4.3551498829796067e+00 -3.3728700086767374e+00
    5.0452365347727266e+00 -4.0735232783404660e+00
    4.9330794902895887e+00 -3.8767595069492775e+00
    4.4790816673269189e+00 -3.3328019036681651e+00
    4.6232781028726997e+00 -3.5063368272945326e+00
    4.7833737827985692e+00 -3.9287017599230727e+00
    4.3031935817416880e+00 -3.1572159273900890e+00
    1.6738419413005770e-01 -2.0486507420121250e-01
    3.8779771504968662e-02 -3.7776605873899227e-01
    1.5506676125225848e-02 -8.0303818464234411e-01
    1.1509872481938408e-02 -1.0984570154031343e+00
    1.0354557956461520e-02 -1.1155320899018180e+00
    1.0894028413247003e-02 -1.2763667202386970e+00
    1.2068566830641340e-02 -1.1498192149132946e+00
    1.7564270812325401e-02 -5.8701486275124504e-01
    4.7259934769616777e-02 -2.2301385299766396e-01
    1.6678052319465606e-01 -1.0754919810913142e-01
    6.6720205292805410e-02 -2.2723943364239865e-01
    2.0169404459823254e-02 -4.8919056528120153e-01
    1.1721666027211690e-02 -1.1381328456170419e+00
    1.1396318592039420e-02 -1.5727988972239473e+00
    1.2266575830258124e-02 -1.4645611097575482e+00
    1.2282475544492558e-02 -1.7643441190913309e+00
    1.1455575902865323e-02 -1.6882731920216727e+00
    1.3302744783501868e-02 -8.4176089970962165e-01
    3.2839654222757378e-02 -3.1425756082551781e-01
    1.0606889158632893e-01 -1.2904228577816060e-01
    4.5520156865823280e-02 -2.2154522596752896e-01
    1.8079276791502862e-02 -4.8220758369901195e-01
    1.1272414929699711e-02 -1.1116917339600145e+00
    1.1606405235257808e-02 -1.4795865149187641e+00
    1.0964664592855220e-02 -1.1908059427002391e+00
    1.0726491382186946e-02 -1.2788853952881518e+00
    1.1204356142723056e-02 -1.4600803616689717e+00
    1.2500378987315191e-02 -8.5690881491926230e-01
    3.0153568898684816e-02 -3.3287128923281883e-01
    1.0862140627979278e-01 -1.3950479428314724e-01
    4.3865262944323719e-02 -2.0560964948322352e-01
    1.8681722850576645e-02 -4.7965654411710379e-01
    1.1359494301583709e-02 -1.1427191191442714e+00
    1.1736931993123345e-02 -1.5942830340126901e+00
    1.0877392342735584e-02 -1.3289962034378253e+00
    1.1120869942960764e-02 -1.3693959502500610e+00
    1.0910134257466411e-02 -1.3863084812594111e+00
    1.2199724555006336e-02 -8.3026640833301812e-01
    2.9166564066263240e-02 -3.4550978497911017e-01
    1.2539420447781743e-01 -1.4715023618950196e-01
    4.7803831127176767e-02 -1.9359194270682234e-01
    1.8853746911114327e-02 -4.4670633244485164e-01
    1.1284047347441250e-02 -1.0908950490145866e+00
    1.1661116768522642e-02 -1.7235973427142004e+00
    1.1672046124395687e-02 -1.7750121528211653e+00
    1.1672043711206583e-02 -1.7835415555174636e+00
    1.1200838530017380e-02 -1.5484662498533177e+00
    1.2728972732649616e-02 -7.7381247173540235e-01
    3.0051030737710722e-02 -3.0872603130611875e-01
    1.4000538758470460e-01 -1.3816882275085710e-01
    4.8380879978388365e-02 -1.9339170199195188e-01
    1.9339362545859082e-02 -4.1241440026925208e-01
    1.1016998567084617e-02 -1.0364172557337366e+00
    1.1643902094175410e-02 -1.7138987630485172e+00
    1.1637363952517563e-02 -1.6824319345846250e+00
    1.1318731040496416e-02 -1.7334034277695962e+00
    1.1000042258411311e-02 -1.5506601182253938e+00
    1.2636634001630905e-02 -7.8104169949732172e-01
    3.2356752736738464e-02 -2.8324726225131602e-01
    1.5622365259227391e-01 -1.1892232922684431e-01
    4.6517583954267056e-02 -1.9493794829148992e-01
    1.9096160965500212e-02 -4.2742826804810824e-01
    1.1104545845565025e-02 -1.1175314357646595e+00
    1.1487913714021192e-02 -1.5689345028813158e+00
    1.1357076428722314e-02 -1.2172678655098779e+00
    1.1016805878615000e-02 -1.3552618914152972e+00
    1.0834888857516269e-02 -1.4254758971376895e+00
    1.2399388581351164e-02 -8.0049098315941336e-01
    3.1850267813388893e-02 -2.9540195887244153e-01
    1.8494298670295459e-01 -1.2084662961476830e-01
    4.5697967593076559e-02 -1.9514545145420187e-01
    1.8867845676488436e-02 -4.6035452510607944e-01
    1.1341817381776854e-02 -1.2025418337673768e+00
    1.1948147037843021e-02 -1.6866258643776963e+00
    1.1437645285804097e-02 -1.1770450633686453e+00
    1.0755987920343300e-02 -1.3125654006819374e+00
    1.0700655414680106e-02 -1.4451011480380043e+00
    1.2132641814981986e-02 -8.3562296063522989e-01
    3.1700207953216493e-02 -3.2548380543598127e-01
    1.6666186612791609e-01 -1.2445239073411377e-01
    4.8187927540134401e-02 -2.0066390955627655e-01
    1.9170281155688824e-02 -4.6539143223137402e-01
    1.1743838138510999e-02 -1.1703769847484164e+00
    1.2036938139446295e-02 -1.7386340199783337e+00
    1.2874133406904664e-02 -1.5233224602377269e+00
    1.2722476150836609e-02 -1.7068304659160376e+00
    1.0511038965677167e-02 -1.4497274594026599e+00
    1.3159022224580100e-02 -8.2702876549525162e-01
    3.1556128786566953e-02 -3.3622485017895620e-01
    1.2517093927377873e-01 -1.2352896999491221e-01
    5.1032584060321490e-02 -2.0000123613042189e-01
    2.0806704947718985e-02 -4.2049984127308493e-01
    1.2722274625878679e-02 -9.1115758172470251e-01
    1.2315792219883760e-02 -1.3858317342516691e+00
    1.1056131949032447e-02 -1.3804475386260791e+00
    1.1289901921488260e-02 -1.4340945597302863e+00
    1.2000432484328281e-02 -1.2584337441936577e+00
    1.6237118388363659e-02 -6.8076202197899105e-01
    3.8948404321403091e-02 -2.9452364717034002e-01
    1.3547224496210786e-01 -1.1516519784949789e-01</input_scale>
  <output_scale>
    5.2631578947368418e-01 4.9999999999999994e-01 5.2631578947368418e-01
    4.9999999999999994e-01 5.2631578947368418e-01 4.9999999999999994e-01
    5.2631578947368418e-01 4.9999999999999994e-01 5.2631578947368418e-01
    4.9999999999999994e-01 5.2631578947368418e-01 4.9999999999999994e-01
    5.2631578947368418e-01 4.9999999999999994e-01 5.2631578947368418e-01
    4.9999999999999994e-01 5.2631578947368418e-01 4.9999999999999994e-01
    5.2631578947368418e-01 4.9999999999999994e-01 5.2631578947368418e-01
    4.9999999999999994e-01 5.2631578947368418e-01 4.9999999999999994e-01
    5.2631578947368418e-01 4.9999999999999994e-01 5.2631578947368418e-01
    4.9999999999999994e-01 5.2631578947368418e-01 4.9999999999999994e-01
    5.2631578947368418e-01 4.9999999999999994e-01 5.2631578947368418e-01
    4.9999999999999994e-01 5.2631578947368418e-01 4.9999999999999994e-01
    5.2631578947368418e-01 4.9999999999999994e-01 5.2631578947368418e-01
    4.9999999999999994e-01 5.2631578947368418e-01 4.9999999999999994e-01
    5.2631578947368418e-01 4.9999999999999994e-01 5.2631578947368418e-01
    4.9999999999999994e-01 5.2631578947368418e-01 4.9999999999999994e-01
    5.2631578947368418e-01 4.9999999999999994e-01 5.2631578947368418e-01
    4.9999999999999994e-01 5.2631578947368418e-01 4.9999999999999994e-01
    5.2631578947368418e-01 4.9999999999999994e-01 5.2631578947368418e-01
    4.9999999999999994e-01 5.2631578947368418e-01 4.9999999999999994e-01
    5.2631578947368418e-01 4.9999999999999994e-01 5.2631578947368418e-01
    4.9999999999999994e-01 5.2631578947368418e-01 4.9999999999999994e-01
    5.2631578947368418e-01 4.9999999999999994e-01 5.2631578947368418e-01
    4.9999999999999994e-01 5.2631578947368418e-01 4.9999999999999994e-01
    5.2631578947368418e-01 4.9999999999999994e-01 5.2631578947368418e-01
    4.9999999999999994e-01 5.2631578947368418e-01 4.9999999999999994e-01
    5.2631578947368418e-01 4.9999999999999994e-01 5.2631578947368418e-01
    4.9999999999999994e-01 5.2631578947368418e-01 4.9999999999999994e-01
    5.2631578947368418e-01 4.9999999999999994e-01 5.2631578947368418e-01
    4.9999999999999994e-01 5.2631578947368418e-01 4.9999999999999994e-01
    5.2631578947368418e-01 4.9999999999999994e-01 5.2631578947368418e-01
    4.9999999999999994e-01 5.2631578947368418e-01 4.9999999999999994e-01
    5.2631578947368418e-01 4.9999999999999994e-01 5.2631578947368418e-01
    4.9999999999999994e-01 5.2631578947368418e-01 4.9999999999999994e-01
    5.2631578947368418e-01 4.9999999999999994e-01 5.2631578947368418e-01
    4.9999999999999994e-01 5.2631578947368418e-01 4.9999999999999994e-01
    5.2631578947368418e-01 4.9999999999999994e-01 5.2631578947368418e-01
    4.9999999999999994e-01 5.2631578947368418e-01 4.9999999999999994e-01
    5.2631578947368418e-01 4.9999999999999994e-01 5.2631578947368418e-01
    4.9999999999999994e-01 5.2631578947368418e-01 4.9999999999999994e-01
    5.2631578947368418e-01 4.9999999999999994e-01 5.2631578947368418e-01
    4.9999999999999994e-01 5.2631578947368418e-01 4.9999999999999994e-01
    5.2631578947368418e-01 4.9999999999999994e-01 5.2631578947368418e-01
    4.9999999999999994e-01</output_scale>
  <inv_output_scale>
    1.8999999999999999e+00 -9.4999999999999996e-01
    1.8999999999999999e+00 -9.4999999999999996e-01
    1.8999999999999999e+00 -9.4999999999999996e-01
    1.8999999999999999e+00 -9.4999999999999996e-01
    1.8999999999999999e+00 -9.4999999999999996e-01
    1.8999999999999999e+00 -9.4999999999999996e-01
    1.8999999999999999e+00 -9.4999999999999996e-01
    1.8999999999999999e+00 -9.4999999999999996e-01
    1.8999999999999999e+00 -9.4999999999999996e-01
    1.8999999999999999e+00 -9.4999999999999996e-01
    1.8999999999999999e+00 -9.4999999999999996e-01
    1.8999999999999999e+00 -9.4999999999999996e-01
    1.8999999999999999e+00 -9.4999999999999996e-01
    1.8999999999999999e+00 -9.4999999999999996e-01
    1.8999999999999999e+00 -9.4999999999999996e-01
    1.8999999999999999e+00 -9.4999999999999996e-01
    1.8999999999999999e+00 -9.4999999999999996e-01
    1.8999999999999999e+00 -9.4999999999999996e-01
    1.8999999999999999e+00 -9.4999999999999996e-01
    1.8999999999999999e+00 -9.4999999999999996e-01
    1.8999999999999999e+00 -9.4999999999999996e-01
    1.8999999999999999e+00 -9.4999999999999996e-01
    1.8999999999999999e+00 -9.4999999999999996e-01
    1.8999999999999999e+00 -9.4999999999999996e-01
    1.8999999999999999e+00 -9.4999999999999996e-01
    1.8999999999999999e+00 -9.4999999999999996e-01
    1.8999999999999999e+00 -9.4999999999999996e-01
    1.8999999999999999e+00 -9.4999999999999996e-01
    1.8999999999999999e+00 -9.4999999999999996e-01
    1.8999999999999999e+00 -9.4999999999999996e-01
    1.8999999999999999e+00 -9.4999999999999996e-01
    1.8999999999999999e+00 -9.4999999999999996e-01
    1.8999999999999999e+00 -9.4999999999999996e-01
    1.8999999999999999e+00 -9.4999999999999996e-01
    1.8999999999999999e+00 -9.4999999999999996e-01
    1.8999999999999999e+00 -9.4999999999999996e-01
    1.8999999999999999e+00 -9.4999999999999996e-01
    1.8999999999999999e+00 -9.4999999999999996e-01
    1.8999999999999999e+00 -9.4999999999999996e-01
    1.8999999999999999e+00 -9.4999999999999996e-01
    1.8999999999999999e+00 -9.4999999999999996e-01
    1.8999999999999999e+00 -9.4999999999999996e-01
    1.8999999999999999e+00 -9.4999999999999996e-01
    1.8999999999999999e+00 -9.4999999999999996e-01
    1.8999999999999999e+00 -9.4999999999999996e-01
    1.8999999999999999e+00 -9.4999999999999996e-01
    1.8999999999999999e+00 -9.4999999999999996e-01
    1.8999999999999999e+00 -9.4999999999999996e-01
    1.8999999999999999e+00 -9.4999999999999996e-01
    1.8999999999999999e+00 -9.4999999999999996e-01
    1.8999999999999999e+00 -9.4999999999999996e-01
    1.8999999999999999e+00 -9.4999999999999996e-01
    1.8999999999999999e+00 -9.4999999999999996e-01
    1.8999999999999999e+00 -9.4999999999999996e-01
    1.8999999999999999e+00 -9.4999999999999996e-01
    1.8999999999999999e+00 -9.4999999999999996e-01
    1.8999999999999999e+00 -9.4999999999999996e-01
    1.8999999999999999e+00 -9.4999999999999996e-01
    1.8999999999999999e+00 -9.4999999999999996e-01
    1.8999999999999999e+00 -9.4999999999999996e-01
    1.8999999999999999e+00 -9.4999999999999996e-01
    1.8999999999999999e+00 -9.4999999999999996e-01
    1.8999999999999999e+00 -9.4999999999999996e-01
    1.8999999999999999e+00 -9.4999999999999996e-01
    1.8999999999999999e+00 -9.4999999999999996e-01</inv_output_scale>
  <weights>
    <_>
      1.4944016118202044e+00 1.8746320033445572e+00
      -4.0307702948927104e-01 8.8419344213018947e-01
      -8.4983672619671224e-01 3.9463458210278821e+00
      5.6504595860661555e-01 4.2955949055295779e+00
      -3.6642100321484161e+00 9.7959312534429781e+00
      1.0096827125070018e+00 -3.4913703656963531e+00
      -2.2282347593462286e+00 -5.5428182934860368e+00
      -3.1598096851891464e+00 -3.4555483580627508e+00
      1.0437606543982629e+00 4.9628299239724716e-01
      1.2842801893311997e+00 -2.5364943365206889e+00
      -8.0514454948104153e-01 1.2490688905984461e-01
      5.0969525162221618e+00 2.8130863823981156e-01
      -6.4444047749306090e+00 1.6531028380390517e-01
      -7.1650722749538360e+00 1.2804924118492473e+00
      3.7041179183818884e-01 1.8275660314655486e+00
      -3.4260565413927641e-01 1.4480459533949761e+00
      4.3192937440368402e+00 8.8803710456497811e+00
      -2.0192361406546286e+00 -4.0623078756139446e+00
      1.3265532054696871e-01 2.3472569213919710e+00
      1.6310457908557514e+00 -4.3835242582682516e+00
      2.4788661542870094e+00 -9.9997823230185345e-01
      -5.7059802376627444e-01 -3.5102943741426967e-01
      -2.9963399487004470e+00 -5.5851340278524066e+00
      2.1196410597846169e-01 3.8377738806329944e+00
      3.8469582799698454e-01 4.8221861019258512e+00
      2.9578100608650790e+00 -1.3726041380696388e+00
      2.3482507178538556e+00 4.9432904513991307e+00
      1.0957823761929488e+00 -3.8166721001379376e+00
      -4.6078001224676890e-01 -2.3327388899218631e-02
      9.1840178389643395e-02 3.1092700565859896e+00
      -1.0625833920482521e+00 -2.4924146837559863e-01
      2.9618097586040930e+00 -9.5160508725052750e-01
      -3.9454420465125493e+00 -6.4929231019458100e-01
      -7.5384371212145016e+00 5.3139077057315438e+00
      2.9244920219032210e-02 -6.4767854592938123e+00
      1.2834372993672403e+00 3.1360664081893916e+00
      -5.2181853324717664e-01 5.0860353937399871e+00
      3.8317501328939887e+00 1.5310810268187094e+00
      -1.2521366969077294e+00 1.2649445964309185e+00
      6.3679020836667877e-01 1.7919156184873175e+00
      1.4190372516409100e+00 -5.4238877003386001e+00
      6.2381374746896423e-01 -9.9859814784053258e-01
      -6.4178763284600802e+00 -8.1370448594244991e+00
      2.8984944860037287e+00 -2.8526693486883508e+00
      -1.3639154123695476e+00 5.2689082158716030e+00
      4.4417846706166104e+00 -5.6992425138314609e+00
      4.3073586112504536e+00 1.6023738145319035e+00
      -4.2782426118587873e+00 -4.0932794163780137e+00
      -3.0313512071118898e+00 8.4449106071133642e+00
      5.3472582706311815e+00 4.3227304841701226e+00
      9.2760359970635753e-02 -6.1574506883124913e-01
      5.2770676895882849e+00 2.3421046514406090e+00
      -6.7277626633293597e-01 -5.2881890208052376e+00
      -1.1580251578351948e+01 1.7321565075662104e-01
      1.4314233010027406e+00 -1.2848351838784886e+00
      2.3801388380626859e-01 -3.1183392376445709e+00
      9.7262714565661934e-02 3.7088933243263074e+00
      1.1576548497650736e+00 -8.1901440339862077e+00
      -3.0559017349234807e+00 -1.8804126162548215e-01
      1.7813822780903252e+00 5.7382638674599926e+00
      -5.5180601846050612e+00 3.2100497520857694e+00
      -4.7168964298673748e+00 -4.8876121702874693e+00
      7.0782654556906959e+00 -6.2080157512206791e+00
      1.2040679655927518e+00 -4.2334933515694564e+00
      3.8421605326285886e+00 4.2505392269350759e+00
      7.8078734388128823e-01 -7.0333433264842746e-02
      4.7541955556735260e+00 3.5951976625302016e+00
      -7.9691916806372110e+00 -6.3603546569712535e+00
      8.6047286503170124e+00 3.7828089085136756e+00
      -2.1521682184706914e+00 4.5199167591117480e+00
      -7.3697488455404532e+00 -1.4476286423200435e+00
      2.6788903612535990e+00 2.3791210216353651e+00
      -2.4266113320606149e+00 4.7388194399434873e+00
      -1.2282993337111071e+01 -2.8215967374939495e+00
      -1.3790923690050300e-01 -2.2403802380286737e+00
      -1.3695057714563532e+00 3.6203928167052024e+00
      6.8093571669712762e+00 7.4488021805081113e+00
      5.5661432153438639e+00 -1.1165176113608863e+00
      -1.8602797638940527e+00 1.4460583386865606e+00
      6.0907965992470663e+00 -5.2162382866420769e+00
      -7.3326817456706339e-01 -4.1283463234195485e+00
      -4.6709372817175607e+00 -1.8905793883806217e+00
      -4.0970624125284756e+00 -1.1988008601346309e+00
      2.0211236694368169e+00 -5.7664137754523805e+00
      -9.9244130950081866e-01 3.3025547468161260e+00
      1.8876480544993861e+00 -7.6394721993022010e+00
      -1.4916285456805916e+00 -9.5330696289428296e+00
      -5.1450051717625387e+00 -5.4660092896960011e+00
      4.4728809371097151e+00 3.6369938731729987e+00
      7.9475737091251002e+00 1.6895116940128765e+00
      -4.2055818349931515e+00 -5.2480738065565613e-01
      4.5557057765145759e+00 -3.2015393515065456e+00
      -6.2240600373135790e-01 -4.7378491906912554e+00
      -6.4569694707320755e+00 2.2012550987156261e+00
      -7.7145323119075782e-01 -1.2277203540946506e+00
      3.6541254225958408e-01 5.5316572922921847e-01
      7.1646197204385587e+00 3.4663669274683073e+00
      9.8486993538812246e+00 -8.2992405155110660e+00
      -3.5964472696843219e+00 3.9166256656425491e-01
      -2.2808709065648216e+00 -1.8507891912970738e+00
      5.3271866335031826e+00 -8.5970495865757499e+00
      -6.5563263624133112e+00 4.5491644682399830e+00
      -7.7909098706396689e+00 -1.6024034991018290e+00
      -3.0365302117115931e+00 1.0698620738592561e+00
      -2.3890119796988927e+00 9.0366479567792020e+00
      4.5983838119410620e+00 2.0850558686597402e+00
      4.0869659478168652e+00 -2.9580730181809103e+00
      -5.1735115512257206e+00 -4.8726456733013590e+00
      -3.2410659975128897e-01 -4.9287367692957513e+00
      4.6703904007791470e+00 6.1496767656687039e+00
      -5.9792059079256212e+00 2.4172548421583460e+00
      3.3582452387140207e+00 -1.4719190121228944e+00
      6.8614460918457372e+00 -2.5148433408592310e+00
      -9.1169269695986319e+00 2.8971724713311158e+00
      4.5386027392421963e-01 2.8128284925577733e+00
      2.7080795657122159e+00 7.4152777033087434e+00
      7.9348453169026341e+00 3.7030246247012797e+00
      4.2981265441118550e+00 -6.5675531788263086e-01
      -8.7486556217729277e+00 -3.0227872334834274e+00
      -5.9415019933038138e-01 1.2665541099641286e+00
      -3.8767131805403552e+00 5.0529100417168238e-01
      -5.2697852399606369e+00 3.8844839710634109e+00
      1.5342704657382292e-01 3.3253999826097407e+00
      -9.6958987589888110e+00 1.2594474682223746e+00
      -2.1056799588256507e+00 4.9474059169781777e+00
      1.1466372861056564e+00 -5.9431965264374026e-02
      -3.9313777084479584e+00 4.9820719134295279e+00
      -4.5342926650588691e+00 3.5687876539409102e+00
      5.0357542630440655e+00 2.5422337916905413e-01
      -1.1745115890325739e+00 -3.4850928225375366e+00
      -7.9009750626982962e+00 7.8988358031941237e+00
      -1.1912864911294998e+00 1.2925563312528622e+01
      1.7662643355947578e+00 5.6288678088006794e+00
      -4.4114297949654562e+00 -3.1681007150486780e+00
      2.0758401246817440e-01 1.2319670056546961e+00
      5.1054246446654095e-01 3.8162937259015703e+00
      3.5676652149570431e+00 8.2481431035113262e-01
      -2.1335218617034576e-01 -1.1210234055830762e+01
      5.0535744518816488e+00 -3.1147819479614682e+00
      2.5996965014495550e+00 -8.4673431820195706e+00
      -1.1089926484686468e+00 -2.2141128996859871e+00
      -3.4047155289461450e+00 6.0605779908553643e+00
      4.8718902023780517e+00 -2.3679208098820244e+00
      4.8769070203802780e+00 2.8555110984361631e+00
      1.2655203242301987e+00 -2.2180077061282133e+00
      2.6867498619447155e-01 -1.5762896492904985e-01
      -3.2444150416084976e+00 -3.0255705824873509e+00
      -3.8000411051686567e+00 2.0594896940748830e+00
      5.9104304688918874e-01 -4.6375806686567955e+00
      7.6322055733385632e+00 2.7031855282106272e+00
      -4.6019399565259861e-01 -1.1668123927909915e+00
      -4.9256927434424389e+00 5.7779490191413920e+00
      1.1144033237952115e+01 -8.3640715308332183e+00
      -1.8054762605817627e+00 4.8576682291357578e+00
      3.3064872538754175e-01 2.0902585530960680e+00
      4.4861591611819343e+00 4.8724350711671098e+00
      -1.0069245893495793e+00 -3.4118347153362740e+00
      6.3774072124961005e+00 -3.6288811189407020e+00
      -4.4040209163987903e-01 1.8294039212063398e+00
      7.3921400356146902e+00 -4.2289376311598605e+00
      1.3632573591515509e+00 5.1185946815137218e+00
      -2.4653508928207186e+00 1.7138582628008791e-03
      5.2710938059457124e+00 -3.2472008906250487e+00
      2.0206961579161975e+00 -2.0709098264774677e+00
      -2.1314545109803182e+00 -3.1718208665998131e+00
      -2.0690927678784257e+00 4.5669364174827615e-01
      -6.1009339786089054e+00 -1.9206611884771383e+00
      -1.3457371030727079e+00 4.3498612919380335e+00
      -3.4469755210479893e+00 -3.6214949144958974e+00
      1.1982930894341042e+00 -2.9787172242163980e+00
      -3.4581794797749787e+00 2.2141543177748399e-01
      -2.4093188211688976e+00 -4.4298733895033982e-01
      2.9613818883001795e+00 -8.8490721553201457e+00
      3.5506603171328227e-01 2.9252469742005333e-01
      -2.8299007387098113e-01 7.9780718009869549e+00
      3.0214446255521771e-01 9.3148845319080020e-01
      2.6986490014810296e+00 1.6173856018116504e+00
      3.0624904317081594e+00 -3.5320693900087813e-01
      -4.8643292438430458e-04 -3.0443462982876754e+00
      1.9486051316105664e+00 5.5150667813143217e-01
      -1.6857804098487399e+00 9.9171637933619727e-01
      2.1706592321292251e-01 2.9441357143687713e-01
      1.9840136424702035e+00 -1.3833659194927805e-01
      -2.0188763240722669e+00 -2.4567067827183782e+00
      1.2570543835931096e+00 -1.2070055659019285e+00
      -2.1963259295807624e+00 -7.1140265049360840e-01
      1.1835251175510975e+00 -1.9809634015496438e+00
      3.0576783907483676e+00 -1.7512053756646473e+00
      5.4726907505635169e-01 2.1239155906398630e+00
      -6.7497438643303084e-02 -7.3420857212458335e-01
      -2.1585219691771629e+00 1.7837963410663507e+00
      -2.4884322818733903e-01 -1.3973790536004533e+00
      -2.3169510821768955e+00 1.1672894009020491e+00
      1.2960951658448931e+00 7.3061269496139003e-01
      -6.5679010184357955e-01 -3.2488489166361387e+00
      4.1647437343732587e+00 -1.3589533888255356e+00
      -1.4689177845453107e+00 -1.7873715217318036e+00
      3.9567724598193581e+00 9.5447437732131235e-01
      2.3404795569888321e+00 1.7658831613341561e+00
      7.6248514658734434e-01 -1.8962860992230111e+00
      -5.6148256983483547e-01 2.4833289581322435e+00
      -8.3377951721081622e+00 -7.3738779503316030e+00
      2.8409644580673201e+00 -2.6683053321909327e+00
      -3.1386649922146548e+00 3.0281765522682402e+00
      3.1435213852255801e+00 -3.8093934556880718e+00
      6.5330046902896388e-01 -1.8024105798935115e+00
      4.0238459413847973e+00 -4.8699001258936919e-02
      5.1158476385434506e+00 3.1948616144434552e+00
      9.1896384482707383e-01 2.8198425325432233e+00
      7.0738566686275748e+00 -1.7172342104118118e-01
      2.7336066784693080e-01 -3.8415298860802944e+00
      -9.7934969051123328e+00 1.7038153965582945e+00
      -5.2741342225741350e-01 2.4284129300129478e+00
      7.1366864570466033e+00 -6.5024434954314025e-01
      1.3007118195741355e-01 -1.7697466736825600e+00
      -4.0141821627957201e-02 3.1214123773131290e+00
      -5.2071373620926931e-01 9.7802785854249941e-01
      1.5618521904975680e+00 6.9817456671922722e+00
      -2.2365762652586199e+00 5.4783495611640971e+00
      -3.3062994875689800e+00 4.6417067456492994e-01
      3.5952862335006524e+00 4.2519997607424971e+00
      -4.6649582881075409e+00 1.2440041000208755e+00
      -1.3637514545566609e+00 2.7847941143935762e+00
      5.8097647172854938e-01 2.3494953610918978e+00
      4.0582388448821222e-01 -2.1438675264308305e-01
      -3.9960276265282761e+00 6.7099846619593233e+00
      -4.9715082289513965e+00 3.9867436185886085e+00
      -1.0218170109465489e-01 1.5758686380870837e+00
      -2.8096600413585049e-01 7.9458132658140657e-01
      -2.6114942222077695e+00 1.4227529846253617e+00
      8.2446767197215487e-01 -1.8786588384760474e+00
      1.4319567206541932e+00 1.7327102697023791e+00
      2.2931234910070630e+00 1.9504445355761504e+00
      2.2661886663110820e+00 9.4420448162427639e-01
      -2.5535041331464231e-01 7.5403785830249992e-01
      -2.4284465361339366e-01 6.5730079410106124e-01
      -2.3703626167304694e+00 5.1405723254794120e+00
      -1.1765285910622718e+00 7.5360205581237762e+00
      -1.1636163310089860e+00 4.9262099659781313e+00
      3.5413618115006629e-01 1.5010720479931379e+00
      -4.1479130315623252e+00 3.5101925944842688e-01
      -2.1311337177194201e+00 -2.7121470513633370e+00
      -2.7467312851038950e-01 3.3318544458120054e-02
      -2.2750908966295715e+00 1.8543969866356775e+00
      -4.9458970802964561e+00 7.8600047313707477e-01
      -5.1293950980456033e+00 5.5570070400054021e+00
      -9.5071279449382606e-01 -2.0088995476573221e+00
      -3.5488086627920388e+00 4.6075344803245599e+00
      -4.6608032011431394e-01 1.9970743029305738e+00
      -7.5942029485088005e+00 2.2206011611985668e+00
      -1.6441430904439065e+00 -8.8492461652656051e-01
      8.8323238029461262e+00 3.8491768934428210e+00
      -2.6596423744972499e+00 -4.8093917666335058e+00
      -2.0055991171082707e-01 -5.7723669649215281e-01
      6.4319323194897182e-01 -3.5652346696687380e+00
      -8.6896013082651058e-01 -6.1957044801299810e-01
      5.7604795848984400e+00 1.2212186359613526e+00
      5.4796137586673144e-01 3.7546972097640721e+00
      3.0371052613099137e-01 -2.4281405149055386e+00
      -9.7051579698535939e-01 4.7861206687624075e-01
      -4.7223647605186727e+00 3.8591368564712045e+00
      -3.6765633515637148e+00 -1.0089254548960845e+01
      1.9309039423611235e-01 -7.3585535115142731e-01
      -3.2013225784671411e+00 1.0276163594577490e+00
      -2.2018070341424206e-01 6.3463602386956239e+00
      -2.4828011392062566e+00 -9.5647279966543097e-01
      -3.2643007966211264e+00 -1.0145192993693621e+00
      -1.6746056333697452e+00 2.8648480956514821e+00
      -5.1146329956964964e-01 -3.7151933366469225e+00
      -5.1274639462812059e+00 -1.9247130271076993e+00
      1.0512533347780515e+00 -1.2131920104069591e+00
      6.2032930884837389e+00 5.0655080288186740e+00
      -6.6052551291128603e-01 -9.8372595706273869e-01
      6.3083232430303333e+00 -1.9535576630260665e+00
      7.7007878456406775e-01 -5.7261439964054679e+00
      1.5035707391091677e+00 -1.6177424315671365e+00
      1.0507749645196760e+00 2.1980687180554024e+00
      -1.4323198974141857e+00 -4.4592277353972163e+00
      3.3706738822806259e+00 -2.4398311529431141e-01
      -1.3077583611466379e+00 -2.2656876070124748e-01
      -2.5696592317912287e-01 -1.7367089530232749e+00
      1.2010702544921645e+00 -2.8408262740161216e+00
      1.0980930240321088e-01 -2.4384037962737630e+00
      -1.4074999452968986e+00 1.4539796460163254e-01
      -5.5164262781018958e-01 -7.5696005601766450e+00
      3.2144952631244497e+00 -3.6967313452774020e+00
      3.5780595333155500e+00 -2.2466517305879612e+00
      1.1475751724576839e+00 -3.5218908678684011e+00
      1.7960338293487210e+00 5.2299800074003111e-01
      -2.1196849360428782e+00 3.0360012095961336e-01
      -5.6185817743189279e+00 2.0375265132642695e+00
      4.6795167245032552e+00 -4.0235863373958596e+00
      -4.3178035469543730e+00 9.6348191046624188e-01
      -4.3609033559757071e+00 -6.9932301259675966e-01
      1.0361698067237068e+00 2.1944780580731273e+00
      -3.9734227303751961e+00 -2.0254654551263873e+00
      -2.7074021622100348e+00 4.2983399835218922e-01
      1.9058207107120917e+00 1.5071066218174529e+00
      -1.0661012519465061e+01 1.8442545556990999e+00
      1.9015194421248534e+00 -2.3994268721979872e+00
      -5.1621820905670790e-01 6.5760934452356272e+00
      -1.8838295909842016e+00 -3.9936159569029637e+00
      2.2208719970781476e-01 3.5204433557260417e-01
      9.8952819936355418e-01 -1.6417758033963927e+00
      -1.3883410831769918e+00 -6.9402305458060827e+00
      -8.2772831198084340e-01 -6.4743361657544982e+00
      3.3327162064763063e+00 -2.6497553770298827e+00
      -4.5445216841807383e+00 -7.2000260807913896e-01
      1.7338284744671704e+00 8.6807489164973060e+00
      -2.7576995963793888e-01 -3.1314302344961092e-01
      -7.2601277188806812e-01 1.7915090292130593e+00
      2.1604870966786862e+00 -2.8729571162748653e+00
      1.2271712257347867e+00 -4.2106552892284741e+00
      -1.7312466908559512e+00 5.4261976296823837e+00
      1.6131540250884688e+00 -2.0226708685544090e+00
      1.6523255022383201e+00 -7.4118923793996605e-01
      -5.3331608485478277e-01 -3.9715137467014765e+00
      -3.5534088740742473e+00 2.3173468411688840e+00
      -1.4103038894386368e+00 -6.5406610782409680e-01
      -1.7664754589518754e+00 -8.3897576523218376e-01
      4.8048652491411188e+00 3.3070718247451700e+00
      -3.9943847364163685e+00 -6.2526486504569609e+00
      -2.5100244166516905e+00 -2.3593514257297556e+00
      1.4782049848875241e+00 -1.5285079007053866e+00
      -1.5952881005994004e+00 2.4960813544722504e+00
      -1.1681229760093210e+00 5.2085921975035387e-01
      -1.9299101467769575e-01 1.4591927243596334e+00
      4.8849954859537137e-01 -7.4799714954945191e+00
      -1.2466266956985590e+00 -6.6904461260673740e+00
      -8.4513805460246949e-01 1.3920300035343625e+00
      4.6730117443340996e-01 2.1663928100980634e+00
      -3.6400497066853870e+00 -5.0752464858655353e+00
      -9.6605254446649758e-01 1.7263200676628709e+00
      7.0932438411693732e-01 -2.4299252150668993e+00
      9.2184550169383761e-02 -5.3224928043149289e+00
      1.3509503252610240e+00 -1.3012668331749548e+00
      1.9815080592866954e+00 3.2311350112649562e-01
      -1.6093394098409599e+00 -1.7027135791655872e+00
      -1.5205245943441714e+00 4.0145637668664120e+00
      -5.0449054822333830e+00 2.2567260977769639e+00
      3.2706725899939637e+00 -1.1471391531573966e-01
      -1.7179532012218286e+00 -6.7799064934334554e+00
      -6.4636909086827843e-01 -2.6404258180182455e-01
      -1.2168513372071664e-02 8.8609495220607556e-02
      3.1681344054291083e+00 6.6047297165110699e+00
      -3.4851259484217803e+00 -6.4933955441972024e-01
      8.1284134586327261e-01 3.7896498395961187e+00
      -7.9224024168865237e-01 -1.2579261565689026e+00
      -2.8880577441464332e+00 -1.8047116413195372e+01
      1.5803468539921453e+00 3.2705302805516268e+00
      2.1005361187552989e+00 3.8150790009591815e+00
      -1.3593647957333534e+00 1.6328796815197988e+00
      7.1319254863607942e+00 2.0650839165391819e+00
      4.3733341880219516e+00 -3.6852885107837330e+00
      -5.2250899641565964e-02 3.3118729881868658e+00
      -3.8147008838092047e+00 2.3303723890703161e+00
      -5.2858147377160081e-01 2.0979717894650989e+00
      7.3165681320351483e-01 8.6894474871895311e-01
      3.3124938965011355e+00 -4.3118661247880841e+00
      2.9862887121002739e+00 3.1865998541532439e+00
      -1.1596261503789838e+00 -4.5854908706872788e+00
      -8.3038335276503599e+00 1.6367271927883715e+00
      -1.9808626630740480e+00 -1.4692960502380281e+00
      -1.2114903264921275e+00 -8.4214227148576548e-01
      1.1091950990053057e+00 -6.0580411225791442e-01
      8.5940011839147312e-01 -1.3954348083715000e+00
      -2.2203436133365604e+00 6.7650671176522463e+00
      -2.8112407363782355e+00 1.2616624897806286e+00
      1.5062797168807314e+00 -1.2112751923927050e+01
      7.2424962805188819e-01 -4.4922498501839865e+00
      -5.9811425577244626e-01 2.8995025327777642e+00
      5.0092971932675265e+00 4.3766869652372362e+00
      -1.0459132707980918e+00 4.3661587574818048e+00
      -5.4378228096679733e+00 1.3119015641780188e-01
      -3.9572650543536458e-01 -1.6553534711630715e+00
      -3.6400054114981328e-01 -6.5319744225522247e-01
      -1.0965541894566619e+00 -1.4723582405370306e+00
      -2.0961139750137048e-01 -2.7454732651766323e+00
      1.8212938613217806e+00 -1.2525856767331822e+00
      2.7561277515634669e-01 -8.5037537969815447e-01
      -2.0621340793230418e+00 -1.5787477307934747e+00
      -3.3808387782615434e+01 1.7314607155736240e+01
      -2.1532790182110251e+00 -2.4459163733310043e+00
      1.8931613895316073e+00 1.0827150048022016e+00
      -4.4343066347978999e-01 -3.5714455626226760e-01
      7.5535763386498134e-01 2.1081637814655605e+00
      1.5483462245714872e+00 -2.2221085577096917e+00
      2.5403347091443553e+00 5.2963146196750943e-01
      -1.1903587123404749e-01 -1.3641984298722507e+01
      5.4066201395560709e+00 -6.2350998583878141e+00
      -1.6722654662644629e-01 1.4990678203691636e+00
      7.9012716428944807e-01 -1.8350333088151605e+00
      -6.1721508922202895e-01 1.5080575487104755e+00
      -8.3336848108565365e-01 1.6856693900557915e+00
      -9.1746600896057365e-02 3.8350690826369558e+00
      3.2375392045318399e+00 1.4302469514407805e+00
      -2.5456123587042545e+00 2.8688442402894774e+00
      -2.5788804152652354e+00 -7.4319765922272119e+00
      6.3398550400580933e-01 -1.3748620686585064e-01
      3.4628800482525985e+00 3.1469124140143778e+00
      5.6375747426381606e-01 4.9709656945990037e+00
      -3.3566695299389546e+00 1.6972722516321445e-01
      1.0402498728702980e+00 3.7711805395848059e+00
      1.8176211773347424e+00 -3.2455438398327585e+00
      -6.4885238327300403e+00 2.7654769060837459e-01
      -1.6286404618113062e+00 2.2536206556345393e+00
      -3.4296604884953448e+00 7.1723148173912108e+00
      1.4056417243603532e+00 -1.2392086560528739e+00
      7.0466286354494978e-01 2.0835208503518729e-01
      -1.2647352543323456e+00 -3.0788588305809288e+00
      2.1469797940556146e+00 -1.7324048182491742e+00
      -5.6034652721664480e-01 -8.4708598569706040e-01
      3.2237802168202667e+00 3.5768649774835648e-01
      -2.9833875618570294e+00 -2.3883892301288157e+00
      -4.9851290702368738e+00 6.2597252685077915e+00
      -2.0679834936380767e-01 -6.0041433414703160e-01
      1.0890953639824101e+00 6.6519693949145131e-01
      -9.8453847311117004e-01 2.8365735055174688e+00
      -4.9569962782368476e-01 -3.1396290901503972e+00
      -4.4486840077727932e+00 -5.1950070343791577e+00
      2.2388440619664110e-01 -9.9194686004508092e-01
      2.7928667825929274e+00 1.5901394437361263e+00
      -3.4107102342451405e+00 -2.7860493841652206e-01
      -1.2498093855191601e+00 -1.1669223997943408e+00
      -3.5394806140977569e-01 1.3259501516478629e+00
      -2.2109446255199283e+00 -5.0384715418481063e-01
      -2.2978341706438630e+00 -3.4303655082044435e+00
      -3.5093788321815951e+00 -4.0181949260792384e+00
      2.7305079208965299e+00 -3.4409497327984049e+00
      -8.1253192049667411e-01 -7.6349084713098381e-01
      1.0981606275687203e-01 -6.0147984934225143e-02
      3.8097018185251206e+00 -2.5607158648512192e+00
      1.7910053817837803e+00 -9.1456840796748784e-01
      -3.6297421292572729e-01 1.1749651822193517e-01
      5.8001941357247358e-02 1.1483513215608639e+01
      -1.5247953487084467e-01 -2.8721187374706714e-01
      9.0271884123105328e-01 -6.4725814935375880e-01
      1.0304365711782753e+00 -1.5324546075460690e+00
      6.6046285288160367e-01 2.1755672441027896e+00
      1.5184569107764692e+00 -8.5831615049996002e-01
      -1.5726903419514389e+00 3.8001489585060427e-01
      -1.6328896120208830e-01 -1.7078510806608718e+00
      5.1265204878030080e+00 6.8931778349830206e-02
      -5.1777871240607629e+00 3.0814873693973177e-01
      3.4817975301215456e+00 7.5838693070532068e+00
      8.1340533043579022e-03 -5.1547155952210322e-01
      -4.5961069874160376e+00 -2.0923752944743570e+00
      2.0677469869727108e+00 1.4225459741768917e-01
      -4.0214381869927358e+00 -3.3251693695500997e+00
      -1.1556193533442012e+00 -4.1417580588943350e+00
      9.0753495520305649e-01 1.7057403670128730e+00
      -8.8044436601796372e-01 2.1610683735525673e+00
      3.6397188744479464e-01 1.4961113645657217e-01
      7.1607861511277067e+00 -1.3578373924488767e+00
      -5.7836615486367114e-02 1.6055713652288237e+01
      -1.7589551543509749e-01 1.3335924967449939e-01
      2.4220639257203973e+00 2.1724312003147785e+00
      -4.4947675570851393e+00 -1.3997625024267999e+00
      -3.5372909360598714e+00 -1.6292893465187062e+00
      5.3364135157846571e+00 1.7117022745567314e+00
      1.4372703105401137e+00 1.5499892132189306e+00
      -1.0336469416418693e+01 1.7113577973746427e-01
      -6.9288951157944503e+00 2.9179792830708338e+00
      1.1762919591685610e+00 4.4076664121473114e-01
      6.3641529640510113e+00 3.7504121747147741e+00
      -4.7761065000497034e+00 2.1339773292031352e+00
      -8.4891199617690791e+00 -1.0324640674271781e+00
      1.1206116288751529e+01 3.2020931170635789e+00
      3.8751317841714696e+00 -2.3732995620850663e+00
      2.8546695324954574e+00 -1.6984960003232028e+00
      -4.0372271891784433e+00 8.4540966755153601e-01
      -9.1211506738556984e+00 -5.9084900412880192e-01
      1.2316820976759286e+00 -9.5856651844384744e-01
      7.6407139016837178e-01 -1.8480182060082944e+00
      9.3034640981508238e-02 1.7888794696313930e+01
      -2.2063539369196752e+00 -6.5455341829307001e-01
      2.9948032911358817e+00 3.4781742282887818e-01
      -5.7112892336787278e+00 -1.6221590691630814e+00
      2.1292939199428647e+00 4.9872600316112408e+00
      3.2680944484774037e+00 5.1472574503786790e+00
      1.8055621080203235e+00 -1.2047596785820931e+00
      1.0068992291635578e+01 5.1804231325184169e+00
      -9.9758039952787865e+00 -8.3790585960389830e-01
      5.6134759701138117e+00 1.0636143098071089e+00
      6.1049107100665232e+00 -6.8600761966079382e+00
      1.9956590384516757e+00 1.3937946496898588e+00
      -8.1599480204467696e+00 2.4135791134986602e+00
      1.3683739174475473e+01 -8.3338323654857138e+00
      4.8330463752769557e+00 -2.4858710970677875e+00
      1.5057396937013388e+00 -3.9951694035814600e+00
      -7.1898674557106634e+00 5.0021331263990305e+00
      -9.6356012251967655e+00 -6.2903514367686530e-01
      -2.4558077430765248e+00 -1.9940246517388145e+00
      3.6687087358886461e+00 -1.1202861619712965e+00
      -2.9754415534561296e-01 -4.5033148568437413e+00
      -1.1876629939313224e+00 6.7967424784109189e+00
      -7.1924094987625520e-01 -1.6818263993428069e+00
      -1.9745946064130675e+00 -5.0745792259027436e+00
      5.0733963382585667e+00 -3.7931286799983988e+00
      -1.8427559533386189e+00 -1.1892672680262645e+01
      1.5609671189584282e-01 -3.1995283441858064e+00
      -2.9615611162663154e+00 -3.1614671343256635e+00
      -6.0958646946984736e+00 -5.1354235368764325e+00
      7.8809659056312356e+00 -4.6139747431541167e+00
      -3.3383367626003646e-01 -1.4020061786313311e+01
      4.4468126325345780e+00 1.8700796918368519e+00
      -1.0725673755418939e+00 -1.2773225000555122e+00
      1.6156916536550042e+01 -1.7290258183884966e+00
      2.3082918254121729e+00 -4.5999297749590893e+00
      -4.7255082126011627e-01 -3.8663952175515317e+00
      4.9750425159182793e-01 1.2473924948995423e+00
      -1.0837801043607239e+01 1.4757002911411243e-01
      1.3168975820983415e+00 -7.6444397034677614e-01
      -1.8934164692434838e+00 4.7511429624570778e-01
      -3.4431947768373006e-01 3.3140507148704543e+00
      -9.1179655333192022e-01 5.7053801630740582e+00
      -5.2994820739850423e+00 -6.1345490176303032e+00
      3.6887313543248825e+00 -5.2694628520820626e+00
      -1.3348590993952143e+00 3.4612883762644886e+00
      -5.3382399769064479e+00 -8.7097120355389581e+00
      -1.6682142902977586e+00 -4.3273642845463947e+00
      4.1196492564193010e-01 -3.7547620205494048e+00
      7.3732003671210515e+00 2.3107925191869225e+00
      5.8422442961869092e-01 1.2775762983408703e+00
      -1.2401650283278651e+00 3.8327775533547652e+00
      -3.0357488933640902e+00 -3.4727743218139948e+00
      2.1737193376932700e+00 -5.7949263821666830e-01
      -1.7552648483415247e+00 8.0987852886036400e+00
      -3.4545267383381604e+00 6.2389891500018786e+00
      -1.6388423233556877e+00 8.6845344848559958e-01
      1.9267900577219426e+00 2.3341407707044519e+00
      -6.4078729764538700e+00 -8.6722946076022400e-01
      -3.6293715678944523e+00 5.2399898112380701e+00
      -1.9660944639758420e+00 -1.8871580220525128e+00
      -5.0250430021847692e-01 2.3694484008001959e+00
      -1.7731578792207134e+00 -9.6076720682262895e-01
      -1.7402058315843458e+00 -2.7047233550486451e+00
      6.1738034978720711e+00 3.9568139323243878e+00
      -7.6167212790812933e+00 1.1699294445437707e+00
      -2.5905489941055162e+00 6.9234304450455584e+00
      5.1740288752228203e-01 -4.6082289455959655e+00
      1.0795303646466579e+00 -4.1524178676611506e-01
      3.3627816851327390e+00 -2.4990994562088060e+00
      -1.9486721835889227e+00 3.1543107911963371e+00
      3.3233215624799706e+00 8.8225244399250524e+00
      -5.0937020789061602e+00 5.7229074446946127e-01
      1.1453649780719426e+00 1.5766693247474681e+00
      7.8856393266704583e-01 8.0998717600951071e+00
      -2.0238219420603412e+00 8.4463119201354822e+00
      -4.4842337775454757e+00 1.1424667743222351e-01
      -1.4630775291237892e+00 -1.1753811976611259e+00
      -9.9481717117665916e-02 -3.0022606225244268e+00
      -6.2298712814798185e-01 3.5693739620193763e+00
      -8.3125658226398849e-02 5.0193683225463925e-01
      -5.4644036416436315e-01 2.6448563493602478e-01
      6.8690954032802576e-01 -2.6560730309623208e+00
      -5.4093528942509836e+00 4.7128321229379839e+00
      2.9184928082146222e-01 5.9053133524359289e+00
      -1.8121390912257503e+01 -7.5413251510247070e-01
      -3.8855849645309537e-01 8.3881747344483877e+00
      3.2454683835823337e+00 -4.3023384270191105e+00
      -1.8987733875754369e+00 4.1944734131574757e+00
      -5.1289940353390140e+00 4.1899060587842678e+00
      -4.0901772666264460e+00 2.2266967507583715e+00
      -2.7745520857796007e+00 6.6435977725952853e+00
      -2.1748791324902230e+00 1.2201392379970990e+00
      6.0576530531650918e-01 -8.5281296971888976e-01
      5.9210076226557018e-01 3.2020330848711249e+00
      -5.5162525779077658e+00 4.3905236839101702e+00
      -5.7623667865398898e-01 -7.3419007148006465e-01
      1.7299590022700913e+00 -7.7442370723139753e-01
      -5.0555085096955987e-01 -2.2601911628714464e+00
      3.7618307786431099e-03 3.1402014537517440e+00
      5.1863934049915050e+00 1.6942613282179186e-01
      -1.3334197013002240e+00 5.4704021235384603e+00
      1.2863745568522169e+00 3.2906376739896365e-01
      4.3737928699056855e-01 -2.8098798469089248e-01
      1.9827540161641748e+00 1.2896833059484036e+00
      -6.7653129124764053e+00 6.0279048454184114e-01
      -1.0622000391592228e+00 2.5163604807960027e+00
      1.1973823706920956e+00 6.0845021202595162e-02
      -1.5796835309885824e+00 -3.3565915553050907e+00
      -2.7946380754252093e-01 2.2877825459734038e+00
      -6.4052690722061836e-02 -3.4756243598317096e+00
      -4.8533317286792499e-01 -1.4734951643966969e+00
      1.3148912205922079e+00 2.4006681833918353e-01
      -3.6342031501859484e+00 1.6693045332698568e+00
      1.4197416021324280e-01 1.7096833787530128e+00
      1.7585698867350701e+00 2.0361643038023964e+00
      7.1281173993502804e+00 4.7311799279203912e+00
      6.3483194496141049e-01 2.4083751019919846e+00
      -3.1454198815589138e+00 -1.1215072832653847e+01
      3.8658293689612044e+00 -4.2696302368690553e+00
      6.4969186321090513e+00 5.0387088632600747e+00
      3.0365724442288994e-01 5.0695779749767411e-01
      1.3624704987795684e+00 -1.9664116439803767e+00
      4.0782463751945031e+00 -3.4190074888856712e+00
      6.1938505991502453e+00 -3.9682028390224287e+00
      -3.9094139252454245e+00 4.1206734372279064e+00
      3.7016764832652047e+00 1.3505118045058158e+00
      6.5500891200829736e-01 1.7134555068080548e+00
      2.3741147370526821e+00 -2.7097854352763835e+00
      -3.8192752453546125e-01 2.3316765377516302e+00
      3.4815341916345979e+00 5.6519233078587954e+00
      -1.2945052417873879e+00 -5.4024809373148628e+00
      -4.2884701610968570e+00 -3.8565213878083298e+00
      1.4212341966825786e+00 3.7201299347279035e+00
      -3.4587813572052378e-01 2.2468912791667761e+00
      4.1464769986895691e+00 -4.2110500936693773e+00
      9.7985071244733446e-01 -4.6491530995741890e+00
      2.6489488179206639e+00 -3.0718508118383641e+00
      3.3479200137968017e+00 -4.1490098362673828e+00
      3.8263329741757524e+00 -1.7178614097564113e+00
      1.2585317508329539e+00 7.0740730685086559e+00
      -1.4243543951296744e+00 2.8505528518320982e+00
      1.6367914934877772e+00 -6.6965653083903849e+00
      -7.3272829804555588e+00 5.4402162109384689e+00
      1.5783964959493546e+00 2.5832275412764414e+00
      4.1010861143221620e+00 1.0847583858644545e+00
      -1.6339293264223853e+00 6.7978579381321280e+00
      -9.4089319933385274e-01 -5.1972157071896490e+00
      -5.4096482172166471e+00 -1.0762082802111574e+00
      5.7162582452685298e+00 -2.7914105585451715e-01
      9.8233811741272270e-01 -4.5131828511811306e-01
      -3.8460370420568872e+00 -2.1600346790571345e+00
      -5.2165511944443619e+00 -1.8709369527164328e+00
      1.9134907037432853e+00 5.7851497253575888e+00
      4.7313048919934158e+00 -1.6142341660175232e+00
      1.8094888611334199e+00 -2.5688650664285890e+00
      2.8599372371395866e+00 -3.6074102336469673e+00
      -4.7310330946363353e+00 -4.1988099901965814e+00
      -5.0842347956967764e+00 -1.0913581593601185e+00
      -2.3689542667504200e+00 -5.1453655216990217e+00
      5.4674236351421603e+00 6.4207493429063206e-02
      6.3922895642693123e-01 3.8696594419095978e+00
      -2.1853713321548724e+00 -1.9759827392139746e+00
      -7.5308773988929778e-01 3.6369393992962658e+00
      8.4040867343122394e-01 -2.9061824165036216e+00
      -4.1935368039354621e+00 8.4913647778526757e-01
      3.3771997382788599e+00 1.1862654036417388e+00
      1.4876736264202255e+00 -2.3083954709434238e+00
      -6.2085609510398021e-01 3.5876428706786090e+00
      8.1073210057573171e+00 -5.5040858961881378e-01
      -9.9033653577467828e-01 2.5951435072025086e+00
      4.9292647552092772e+00 1.0470373139839058e+00
      -3.2013165730852067e+00 3.9988981035502396e+00
      -4.1487560758529113e-01 -1.5651947877491292e+00
      5.6925899469337784e+00 -1.4836118061617094e+00
      -1.3877716114942327e+00 1.1277921482498503e+01
      -2.9489448181748212e+00 -2.3159511944363538e+00
      -1.8754998148435476e+00 2.7961604698496010e+00
      -1.3163227696317531e+01 -2.7057150791544431e+00
      -2.9524736804008680e+00 -1.8201603098085934e+00
      -4.4220319747958641e+00 5.2560393787821340e+00
      -3.0311915817501112e-01 8.7250878983468372e-01
      -2.4385044409795236e+00 1.9023019003670885e+00
      6.3252240355339273e+00 1.7052267887588703e+00
      2.1366788938932585e-01 2.6294328489224572e+00
      -3.0823561352671756e+00 3.1255131088570307e+00
      -8.2649523732464991e-01 3.8979042246797238e+00
      7.1865105279128028e-01 -2.1409521802195282e+00
      -7.8923512228864618e+00 1.5568476297919429e+00
      6.6362098187398222e-01 1.9522275269436713e+00
      2.2542767491344629e+00 -6.6328594842299615e-01
      2.2671206677366942e+00 -4.1459090424064318e+00
      1.8530223593214947e+00 5.0876417394904809e+00
      2.6815529321457925e+00 -9.5075990516379427e-01
      6.1858324176108700e-03 9.8347162423657108e-01
      1.0135924968149745e+00 1.3094879803247728e+01
      -2.8123107985529674e+00 -2.4154491974739334e+00
      -2.4831658891171586e+00 -1.1513724833239194e+00
      -7.7119046853010946e+00 -1.4381775954453366e+00
      -7.8368894076593758e+00 -1.1198427407434211e+00
      -1.2087713336127189e+01 7.7415541162941814e-01
      1.0992574810174391e-01 2.0039800566177293e-01
      6.0189444087416846e-02 1.1971695751856535e+00
      1.7678616236020135e+00 1.9257974422400930e+00
      -4.9566474939116771e+00 3.3596040668626741e+00
      -3.6751521102450684e+00 6.5700455049693431e+00
      -2.8976895366062467e+00 -2.8154561986425928e+00
      2.8128451409691886e+00 -8.5081595180416336e+00
      -1.7341909524294143e+00 9.6512504556253931e-01
      6.5943188123275283e+00 -2.7679340513599504e-01
      5.1121492057177065e+00 3.0390305431705049e+00
      3.0361978120707125e+00 -3.8670734969375200e+00
      6.4674227163063280e-01 -5.1782517448435845e+00
      5.1527974063440372e+00 1.2182853674269305e+00
      6.3734519144867097e+00 -6.3765552387248441e+00
      -1.3433267348898619e+00 5.0916329752784351e-01
      6.7771647137272160e+00 -1.8930771427644073e+00
      -4.3568285473125984e-01 1.2912212450086336e+00
      -4.1840676497186484e+00 -3.8320962543274117e-01
      2.9094152025028412e+00 -2.0098187741208364e+00
      -6.3422759848973724e+00 2.0991364208947689e+00
      -3.8927850376058271e-01 1.1666679470099924e+01
      4.6776414373267555e-01 -4.1328105188616632e-01
      -3.0291646343946548e+00 -7.3358480331075016e-01
      2.4854824603304335e+00 2.2344664900373004e+00
      -7.4734951559475640e+00 2.1732615196870722e+00
      -3.6056328849928150e+00 -4.2214670428809473e+00
      1.7175576680063509e+00 1.3065723805692331e-01
      -3.4574697971063592e-02 -2.2473447364234750e-01
      6.7041605689562633e+00 -2.8072446018592734e+00
      2.2815943302694159e+00 -6.2380844463829777e-01
      -3.1780521316559374e+00 -5.3379808374059410e+00
      -1.4298981793215284e+00 -1.3242175147755277e+00
      -5.8070566668504027e+00 6.9140219433781694e-02
      -2.9115133585702319e-01 -1.1636080921159595e+01
      2.7842096255353423e+00 3.3121367540071844e+00
      1.5207193650302941e+00 3.7301719838812702e-01
      2.7426195963132911e+00 5.6404806268316343e-01
      -3.8649280191290347e+00 -4.9221586349847986e+00
      3.5286554117762257e+00 -1.7383171543840668e+00
      5.0882322750949927e+00 4.3688713671157213e+00
      -2.3344313832584629e-01 5.7465466042401845e+00
      1.2831364033648573e+00 -2.0644410078762454e+00
      2.1562618329984415e+00 1.3583378665660073e-01
      -1.2226299240441512e+00 -9.8485072957440278e-01
      3.2156113285219736e+00 -2.6204455175152361e+00
      3.4187396871291114e+00 5.2069495968269330e-01
      -2.0320372867959056e+00 -3.7974401109249545e+00
      2.8973946325830227e+00 1.0463625909729120e+00
      1.3215801491381129e+01 2.7308619034184622e+00
      -1.0038079058961740e+00 -2.1033762130600850e+00
      9.2150730922868673e-01 1.8474721593014669e+00
      -6.0629897101743611e+00 6.3030990554033952e+00
      -4.9795705208167966e+00 -3.9622927384639297e+00
      2.6372603514138846e+00 -2.6143185601641563e+00
      2.7671014494177029e+00 1.4617548649802727e+00
      -5.0217746949227022e+00 7.3452572557141496e+00
      1.6487966840549912e+00 -1.1805845318161092e+00
      7.0398617909724193e+00 5.0346452955088594e+00
      7.0820787574655588e+00 -2.7621842206707452e+00
      5.8036974626914537e+00 -4.9202654612253234e+00
      -4.8844893407918355e-01 -1.9080443069773105e+00
      -6.8806582240705116e-01 3.5074676586483613e+00
      -4.8005399294039366e+00 -2.9734610618532300e+00
      -3.9525407875557828e+00 -1.3480318602677568e+00
      2.6468728300195696e+00 1.9740489267842694e+00
      -6.1467070599849913e+00 8.4635311640840882e+00
      1.8134469576833945e-01 -4.9420881768643982e-01
      5.9622106976394926e+00 5.4328757437295057e+00
      1.8689982229220625e+00 3.9321916470121092e+00
      -7.9362513633294087e+00 -1.0956382735511497e-01
      3.0501186893747589e+00 -3.2917539496919441e+00
      8.3520003048743630e-01 7.0689943949619884e+00
      -5.3953919001969544e+00 -3.7240877125863587e+00
      -4.5845779094520784e+00 -9.6273812829263932e+00
      6.9500172225356349e-01 1.1148543780002773e+00
      5.0327122728040141e-01 8.9491831966605973e-01
      4.2386628893814793e+00 7.9186133132708720e+00
      1.3154181200326973e+00 4.2226783445830094e+00
      1.0029833066446474e+00 -1.0223253072997498e+00
      -2.3468328386088655e+00 -3.4001743919967589e+00
      2.2606677618215112e-01 -8.4624771506358409e-01
      -8.1331092841108499e-01 -4.9102389922065076e-01
      -1.2933264348249913e+00 -3.7952572397697191e+00
      -1.3235280286649753e+00 -6.8823761573263873e+00
      5.7026785715094599e+00 -6.3997596066745936e+00
      -2.6838448985537569e+00 2.5306859436913727e+00
      3.8710931680135136e-01 -1.6676075791449445e+00
      -7.3341718652780026e+00 -1.0315876109491537e+00
      9.3519933470586647e-01 2.8435180054450266e+00
      -2.8650023877751525e+00 -2.7126890118667895e+00
      -2.5342662166420915e+00 -6.9596606195083872e+00
      -1.0328995777085372e-01 1.9622879982180155e+00
      -1.5144956404949994e+00 -5.5291812695775489e-01
      2.7716543366330373e+00 -7.7527794571990682e+00
      2.3411426275839218e+00 1.5736575527782590e+00
      -1.3056531345921747e+00 1.0658345762772021e+00
      2.0869069037409460e+00 3.2771443361111099e+00
      -2.6455541839666465e+00 8.6371891516700892e+00
      3.9855635901833775e-02 1.9681151683213913e-01
      -3.6251200011699463e+00 2.3786191716284788e-01
      -7.1734765310196891e-01 -5.0361669338340285e+00
      -6.7149834725779317e-02 -6.7362040280371172e-01
      -3.3227014192567364e-02 3.0449526782631386e-01
      1.9244767411998802e+00 -2.4894706315113475e+00
      5.8629528324084630e+00 -1.8032271650134899e+00
      -2.2943418003108156e+00 2.6419104687807913e+00
      -4.6290669530742852e+00 7.1360677498727276e-01
      -2.6886762542586733e+00 1.9754646387502046e+00
      -8.2421540830733464e-01 -1.9426369454775798e+00
      6.4393854049829347e-01 -2.4619006500827201e+00
      -1.4220923002809198e+00 -1.6974812831484150e+00
      2.6651571106529484e+00 1.8841483984458312e+00
      -2.6568401927221260e-02 -4.7055483027367879e+00
      -1.3218252648686133e+00 -5.9270762505199404e+00
      6.3430726450895078e-02 -2.6932652526873788e+00
      2.6313211495673836e+00 7.2768565411226032e+00
      8.4335232127253175e+00 1.9903808940396017e+00
      -3.7469896623435592e+00 4.1513934162520902e+00
      6.7087637127696498e+00 5.7820054140302739e+00
      5.1498510193279945e-01 1.4806167235869747e+00
      -1.9029473096440088e+00 7.1032221691239359e+00
      9.3311803866456444e-01 1.6591106926702073e+00
      -4.2901487794494173e+00 -3.7562089613602083e+00
      3.5055313280827183e+00 -1.1547757283532061e+00
      1.2752134997134040e-01 -4.0561768876608584e+00
      1.6228012327458255e-01 1.0045310367120162e+00
      3.2523632525983022e+00 1.0169073739606920e+00
      -5.7912911652337451e+00 3.2101392664372770e+00
      1.4243210153848334e+00 -7.8581068219281691e-01
      7.4356671775440528e+00 7.6093569194677899e+00
      2.3257424446456292e+00 5.3458460269377794e-01
      3.7601968634893921e+00 2.8282955376101118e+00
      4.4120395931824730e-01 8.3218757835695811e+00
      3.2456278490177892e+00 -3.4378467960548309e+00
      -4.7435088415214843e-01 9.3238418219549430e+00
      2.6587811898774252e+00 -2.3334841403601860e+00
      1.3189311123985046e+00 -2.0854199939100240e+00
      -7.3333787118966622e+00 -1.2121741428148192e+00
      -1.3786989650206303e+00 -2.9726849108761968e+00
      2.8432536417273777e+00 2.5004791447653854e+00
      -1.3941629367055057e+00 -3.9549311420502304e+00
      -7.0013866400888758e-01 -4.1712405069805198e+00
      -3.2726833557341104e+00 8.6033919927340499e+00
      6.9999834833552272e+00 1.1296388856273272e+00
      -1.0127420370523463e+01 5.2899238703949258e-01
      -5.6681962744318639e+00 1.4649671243032791e+00
      1.9207726171585346e+00 -4.3765720793267731e+00
      -4.3249054139907145e-01 2.8818797267552423e+00
      4.7397663590631522e-01 -4.6934982645496444e+00
      -2.8508194479429663e+00 1.1488197309728911e+00
      5.2394805981891501e+00 -5.5993728124420663e+00
      1.6902870975585937e+00 2.2437823689272953e+00
      -2.5300587899490865e+00 -1.1572185373778776e+00
      2.7217436128133490e+00 3.5728348544164730e+00
      -6.7387513365305365e+00 9.2780649035282607e+00
      -4.5401558357036560e+00 -3.1355928436675615e+00
      -1.9805930137898826e+00 7.0951502874853407e+00
      -3.0231202396303232e+00 1.3197155117498875e+00
      -1.8375949180137404e-02 1.4767928754419515e+00
      -4.4715793660395065e+00 1.9242284722659899e+00
      -9.6110688213340556e-01 -2.9521933521189214e+00
      -2.7335548662631681e+00 1.6130200561258716e+00
      3.8276672419036908e+00 2.6776301202082409e+00
      -1.2926822401336344e-01 1.0916031133850929e+01
      3.5281898143407375e-01 1.3506871838406505e+00
      -5.2690901221460482e+00 3.9314519584414570e-01
      6.8053339832835735e-01 5.8734423626065038e+00
      3.8720184488472422e+00 -3.0589507536834435e+00
      3.2581974774815445e+00 -2.5445145188960763e+00
      1.1834974695704703e+00 3.3705775906772231e+00
      4.9843672829888774e+00 -8.4496162038780831e+00
      4.1162559953918318e+00 4.2721687627016758e+00
      8.0051608401859653e+00 -8.7465159098988710e-01
      -8.7974558012205795e-01 4.6363383681662818e+00
      -3.0443973455447826e+00 1.4632446750579417e+01
      -6.9053192481791941e+00 -6.7640373848370974e+00
      -3.4752346194506014e+00 2.9825131826124043e+00
      2.5161352327630597e+00 -3.2355283497538161e+00
      -6.3541882237281273e+00 -2.9033735810088820e-03
      -1.3334193537819807e+01 -1.7746278419858574e+00
      -4.9098181486227860e-01 -1.2440538347001745e+01
      5.2813044856782676e-01 3.3534313775697147e+00
      5.5207902726197307e-02 1.3883220797340514e+00
      -4.5673110084725348e+00 8.5796993216484321e+00
      4.7018311998250555e+00 3.4784059642207774e+00
      -5.3295215595569934e+00 2.9186013930625019e+00
      -6.2236377707369472e-01 -3.4720365858069839e+00
      -5.9138374381797920e+00 -8.2345811929323869e+00
      1.2585311946944049e+01 1.5972999303007691e+00
      3.9864073255749783e+00 4.8810834440576336e+00
      1.2588563603106828e+00 3.4284446162425204e+00
      -2.7956172979870408e+00 -3.6403595283038550e+00
      9.6670946152718926e+00 -2.5178980138261982e+00
      7.2907645292184464e-01 -2.3788766035803907e-01
      -1.0367100508050942e+00 4.4024445839322937e+00
      -6.0042078325743364e-01 -3.7574724045085253e+00
      -7.3063233944905619e+00 2.0139094886300519e+00
      -2.9430095028870085e-01 6.6592434014187551e-01
      5.5821216064702810e+00 1.5137250138381328e+00
      -1.1255841065071886e+01 -4.5548431511123572e-01
      -4.5572531322316728e-01 1.7521227441544418e+00
      3.3251798988522805e+00 9.1247730601968813e-01
      -2.8619674157969999e+00 3.4230571504728622e+00
      -9.2420398368029588e-01 5.3250680764184288e+00
      3.5873354467926055e+00 -5.1276168691591295e-01
      5.8919716954873795e+00 -8.5414542480213029e-01
      6.7064350794127163e+00 -9.6098681653776152e-01
      -6.2574354882658119e+00 -2.5838298004354372e+00
      1.2192771060349367e+01 -1.5881197395105620e+00
      5.8988331285330045e+00 5.3547021764493747e+00
      -2.5638824162374152e+00 4.7094707360837820e+00
      5.7044758338466375e+00 -1.6167474510421413e+00
      -9.2452926248164236e+00 -3.7967080217888767e+00
      -1.0581265113178388e+01 1.5586660792860547e+00
      3.3514716256933919e+00 -7.0176923723358708e-01
      7.9644788327456173e-01 -1.7446902586358732e+00
      -3.6479692810754103e+00 3.0030213608959394e-01
      7.8084509152586747e+00 1.4768802324301070e-01
      1.0542326993352159e+01 -1.7990003947388775e+00
      3.9160735546699845e+00 -6.0665631963994854e-02
      1.4242545352258771e+00 -3.4383059422524904e+00
      -3.0748111225517318e+00 3.6522512736495072e+00
      -1.7954688344693739e-01 4.7308689662364154e+00
      6.6324563624073918e-01 -8.1718517897531551e-01
      8.1767329385947605e+00 -4.9023596537194329e+00
      -6.4557302768795486e+00 -4.6408173773446943e+00
      -6.3958025416599824e+00 -2.1157037525175633e+00
      5.2579717079123844e-01 -6.2133894637657443e+00
      5.2874786507427034e+00 2.3856870015259393e+00
      1.2492949898847529e+01 -3.1823448413146931e+00
      -2.9298160486801134e-01 -2.9169593507198912e+00
      7.5811411455036462e+00 5.3083867872689738e-01
      -5.9388363032075571e+00 2.3062187355953312e+00
      -7.3139339834374786e+00 5.7752168802089154e-01
      -6.0558412774636521e+00 4.0499419159266852e+00
      1.1716445132677688e+01 -1.9030985781325187e+00
      -4.0766320805000511e+00 -2.2305961445354034e+00
      1.3175268979539313e+01 -6.0928536938754245e+00
      7.7857011715167470e+00 6.3359012633756819e+00
      1.4749127886247253e+01 2.8730489821551517e+00
      5.2236095517713532e-01 2.1370730612635329e+00
      2.2785282634482384e+00 4.7616183724637628e-01
      -8.2842610002835197e+00 2.8943214040152481e+00
      1.4727398668224667e+00 -1.3889270973417567e+00
      9.7275937706940816e+00 -7.2343904949171209e+00
      -1.3668776599221747e+01 2.9338024502646345e+00
      1.4213794274562708e+00 9.4837616994696838e-01
      1.0395228615496155e+01 -9.1772998849226131e+00
      2.4962981806731395e+00 -7.3326777194705084e+00
      -1.5704893445956229e+00 -6.7029904135782843e+00
      7.4362740159601719e+00 4.2058504186428722e+00
      4.5002465930138911e+00 1.2274832383399712e+01
      -7.1179775897395690e+00 -2.8245541593170871e+00
      -3.4218474153702982e+00 -8.4912474760810941e+00
      1.8373176789000001e+00 5.4669242681879293e+00
      4.0514664177945958e+00 -9.4846392986744252e+00
      2.5270783014449818e+00 5.6775106662458497e-01
      7.8029489390045681e+00 3.2404734048491903e+00
      -5.2967261159865258e+00 -3.1775816466419187e+00
      8.9230120081667952e+00 7.1930789470444256e-01
      -3.7407537975699692e-02 3.4884177551579237e-01
      -8.5533821354694040e-01 2.3152511905732598e+00
      2.7333045699489991e+00 -3.5565464469019031e-01
      3.3012810698306732e+00 4.3057634554911246e+00
      1.1656984706189164e+01 6.5451617632832457e+00
      4.6000023704399640e-01 9.8738274698392772e+00
      -1.2564061426161304e+00 -2.3654329288973592e+00
      1.2157919618648778e+01 -2.1972558741300263e+00
      -8.4758998846304401e+00 -7.1047569739232399e+00
      -5.1710049739495041e+00 -8.0887074577929514e+00
      9.6584378210656618e-01 1.3021546213659301e+00
      -1.8544670269667832e-02 9.9647545906518431e+00
      2.1438929795527341e-02 -3.0923871980361120e+00
      -6.4806384990107513e-01 2.0326418969075291e+00
      2.2443432268253889e+00 6.3403713192925704e+00
      -4.8619431670700548e+00 -1.6109725603737097e+00
      4.6144009312816507e+00 9.1562362133238440e-01
      4.8600613288422423e+00 4.6298461447731079e+00
      -9.3211545189462779e+00 -7.6535357266548516e+00
      -4.5148879735296834e+00 -9.7371182542250843e+00
      -5.6698409400687697e-02 1.2227368435767521e+00
      -1.0098431588981565e+00 -9.9095388790763961e-02
      1.0105261862207897e+00 -8.8327026119785881e+00
      -3.4746413047203245e-01 9.7433395088897861e+00
      9.5977591871958250e+00 -1.0280627084183196e+00
      2.1967822256452800e+00 1.2700478486788105e+00
      -1.6984995461905787e+00 -5.0870313891988364e+00
      4.9787447697245977e+00 -1.0846024393337228e+00
      -9.1991808469289023e+00 -2.1714840796559973e+00
      1.5381090259062458e-01 -3.3223463883109212e+00
      2.2392455383940901e+00 -5.0299966186424525e+00
      -4.3712013071198417e+00 7.5606199663047331e+00
      9.7900058774329359e+00 -2.3035926369212753e-01
      -1.0862654062867725e+00 5.4021585076280356e+00
      4.4119495792543029e-01 -2.7150446397730249e-01
      -2.2434194126788637e-01 -4.7750605452681905e+00
      -1.7512788532483692e+00 2.6443379281278592e+00
      2.2495289740144409e+00 5.1144623571938430e+00
      -3.1509110320239468e+00 -6.6321699522961879e+00
      -2.2559835796300809e+00 -2.9439045595150826e+00
      -6.3556896221951442e-01 -1.6314001328518477e+00
      -1.6131133681109120e+00 1.6385293209727259e+00
      2.7269190622326369e+00 -3.5712628048175841e+00
      3.1347384986367142e+00 4.5499122419259166e+00
      7.6984776648191211e+00 4.8680892766172672e+00
      2.0232525429408836e+00 -1.2262878860427160e+00
      3.7136942902757046e+00 -3.7362458145118813e+00
      -1.5527912905249239e+00 5.0546368429365298e+00
      1.5536822901366409e+00 -2.9832413106583826e+00
      -1.4475028985150378e+00 -2.2235697406077208e+00
      2.1851307321575679e+00 -4.5185877954989900e-01
      -2.0349777460814416e+00 -1.1261868063694611e+00
      -1.0266547368117850e-01 8.8951855034102678e+00
      -4.5196791370540215e+00 1.3265235877912334e+00
      5.1309976829827098e-01 -4.4423270201810556e+00
      -8.6058393085307361e-01 3.1878620460064937e+00
      4.2648876371375302e+00 -3.3672971442880473e-01
      -3.1694936606815052e+00 -1.1960615610997776e+00
      -6.1272450374722993e+00 5.3332524975350442e+00
      1.0380561805286201e+00 -5.9482578139572544e+00
      -2.6414159852179200e+00 1.1719983490783481e+00
      -6.3890149056773493e-01 5.5556301319527597e+00
      -1.2196442584605105e+00 -4.1079859944027675e+00
      2.8478313200746572e+00 2.3646254543360032e+00
      1.1230896023826917e+00 -9.1281344452266300e+00
      2.4183745067281381e+00 -8.9490259611439649e-01
      3.6398550402700081e+00 -4.0906021641904307e+00
      1.9095888556460514e+00 5.7423380242854023e+00
      -4.4632602930076413e+00 -1.5880052957131812e+00
      7.3563978065532982e+00 5.1905395453665699e+00
      1.8370466752790513e+00 -2.6878083801912549e+00
      -2.1357411231102192e+00 -7.1606734545405212e-02
      -2.4155833889367093e+00 2.3746419672557190e-01
      -2.4533010439486000e+00 5.1811646847673485e+00
      4.2007735466155225e+00 1.0202672582063681e+01
      3.5224098968891120e+00 -5.4242859809193380e+00
      -8.9733804642873882e-01 -4.7231994993901294e-01
      5.0115927970735878e+00 -4.3886113393709296e+00
      -3.8986038497471678e+00 -3.8826468600611967e+00
      -3.2041264353451502e+00 4.7919479857879628e+00
      -2.1756467941973558e+00 1.6860950744795403e-01
      -1.5957653858839909e+00 6.1884649528709552e+00
      -3.9923543246148929e+00 7.9961187288989874e+00
      9.4259917193624272e+00 9.2560982957519524e+00
      4.7936928094487413e-01 -5.2280826965980527e+00
      -1.1520019934864154e+00 -2.2910153554556030e+00
      3.9702160663759062e-01 2.8673312861717215e+00
      -4.3793220798535861e+00 -5.1227996810236922e+00
      6.2561997213902361e+00 -2.8023204901443077e+00
      1.8929478834005189e+00 -3.9363353986204114e-01
      1.0909355683169608e+00 -9.2456366212548957e-01
      8.0841939630105308e-01 2.1527526549751497e+00
      1.3810474111957221e+00 -3.2624615094834546e+00
      2.9003737026487659e+00 2.8673145221568057e+00
      -3.0266281757310041e+00 1.1993403270363210e+01
      2.5268500681789052e+00 -4.0023777085356560e+00
      3.8008985217386684e+00 -5.0904569783523215e+00
      2.5204539129048324e+00 3.5639485169500218e-01
      -3.0097691527857244e+00 1.3902336669861717e+00
      -4.7569780659388972e+00 4.1121618329989937e-02
      -3.2333076724598664e-01 -4.5221283964846117e+00
      1.3855756319224466e+00 -2.8833994287172411e+00
      -2.7506638665941279e+00 -2.5703300436001220e+00
      -2.1902327832540758e+00 2.6970347928974121e+00
      -1.6340473901684255e-01 2.1380624299475348e-01
      1.3735659761713930e+00 3.3940372598579174e+00
      2.1101682566033126e+00 -9.9011553092715610e-01
      -1.1994619368130582e+01 -1.5943734913464217e+01
      8.6573396341504534e+00 -2.7838339198566633e+00
      -3.9298390665497891e+00 -1.9623021195795052e+00
      -2.1691751451841155e+00 -1.5392750581868813e+00
      6.4337364128142804e-01 -6.1702188224848218e+00
      2.6961566417850640e+00 -3.1471269286448544e+00
      3.7408218806404925e+00 3.5423412113774320e+00
      1.7546303480577843e+00 -2.2439841631913993e+00
      -1.4977621409227690e+00 -2.7909511560670905e+00
      6.5731119614303184e+00 1.8973145188091858e+00
      9.0389541440163192e+00 7.0287204734502584e+00
      4.0073500884762464e-01 -3.1761462632050486e+00
      -3.4355172844988626e+00 1.5069509156643250e+00
      -4.4355432553473559e-02 -3.3465645859308557e+00
      2.9520825073137007e+00 -1.6664663767120267e+00
      -2.6491727574656072e+00 -4.0760262650245283e+00
      -1.6948030793899096e+00 -1.1926741196726993e+00
      5.2598591877846133e+00 -2.4221684838201165e+00
      3.0747957334872908e+00 -7.5875849603126051e+00
      -2.6142853523144653e+00 -1.2062911989222271e+00
      -1.0410755943746068e+01 -9.1632775859486806e+00
      1.0552324972758402e+01 -4.5135779589306164e+00
      1.5346926516254706e+00 -3.3131725620999397e+00
      -4.5786948558493501e+00 5.9372403351080152e+00
      4.8727080279135665e-01 -3.9105924419004401e-01
      1.2342885459124171e+00 -4.9859255960825326e+00
      1.5268275123777189e+00 2.3288993228253183e+00
      -2.2218978339035362e+00 4.3404720388007325e+00
      -7.5313108865861222e+00 -4.2597873584660295e+00
      5.2581347096768960e+00 8.0275400727523056e+00
      1.1359504981754700e+01 6.1851080337625293e+00
      4.8309748202024601e+00 -3.5205255857665080e-01
      3.0307993803101243e+00 -7.8325726088971015e-01
      -3.4817151216626846e-01 7.2893429503909530e+00
      4.4876637380251119e-02 3.7301903721734808e+00
      1.7041159014989422e+00 -5.8404007761998367e+00
      3.5204696080760050e+00 3.2447819620444157e-01
      7.5249837385503167e+00 -6.2179868887932317e+00
      2.1530415434732011e+00 4.7329595389475347e+00
      2.2884474362835387e+00 -2.0902263122777192e+00
      -8.4215742662193949e-01 2.9851589815882837e+00
      5.7211440105048146e+00 -1.5395105283055885e+00
      3.1219817174075581e+00 4.2036411729669210e+00
      2.4940595577623847e-01 1.0311059945873169e+00
      9.7533238824985172e-02 3.3870577088492526e-01
      6.2274696392967348e+00 -7.7488120414579909e+00
      -4.1444753640504208e+00 4.4543538605927600e+00
      -1.7492274737538007e+00 1.8041024232969889e+00
      5.0261717231395560e+00 3.3237598622743123e+00
      -5.9918349628530876e-01 1.1460236173236464e+00
      1.4898131663420981e+01 -3.3761742405403301e+00
      1.2584390846846459e+01 4.1964158877453057e+00
      1.5739776753841157e+01 -1.1613116721300099e+01
      -5.4025507786325568e-02 8.7325119359428012e+00
      1.5687083396359534e+00 9.2506382638519771e+00
      2.0327195699054799e+00 -6.0502828979152117e+00
      1.9138182576710450e+00 1.3094764632672311e+01
      2.2552735894790481e+00 -7.0779797954674200e+00
      1.3625070994354003e+00 -1.4160985417102128e+00
      6.1246810288366165e+00 -2.2938280294979401e+00
      3.7943037855543889e+00 8.4362124266458185e+00
      -4.4508524751098495e+00 -2.6287498145785513e+00
      -3.1459925227888186e+00 1.8942290634079486e+00
      -4.7273182650837819e+00 1.1967693539170308e+00
      5.0438286025524866e+00 -2.4259362689260708e+00
      -4.1673781927673614e+00 3.9211306542459963e+00
      -2.8958041236164278e+00 1.2896055925431800e+00
      -4.9218405734708961e+00 5.6762750789466150e+00
      6.6555160313932458e+00 3.5031026303391666e-01
      -3.4090951331953221e+00 -5.5965061672466121e-01
      6.3879002191502039e+00 -1.0046170953274734e+01
      2.7245678314211847e+00 -1.2573423805524768e+00
      1.0613039226674070e+01 -1.1625726036049000e+01
      7.4785901572301949e-01 3.5683703390280628e+00
      2.5598471892518426e+00 4.3045930527731153e+00
      -2.3068104325591330e+00 -1.3467289021768101e+00
      4.8086575243101457e+00 -2.4326985469644952e-01
      -1.9358938756255781e+00 -9.7156081008542632e+00
      -7.1014119617890756e+00 1.4111380591423392e-01
      -5.5573008105508075e+00 -4.1638214270225384e-02
      1.7398506179622537e+01 -1.2213081235832325e+01
      -5.4093683984632817e+00 6.5756644948707055e-01
      -1.1258160123227054e+01 -2.9600503013048463e+00
      1.6206917342310634e+00 -8.7427402982146400e+00
      2.3349389746925060e+00 -6.1477274223479670e+00
      -7.3421712710660136e+00 7.5179885951713397e+00
      8.9831490489382326e-01 5.1917936128396862e+00
      -4.2079305438947996e+00 3.4569429933316645e-02
      4.0702847439480587e+00 -8.1275127442840063e+00
      1.0055636993818624e+00 4.7360397849342313e+00
      2.5372151723613641e+00 -9.2148493509662852e-02
      -8.3329747445683555e+00 5.0582866086845293e+00
      9.4155598321504030e-01 5.6883097987218338e+00
      5.0989080466449155e-01 8.3285215652112754e+00
      -4.6821631572473582e-01 -4.0462835866424793e+00
      4.6210389218269743e+00 1.0185671353916119e+01
      2.3350558790021121e+00 2.8062005389651707e+00
      1.1176401373853297e+01 4.6093540756102493e+00
      8.6339721725541674e-01 -7.9096670978058112e+00
      4.0577982794991962e+00 5.0148530791027364e+00
      7.6070385386601806e+00 -1.6728418500010743e+01
      -2.6368481135779804e+00 -4.7355272604524838e+00
      -3.3837048916660009e+00 -3.3008417878243929e-01
      1.6811236796903470e+00 2.7777667904964454e+00
      5.6296444069287146e+00 -2.1629662561552543e+00
      -1.1742012676233220e+01 -3.4575532868279133e+00
      8.2483778968548780e+00 6.6719649782835369e+00
      3.5660043737514040e+00 -7.5280434727554253e+00
      5.1036445659917096e+00 -1.1230343477676413e+01
      3.0187468101502346e-01 -8.7337600657750514e-01
      3.3933211914354522e+00 -1.0049744070473936e+01
      -9.2588032989749998e+00 2.7587878341883014e+00
      3.0103142839705019e+00 5.9962872871214961e+00
      5.2578726028450795e-01 9.8635306205746573e+00
      2.8268918472018347e+00 -2.7240162805876567e-01
      3.5099937920084119e+00 8.7612304767997635e+00
      1.8689362386787307e+00 1.4642224340866070e+00
      1.2429685619751291e+01 1.2939407070563755e+01
      1.0220550712511296e+00 1.9772188895647465e+00
      8.0790437597402676e+00 2.6016879011366814e+00
      -3.4942686717723639e+00 -6.8135932045593819e+00
      2.1012683088119664e+00 5.6521997094360739e+00
      3.9769182662092573e+00 -2.6293794986965371e+00
      1.1521817178037179e+00 -1.7894506009463045e+00
      4.6552844507119084e-01 -3.4776092797905971e+00
      -7.3509962346734525e+00 -5.6279941976387571e+00
      5.0620275523050617e+00 -1.3241970315611942e+00
      2.6745696378418446e+00 -3.4658977227583185e+00
      1.6912960858132100e+00 -2.5587189960465451e+00
      -3.5605352094911629e+00 1.7296488153215326e+00
      8.7437208514798526e-01 -1.8335830827031310e+00
      -4.5314587546514709e+00 1.1890290022273393e+00
      1.5347622340512499e+00 -1.5403576282960625e+00
      7.5897914124342503e-01 2.1868572799530965e+00
      9.0285774595170452e+00 2.8733682440485881e+00
      1.3781496801335680e-01 -8.1188073996758909e+00
      3.0201951229365473e+00 3.6891690054889152e+00
      4.8191844238391282e+00 7.3996581526993666e+00
      2.6061172590920906e-01 9.4091059659556420e-01
      4.0480751390482252e+00 -3.1940683644423147e+00
      4.4646350727933687e-01 -4.1755436016382088e+00
      2.5704041364718391e+00 4.7055363261819547e+00
      -4.9985786362056679e+00 3.7237294288286776e-01
      1.1945954925518671e+00 -6.9410959649840165e-01
      2.2488525809467661e+00 4.2113195849194618e+00
      -1.9357474230897798e+00 -4.4824549632580988e+00
      8.0750999048827377e-02 1.8760021040310206e+00
      -4.2232239896621204e-01 -3.1924132148362774e+00
      2.0361978054776211e+00 -4.3605259033786270e+00
      -3.5095955898642801e+00 -9.5547120813868214e-01
      -1.2986279270731726e+00 -1.9557302722602588e+00
      -3.5168850158833559e-02 -4.9335431489271366e+00
      -3.6005086183625736e+00 8.4688544151893930e-01
      -1.8859773238101913e+00 5.4834401009904523e+00
      -3.7373466160802726e-02 2.2827117711725085e+00
      2.2183565794130331e+00 -1.9402720353231080e+00
      -3.5765889751075677e+00 2.9556190356165701e-01
      2.6083389362406697e+00 2.1829817817501698e+00
      -1.6610045019797595e+00 7.7767458412775134e+00
      1.3277684166038668e+00 -9.1239197404436131e-02
      -1.1616663191546468e+00 4.3063866313910033e+00
      8.3539198847442879e+00 -4.6105475059906960e+00
      1.1904414682570028e+00 2.1499649550132274e+00
      3.5142396470791928e+00 -3.0286959864995850e+00
      8.4031288085495659e-01 -4.5758304404338928e+00
      1.7522188137149499e+00 -6.4100735014119579e+00
      1.8028049765185810e+00 -1.8491664523341058e+00
      -2.5875812360551871e+00 -2.2572615043145939e-02
      8.6463542263212840e+00 -3.1461483740694169e+00
      2.9857006292610224e+00 -1.9309032967533499e+00
      4.1373101808746409e+00 -2.5304898992486060e+00
      5.1082023897946183e+00 4.9410023172322332e-01
      1.9859631006664185e+00 2.6297391590441173e+00
      -2.2898760458457059e+00 -2.9816717266116819e+00
      -2.0433549044798518e+00 -2.2936881366970741e+00
      -6.9093359420823619e+00 2.0032071528627067e+00
      1.0009801932023267e+01 6.1767523395704982e-01
      5.3536313846593151e+00 -5.6515884531384089e+00
      -1.6504585371501361e+00 3.1596176258301423e+00
      -1.0031382542160887e+00 3.3976315527811018e+00
      -5.6323933223532512e+00 -6.0845673164619765e+00
      5.5297154061104177e+00 3.0644399473975015e-01
      -7.9374146625117048e-01 1.6833314093706392e-01
      -2.8551565497156828e+00 -3.4777160896097342e-01
      -6.0282684415471346e-03 -2.4151071842236109e+00
      7.2876797638118092e+00 -1.2002884639569263e+01
      3.8393079831560413e+00 -1.5037782606079537e+00
      3.7868599926466944e+00 2.4265474215182845e+00
      1.5196242955867096e+00 2.0505868976519954e+00
      7.0237037884637514e+00 -1.6012895285322404e+00
      8.5150703046885159e+00 3.1130887637415352e+00
      2.7457962201396784e+00 5.3030969034388764e-01
      2.9208620789580753e+00 -3.1251457871708244e+00
      1.6645847080556811e-01 2.6484783971171250e-01
      1.5588686651342099e+00 -1.9049941645684880e+00
      1.0294411291973389e+00 -8.8968558777622864e-01
      3.0110498160397547e-01 2.3305806185570335e+00
      3.1165402814085148e+00 4.6216336965901368e+00
      -1.0453910736314260e+00 -7.0471551236272412e-01
      -2.8137558437284103e+00 2.6613453787041861e+00
      -1.0155136445819252e+01 -7.1332495136762306e+00
      5.7811177630935964e+00 9.3590092658548691e+00
      1.0988147470069849e+00 -1.0550028309862889e+00
      -1.0212974881274926e+01 1.7771113951617401e-01
      -4.0582192978290088e+00 -1.9278042111727025e+00
      -1.8891072453705116e+00 -9.1722843689819342e+00
      -4.0050935594989436e+00 2.8257584476357671e+00
      6.5371523998976686e+00 3.1786836302660539e+00
      -4.1550139198894600e+00 5.9506499195264322e+00
      4.4742654532610326e-01 -4.1366016292567642e-01
      9.4133269627718619e+00 3.1040908786156662e+00
      3.2755527089089154e+00 4.0145509166183944e+00
      1.1857583278856094e+01 -4.5480337298398421e-03
      -1.0393554498964797e-01 1.1990681207508958e+01
      -6.8262231924231132e-01 -5.2002156421192902e+00
      -6.8637991273622490e+00 5.3494006788433479e-01
      2.5586256535661276e+00 4.3495027546429839e+00
      -5.2381341823104535e+00 2.0620548167713464e+00
      1.8781040789605068e+00 7.2726288067552858e-01
      -9.5270285898214908e+00 7.4964673162622910e+00
      -2.0678187717915355e+00 1.7730348620016050e+00
      1.2031616103542691e+01 3.2792683816431114e+00
      -9.9790883374880561e+00 2.1245985093181341e+00
      -8.0644118687045481e+00 -1.0587663009268004e+01
      -1.3966618959981969e+00 2.4249428259027246e+00
      -4.7984387128353063e+00 -7.3534938707748987e+00
      -2.3345152603588808e+00 4.0652372580773983e+00
      1.9215329792913520e+00 -1.1008761031845907e+01
      -1.0525809074693766e+01 5.0370203907682836e+00
      7.4323218367226556e+00 3.6665264454674995e+00
      -7.2100758669004632e+00 -6.4690884228226797e-01
      4.0415482682492145e+00 3.9740151454100564e-01
      3.3726053838329646e+00 5.9069765737641644e+00
      -4.3899214213838600e-01 5.1707608689198015e+00
      2.0470804313059521e+00 -3.1549489646848370e+00
      9.0338249508446189e-01 -5.4321306398477969e+00
      5.9531400973972171e-01 8.0508506554083237e+00
      2.7689109444574109e+00 9.0012484985851540e+00
      7.1143993904384928e-01 -2.7793271021106296e+00
      3.7814695451649385e+00 -1.1562078589648388e+00
      5.3220049864149432e+00 -1.5159564417903968e+00
      -1.5020846117251589e+00 -3.1560339943425486e+00
      -9.2261163709156939e+00 -1.7948230643332435e-02
      -3.7227588835294401e-01 -1.3711250748467915e+01
      -4.5320298196626724e-02 -1.9634112191315021e+00
      8.3867718444843415e+00 3.2344322226469622e+00
      1.6196800974966177e+00 3.6612544653418317e+00
      7.4631565086024159e+00 -7.9526036140753300e+00
      -2.5164219799515308e+00 8.5809208152599070e-01
      3.0843060470964065e+00 -7.1541121045543434e+00
      -8.9579151977399949e+00 -8.8944972310806687e+00
      3.9505616464103883e+00 1.0665311711444035e+01
      1.3062665027131644e+01 -2.3343910519701776e+00
      -3.0848207980802678e-01 4.9619449930596166e-01
      2.3796581898287616e+00 -1.5792885637638949e+00
      1.2863043461591432e+00 -1.6270919317588133e+00
      3.5673860948933673e+00 4.1385736303852294e+00
      1.2298711116983152e+00 2.7184630564262884e+00
      3.3092997457786044e+00 3.5102941898474778e+00
      2.3086075956631578e+00 3.9691728381382428e-02
      1.2293912636230901e+01 -5.8503503911623711e-01
      -7.9180126708761902e+00 -2.5922213107466563e+00
      -7.1130492751314884e+00 1.1367760899450680e-01
      -2.6062016949478077e+00 -4.4007823140419537e+00
      -3.1954920274968504e+00 -2.5544467646483517e+00
      1.5981428410527228e+01 1.6512803299138474e+00
      2.9141913912135187e+00 -2.3239066936959261e+00
      6.9697225157031895e-01 -2.4339163695964010e+00
      3.8937692814639284e+00 1.0641761765378339e+00
      -1.1883571999178011e+00 -1.6762572956213069e+00
      -8.2004455094857986e-01 -1.1817554835022323e+01
      -5.4550660758898140e+00 -8.7528432480204454e+00
      -7.5116226117155960e-01 -8.0730952623003009e+00
      -2.2871307478914596e-01 4.4862044935943173e+00
      9.0192476878172823e-01 6.5731826780020394e-03
      -3.7656034456596182e-01 -2.8757826921447553e+00
      1.5118424806431688e-01 -2.3484574165572369e+00
      -5.8434578099742955e+00 1.1430855313547934e+01
      -1.8586179446514748e+00 -2.3592565344827965e+00
      -1.5283966776734090e+00 6.9122679456796088e-01
      1.4366562987669356e+01 -3.6893141913251410e+00
      -1.3181896805232514e+01 6.9255134730977828e+00
      3.1229742989017599e+00 -1.1593010834903297e+00
      1.6728603859253142e+00 -6.3101644861304562e+00
      1.0519033257401051e+00 -5.9353395452177304e+00
      1.8759157229553913e+00 5.8520550396361921e+00
      -5.9871022044403061e-02 9.8057965798647850e-01
      -5.0930421217820596e+00 4.5824387770139907e+00
      8.5071136680263815e-01 -1.8527407301780402e-01
      -5.8586051365026757e+00 1.3990054940061780e+00
      4.5248356883873910e+00 -2.6337489089954844e+00
      -6.7456668233051449e+00 -2.9288102421667301e+00
      -5.4488562589181744e-01 5.4186380040764641e+00
      -7.1722146996010316e-01 2.3165069374310190e+00
      1.0853018796151941e+00 -4.9693565642385531e+00
      8.2950657881021228e-01 -3.3026885208233399e+00
      -9.2987496747921061e-01 -1.1767231511856147e+00
      -5.2897773547083498e+00 1.4831527300478964e+01
      1.9194536184932312e+00 -4.4139993384845910e+00
      2.4843517173410534e+00 2.9053633970346255e+00
      -1.2320666197616147e-01 -1.2369399305055458e+01
      -1.7231180534437524e+01 7.6676704901290602e+00
      1.8120959427212031e+00 2.8846183258634932e+00
      3.7744297595372469e+00 -6.6591446190502861e+00
      -2.1217294054224429e+00 -7.3165491774633988e+00
      -8.3272467280968918e+00 4.2349214603121546e+00
      -7.7063901717125252e-02 -1.3800434093069296e+00
      4.0880076381684194e-01 1.0900463916440080e+01
      -6.3179504006259393e+00 2.0293029788147101e+00
      -4.4740230683132065e+00 -1.0315821230428044e+00
      4.4067826755346644e+00 -2.0547908535061867e+00
      -7.9176368595790354e+00 7.1126292359414238e+00
      5.0530148791677665e-01 7.8392658482064759e+00
      -6.5531093721792655e-01 -1.8563031092326157e+00
      -5.1042067810280498e+00 -4.2127426717014442e+00
      -2.6677656207260765e+00 6.2269927901717743e+00
      -2.1041334479573952e+00 3.1238806060587425e+00
      -1.8295763940469061e+00 9.1718574224754068e+00
      5.0713252423079702e-01 -5.4707657571939308e+00
      4.7789895056792968e+00 9.8884454042717618e+00
      -4.3577121464176587e+00 -5.6458820984873481e-02
      3.4185516023982916e+00 2.8194173407304928e+00
      2.9313220431898146e+00 5.3573929407690954e+00
      5.2736236355156807e+00 -1.5398931015621187e+00
      3.9699938062592675e+00 -3.7040615252044091e+00
      -7.4218198815127545e+00 4.2525022672753483e+00
      1.3805970655028446e+00 1.6347058946670834e+00
      1.7371714132104523e+00 2.5913215765972168e+00
      -5.9171257312090875e+00 3.9454305518040622e-01
      5.3861016311598577e+00 1.7271585337694859e+00
      6.5425642265765545e+00 1.0864533113490835e+00
      -3.1957290217697898e-01 3.9591615773854505e+00
      3.8824866532041300e+00 2.3964780655064573e+00
      -6.8379532013864930e-02 6.4835557153872536e-01
      4.3202297908400977e+00 -3.0882656933946455e+00
      -2.0927556582187532e+00 -6.9228085089895117e+00
      -1.0154408635502705e+00 -3.8543561862107807e+00
      5.6997577630854879e-01 2.6011688588397952e+00
      -2.4314645110796622e+00 -7.5885868648700638e+00
      4.2401845038564767e+00 -1.7292276128315862e-01
      2.3090391782985300e+00 2.6131573260704899e+00
      1.2778651118940731e+00 1.1574751613885637e+00
      -1.2530056340623776e+00 1.0200153814149266e+00
      1.3320832530800901e+00 7.3750758916560677e-01
      4.3271195392419681e+00 -4.9250255238477090e+00
      -2.6194722031473359e+00 -3.4414123466852993e+00
      2.1977602444733058e+00 -8.1294322571705280e-01
      3.5497273567991710e+00 -2.8203513389925337e+00
      -4.1642459969589121e+00 -3.3938218990503919e+00
      -1.4992908858738667e+00 2.5363514296202432e+00
      4.6419081262723241e+00 -5.8280046898370796e-01
      -2.7055481582714815e+00 -1.2517403976939261e+00
      -3.7824591682593622e+00 2.3072504516872607e+00
      9.6920387929007668e-01 2.9011719285003466e+00
      1.9019117650796800e+00 8.2356649483598365e-01
      3.1819036164641354e+00 -1.6696415146853243e+00
      -7.0241327950849342e-01 2.1019459003936065e+00
      4.5193601086984039e+00 5.0480261099198547e+00
      3.8874333836245620e+00 1.5772926606781024e+00
      1.7076587338701110e+00 8.0215628802765326e-01
      -7.3337786206297393e+00 3.2082363568796781e+00
      -4.5417817719880436e+00 3.8961477069053427e+00
      -1.2735890463272712e-01 4.5030460137635586e+00
      2.1236264352298848e+00 1.9880967966577447e+00
      8.9937629633292035e-02 -2.9239401993295493e+00
      5.3984987425885285e+00 -3.8978195387597343e+00
      4.4727530076184427e+00 2.8161430774613678e+00
      -1.6399040715083282e+00 -6.1463957145678059e+00
      5.4087765026538275e+00 -5.8259477022703643e-01
      2.5926169607923608e+00 -6.3700334125096250e+00
      4.4972710985413027e+00 1.3969890953457897e+00
      1.7891723046808472e+00 -1.0567139106767180e+00
      9.4485721130385281e-02 8.2282325755475538e-01
      -5.0822129195908849e-01 -7.8270180537430276e+00
      6.3854756851845584e-01 -9.7534154644939708e+00
      -2.4051683457504366e-01 3.1071339125079405e+00
      2.9204091981723175e+00 1.1823669719924355e+01
      -2.0012642335290014e+00 1.1000503163013638e+01
      -1.9647008410332203e+00 4.4010043849533194e+00
      -1.7469822158063713e+00 7.4945547809777260e+00
      1.3861567733389388e+00 3.6937424684787290e+00
      -3.0513667829602165e-01 2.3735008004361267e+00
      8.0003799079661508e-01 2.3912155120517897e-01
      -4.9636340150300695e+00 -7.4658569558657781e+00
      -8.2443139475999434e+00 2.0524742134620577e-01
      6.9605655203704195e+00 2.3597743250576455e+00
      -6.8679676241832546e+00 -3.2872427491689589e+00
      2.2299346869479795e+00 -3.7840836660034936e+00
      1.1619205474560408e+00 4.6298727167431153e+00
      -2.7351599693853448e+00 3.5693556148534484e+00
      -3.1668178078097431e+00 3.7890855611279126e+00
      -2.0088438633486243e+00 -2.9375908424503745e+00
      4.5300355950174600e+00 3.8102288602215402e+00
      4.0539227206806405e-01 -1.2525995178658775e+00
      2.9173074190042341e+00 -7.1362210917794122e-01
      8.5895379447205666e-01 -2.5002023279314978e+00
      -6.7735252594752993e+00 8.8095592099995095e+00
      -1.0704226763721061e+00 6.7316812051230068e-01
      -1.7153969125826545e+00 7.1742056394758471e+00
      -7.5670761100107287e+00 1.0016724885764472e+01
      2.5063640467657295e+00 -3.1569283875351822e-01
      -6.8061059135737567e+00 2.0150726756233746e+00
      2.7683063752074446e+00 -3.1960359878774063e+00
      -2.5531880350929161e+00 -5.4666148251420026e+00
      -6.9564997514748717e+00 5.5103387846298082e+00
      3.6199329918405700e+00 2.9736162346382122e-01
      -4.1791000023558151e+00 -6.0057864530013170e+00
      -9.9533209614353446e-01 -1.4408125110851566e+01
      -4.1298995928979618e+00 4.2031236107081869e+00
      -3.8449707526662529e+00 1.8275779502525287e+00
      -1.2157068267195786e+01 1.6015095536286916e+00
      4.1086119942604888e+00 -1.0684853100670293e+00
      5.4636122402106126e+00 4.0116906089498441e+00
      1.3628069470487056e-01 3.0118740563702802e+00
      -1.9027370073038858e+00 -5.7262020033049641e+00
      -2.8479558374765550e+00 -2.2931565431969642e-01
      4.6803724893739336e+00 1.8823479800596079e+01
      -7.3711344989978855e-01 3.0200170016719747e+00
      -3.4327572664422310e+00 2.0987603372605754e+00
      -7.7645215780402607e-02 8.6987197498799400e+00
      3.6400978047415480e+00 -2.7070048989744504e+00
      -1.8824354349241659e+01 4.8253662149287280e+00
      -3.4834288863769274e+00 -1.1753830982985045e+00
      -1.4317527792510527e+00 -1.4011662200368688e+01
      -4.6253374263813318e-01 2.0323457146811790e+00
      1.6014747939691040e-01 -3.6428819726550157e+00
      -6.6143647252853492e+00 3.0602530923627755e+00
      -2.0175072426807801e+00 -3.1068722507174473e+00
      2.2627633928478802e-01 2.7086949381738172e+00
      -1.2682800013163977e+00 9.5077844532970357e-01
      -1.8116480438633086e+01 -1.7532622851548865e+00
      7.6985638199169970e-01 2.8516677167349380e+00
      -1.3863459172908958e+00 -3.0565918256699132e-01
      -1.9304885646714596e-02 -2.6320719864355460e+00
      -3.8825822022104570e+00 -7.4137441459690354e+00
      -3.3589203735913724e+00 2.6150950911930897e+00
      8.4458237047498201e+00 6.9000915510657981e+00
      -5.3918315910414387e+00 5.6704368660359892e+00
      -1.2659857127236593e+00 1.4344013287639770e+00
      5.5365411039593804e+00 2.5999972791328321e+00
      1.7617730735565267e+01 -2.3930250383376128e+00
      -2.2369026760286355e+00 -3.3110037055321904e+00
      -8.4614853021784313e+00 2.7713741816542452e+00
      -2.5834330217204022e+00 -9.0081191149943312e+00
      -2.9030927267516771e+00 3.3963886256494802e+00
      -1.0107635845723079e-01 -1.2406244009171903e+00
      -3.8887023269617589e+00 7.0764581429468549e+00
      -3.9501953737313455e-01 -7.0778088261041514e+00
      -2.8535320744214303e+00 -3.9851051976611860e+00
      -3.8481267011962944e-01 -6.7897144925789221e-01
      -1.0450512875387863e+01 -1.7463787282955467e+00
      2.5793876825980838e-01 -3.8846786015897026e+00
      -1.3599098727987113e-01 4.2361211525413580e+00
      -9.4594814187719978e-01 -1.4468359922599571e+01
      -1.0279911936375545e+00 -2.5288226813799710e+00
      -3.0859143525916748e+00 -1.0888279236932741e+00
      9.5411274702964128e+00 -3.9331017623683868e+00
      5.3393080908764157e-01 -1.1881406783535298e+00
      1.9353727225523198e-01 5.6046171628298902e-01
      3.5102098606288030e+00 -2.5597286725375881e+00
      1.0815794670495933e+01 -1.9114320030051677e+00
      3.8666876779043400e+00 1.7528633813068895e+00
      -4.6910467916673353e+00 9.5432435180010142e-02
      -2.6939367839399724e+00 -1.1053047513920831e+01
      -1.2578952141749475e+00 -4.9023640949383713e+00
      1.2765875569137039e+01 5.8978213287057768e+00
      1.9689671214258335e+00 4.7723497076305801e+00
      4.9784640406075651e+00 7.5277699856473035e+00
      2.8589097522704616e+00 -5.7103804078385989e-01
      5.6521468966555011e+00 1.9452566118718404e+00
      -3.2263607780976589e+00 7.7408642680456934e+00
      7.1754610039555089e-01 -2.3302624464002841e+00
      -2.4744898864675986e+00 -2.6442210919683387e+00
      -9.2726695349872412e-01 -1.5967490206930710e+00
      -1.9626400843810052e+00 -2.3887493679648188e+00
      -1.9916650966709906e+00 2.5535758552359828e+00
      5.7593457736764486e-01 -1.1564418905462908e+01
      -1.7239608288320591e+00 3.7409830864204476e+00
      -8.3773215167861048e-01 -2.7097348964626433e+00
      -2.1682093047485980e+00 -1.5663599879379420e+00
      -2.7593579929854166e+00 -2.5580978761104012e+00
      -5.4455026190667688e-01 6.2518022164581222e+00
      -8.4303205090743361e-01 -1.4360568572450636e+00
      2.6295702359713733e+00 -9.5972251243404774e+00
      3.4043752148931601e+00 -1.0933392252034041e+01
      1.6719393637804803e+01 4.7920940107154850e+00
      9.3678007391281848e-03 -1.0943587921909614e+00
      3.3502068672085161e+00 -6.1646904018826216e+00
      -4.5339854282795846e+00 -2.6100834273960066e-01
      4.2721868728647046e+00 -3.4795250730687621e-01
      7.8812549193521386e+00 -3.6901344226011576e+00
      4.7169649803341480e+00 2.0845176176631921e+00
      -1.7119230058978840e+00 -1.6299377393318459e+00
      -1.6416797091958507e-01 -5.3906446019101697e+00
      2.4452041726884470e+00 -1.1163565043583641e+00
      4.3058282755472508e+00 3.0049776556335202e+00
      1.5562769641964793e+00 -9.0549242388835989e+00
      -6.8485030295459941e+00 -3.6443281687995701e+00
      -2.0406056565695381e+00 -4.5394384003962607e+00
      -4.7993319905258716e+00 5.1671523894510161e+00
      -1.1232110972918122e+01 4.5624636343334899e+00
      -9.1991820596297791e-01 1.1819588414091253e+00
      1.2056681975848338e+00 -1.4058210120409476e+00
      -1.5049950185770127e+00 -3.1765666821010878e+00
      3.1092528312288836e+00 -7.2271705198483289e+00
      7.6255505888255302e+00 -1.3029673086708959e+00
      -2.2996190272286161e+00 2.4814831122403374e+00
      2.8506640026393057e+00 -1.5922588025788587e+00
      -1.8201329078967137e+00 3.7296880116458393e+00
      1.5770165730953449e+00 2.5289089834988969e+00
      4.1642840795505327e+00 -7.2148664013254177e-02
      1.1920338254740637e+00 4.1581556406594897e+00
      3.8119675170918126e+00 7.2731626990081677e-01
      -2.9636781195599830e-03 -7.8445433863562268e+00
      -2.1200819720604458e+00 -1.9303812761431238e+00
      8.6445343275374036e+00 9.9546360501822739e-01
      -7.0418980706863665e-01 -7.1467565581999937e+00
      -8.6052437468084868e+00 4.8453992396393519e-01
      2.1576078328984609e+00 7.2746551797853642e-01
      -7.2848240348341182e+00 -1.6877077830993983e+00
      -3.2923024850650067e+00 -4.2649480731108778e+00
      5.8040743037460718e-01 3.7075147313130246e+00
      2.4619138888417336e+00 -4.2670861657115573e+00
      2.2361144458213872e-01 -8.5282953848324183e+00
      3.4125597797919109e+00 -6.3113247879238950e+00
      8.9822572075617675e+00 3.5155908707640093e+00
      -5.4832972059614900e+00 -8.8785071276455714e+00
      -2.7422974861563881e-01 1.8763282161034553e+00
      5.6590667208960062e+00 7.0352020670905606e+00
      4.2082718576243328e-01 -1.0493423993947073e+00
      8.6296490301918531e+00 1.3683914425217472e+00
      8.6070680042105021e+00 5.7598148580496584e+00
      -1.7544552625412675e+00 8.5509866594662292e+00
      -4.2556844935142046e-01 -4.4569994679605545e+00
      1.0956746533072055e+00 -1.0101064171108602e+00
      8.5078509850639228e-01 3.8627891829062553e+00
      1.0214634663405406e+00 -1.6122070621622602e+00
      -5.3726902948378283e+00 1.1906229390739516e+00
      1.3638313696170927e+00 6.9141411912553359e+00
      -4.9257533241047078e+00 -2.6275510108079545e+00
      -1.0068682679575736e+00 -1.9193984025187245e+00
      1.0620667487079507e+00 5.8533481094998374e-01
      -4.1777807521064680e+00 -3.4747165070197563e+00
      2.4919556496573694e-01 -4.1418494215091641e+00
      -3.6690545301568128e-01 1.4675499577361952e+00
      6.0841443690824857e+00 1.3310003917647442e+00
      -9.7076557954825754e-02 -6.0229466235369034e-01
      -3.7271127252772294e+00 -1.0690091237021042e+01
      8.7572268758290606e-01 1.9215754363418847e+00
      -1.2439944749922422e+00 1.3303407817144697e-01
      3.6759417657344273e+00 6.4247661880626907e+00
      4.9643103301725082e+00 6.9458870747886987e+00
      -9.5272928989127159e-01 3.0383042163782603e+00
      2.0209538492508267e-01 2.2102964537444016e+00
      2.7091277525263999e+00 -1.5919331564042715e-03
      3.2305474924624966e+00 4.0304975581776104e+00
      2.2537301887868075e+00 -6.5571939422638961e+00
      1.3891966186938975e+00 5.8211712614265023e+00
      -1.7569022827690837e+00 7.7098149597974404e+00
      2.5079008841332771e+00 4.6356186249224463e+00
      -2.5712120018375484e+00 -1.5758246228028978e+00
      -5.6007832628749679e+00 4.8214547398638778e+00
      2.1753627975772623e+00 5.1478171880852583e+00
      -3.6611176297870105e+00 -2.2427735652693275e+00
      6.3006802497870729e-01 -1.7622691182458243e+00
      4.4313030974961243e-01 4.1533820830096895e+00
      1.1683216419836826e+00 -7.7173603437226088e+00
      -2.6945708565213455e+00 -1.4755464337837998e+00
      6.8583204096357990e+00 -5.7954890415328064e-01
      3.7304946499415198e-01 -6.1703571827252661e+00
      -1.5616102205971576e+00 4.3195537395076378e-01
      9.2390686494731433e+00 -1.7580410723153075e+00
      -3.4788609166398565e+00 -3.6281693025462713e+00
      -1.6560974933582004e-01 -1.0443970633575814e+01
      -2.2859657550110271e-01 4.4446042680770459e+00
      -5.7804777115956405e+00 -1.0423882210251176e+00
      1.7381251087795029e+00 -8.3219732237207182e+00
      -2.3787253175165644e+00 6.2748125552690928e+00
      -1.7203930449801448e+00 2.9349281246613557e+00
      -4.5441514280730383e-01 8.2198601365723576e+00
      1.0263812182808616e+01 3.2817851820683961e+00
      -2.9192494741790387e-01 3.1094277313601091e+00
      7.0747821583385062e-01 -1.3941147606469235e+00
      5.5483238749273660e+00 -5.0971268487859323e-02
      -2.4895875697510744e-01 4.1761288995351220e-01
      -1.0542946639390802e-01 1.1404452832723805e+01
      -2.7766930430414938e+00 -4.8751987425364032e+00
      -5.2705150312736606e+00 -1.8709594098445894e+00
      -9.7176781303958464e+00 1.1859342384265457e+00
      1.0140738143901171e+00 4.2192804184114392e+00
      -9.1498113323156520e+00 -2.6801357688348624e+00
      2.1530673821206703e+00 3.4951248160524355e+00
