<?xml version="1.0"?>
<opencv_storage>
<opencv_ml_ann_mlp>
  <format>3</format>
  <layer_sizes>
    704 64 31</layer_sizes>
  <activation_function>SIGMOID_SYM</activation_function>
  <f_param1>1.</f_param1>
  <f_param2>1.</f_param2>
  <min_val>-9.4999999999999996e-01</min_val>
  <max_val>9.4999999999999996e-01</max_val>
  <min_val1>-9.7999999999999998e-01</min_val1>
  <max_val1>9.7999999999999998e-01</max_val1>
  <training_params>
    <train_method>BACKPROP</train_method>
    <dw_scale>1.0000000000000001e-01</dw_scale>
    <moment_scale>1.0000000000000001e-01</moment_scale>
    <term_criteria>
      <iterations>30000</iterations></term_criteria></training_params>
  <input_scale>
    8.8556293450786576e+00 1.0079268012551121e+00 9.6968988641147984e+00
    1.1328644887886881e+00 1.0127377192845115e+01 1.2234530376357520e+00
    1.0550978176950057e+01 1.2608284317674834e+00 1.0129731757605862e+01
    1.1793793804693142e+00 9.4760460462919642e+00 1.0563992189878508e+00
    8.9962765658106587e+00 9.3642351992565542e-01 8.7581727479692546e+00
    8.4089582740356361e-01 8.5289065921189682e+00 7.6016607324001872e-01
    8.3301679416925651e+00 6.9542982050584257e-01 8.1612896584584913e+00
    6.4394423464679451e-01 8.1573953299612203e+00 6.1522899952261867e-01
    8.1893247863500438e+00 5.9384922183800171e-01 8.0974624540999596e+00
    5.6519816245272470e-01 8.0198757924806863e+00 5.3715656197321049e-01
    7.8314458550218253e+00 4.9558379431817678e-01 7.5140386824260395e+00
    4.4953189450741887e-01 7.5808795977952181e+00 4.4813441249397390e-01
    7.7505336882643308e+00 4.7295255869713354e-01 8.0529660428349246e+00
    5.1965050776705835e-01 8.1883263919210982e+00 5.6402331076795365e-01
    8.2168209694022671e+00 6.0774164533289654e-01 8.2560863437224050e+00
    6.6572610089908746e-01 8.3280731320002168e+00 7.3050886888868471e-01
    8.6010244711465322e+00 8.2610354560422183e-01 9.0498493560469893e+00
    9.4924781324956820e-01 9.6471347308097553e+00 1.0966448010346423e+00
    1.0205637570539936e+01 1.2479557156640522e+00 1.0728541621170635e+01
    1.3902892770454740e+00 1.1071611786767839e+01 1.4970533786697029e+00
    1.1540187563632538e+01 1.5923903006836526e+00 1.1453643539186913e+01
    1.5951939648417899e+00 8.5266268715606639e+00 8.9166664952978225e-01
    9.3003396190897458e+00 9.7273953341518837e-01 9.4307257216740243e+00
    9.7711672718582576e-01 9.5810759121021096e+00 9.1104142609735950e-01
    9.0121278066019777e+00 7.5333795732911679e-01 8.4652096812944873e+00
    5.8110038746087900e-01 8.2461183887989353e+00 4.2083096196643838e-01
    7.9136034872635035e+00 2.7252366115604576e-01 7.7028593647059154e+00
    1.7029153572814429e-01 7.5276250880949105e+00 9.5529297632744065e-02
    7.4152936227107178e+00 3.6423929562147975e-02 7.5072736012279382e+00
    -1.2149945211519294e-02 7.5067350688974903e+00
    -5.1113826754240865e-02 7.3815791671534550e+00
    -8.1202636679427009e-02 7.3237191134157937e+00
    -1.1400695415222532e-01 7.0973911603190576e+00
    -1.5470395461140601e-01 6.9789706022560498e+00
    -1.9532611402234390e-01 7.2326585929986571e+00
    -2.2697066546414693e-01 7.3793640096256139e+00
    -2.2849390632095629e-01 7.6002423357078666e+00
    -2.0146136624076713e-01 7.5533978261064636e+00
    -1.4337948600231243e-01 7.3368794736227878e+00
    -6.4760039174434375e-02 7.3254347733776353e+00
    3.5682297311776717e-02 7.3386955916250836e+00 1.4362247179494411e-01
    7.5471048724577763e+00 2.7561624098515314e-01 8.0270335762487246e+00
    4.4529411782526052e-01 8.5791733460649819e+00 6.4147841007697182e-01
    9.3215088674022475e+00 8.7243710678490682e-01 1.0139170864416220e+01
    1.1146923804415008e+00 1.0698471154780245e+01 1.3242561069992840e+00
    1.1255553751375098e+01 1.4709270518818129e+00 1.1024535162438424e+01
    1.4796898503740104e+00 8.1910161430843207e+00 7.5711867986489545e-01
    8.9346801019910593e+00 8.0376902377608783e-01 8.9230443889716717e+00
    7.4753258875244011e-01 9.0092410034433232e+00 6.1127944366928511e-01
    8.5537386066063643e+00 4.0545844680957632e-01 8.1487358572253950e+00
    1.7921484972452739e-01 8.0273533516317066e+00
    -3.2544680905019309e-02 7.4764094185117544e+00
    -2.0416570001629122e-01 7.2313782306755687e+00
    -3.0407342280272343e-01 7.1284873714017953e+00
    -3.7170093687398442e-01 6.9260323307840750e+00
    -4.1805957325994147e-01 6.8593244665540682e+00
    -4.4877567938243262e-01 6.7770121432042361e+00
    -4.7373301311507582e-01 6.6915234438121987e+00
    -5.0152623076910996e-01 6.7470484936424313e+00
    -5.4919069391389053e-01 6.6364502337397102e+00
    -5.9207099620348425e-01 6.6197397263893647e+00
    -6.4336055757402744e-01 6.9299138396154678e+00
    -6.9543257576282358e-01 7.1244184719675552e+00
    -7.0694931643410230e-01 7.3265636031470702e+00
    -6.8924814220438835e-01 7.3482898330495487e+00
    -6.3380712382445681e-01 7.1848822943813344e+00
    -5.3428772427497551e-01 7.2343069746345741e+00
    -4.1577512423235230e-01 7.1727451156470563e+00
    -2.7535506357423628e-01 7.2357761807086698e+00
    -1.1276702777311905e-01 7.5306995589348835e+00
    8.7570811837631782e-02 7.9639282857995148e+00 3.2566208369053179e-01
    8.7933419412988769e+00 6.1617065154310258e-01 9.6936893368722785e+00
    9.2425606513874103e-01 1.0212587080525955e+01 1.1896952288863640e+00
    1.0890373815645292e+01 1.3754830315442992e+00 1.0706698115367692e+01
    1.4005599360738461e+00 8.0300142573055577e+00 7.0692913882874964e-01
    8.8391960034848012e+00 7.3879509868505688e-01 8.8669710625755531e+00
    6.7471468922049871e-01 8.8340245057259725e+00 5.1118704656557556e-01
    8.2053435968283370e+00 2.8709607601807047e-01 7.6844451370970237e+00
    6.0573810605358457e-02 7.6920859157835437e+00
    -1.4357747264683035e-01 7.3980708016904773e+00
    -3.1203355096424901e-01 7.2975454331187413e+00
    -4.2661115194234805e-01 7.0799495316188210e+00
    -4.8645358886933171e-01 6.9809916789473361e+00
    -5.1520219530774047e-01 7.2487225921049623e+00
    -5.5120797134028565e-01 7.3075461031040767e+00
    -5.7855675508864868e-01 7.3378869426692557e+00
    -6.2504379210505667e-01 7.3965793260773047e+00
    -6.9216514283935382e-01 6.9827551839825439e+00
    -7.1608679111048668e-01 6.8307793064654891e+00
    -7.3751392136688620e-01 7.0491427251493626e+00
    -7.6488209400183937e-01 7.0213373165794488e+00
    -7.5998465903390433e-01 7.1423565355276137e+00
    -7.5532041287092522e-01 7.2126232059089128e+00
    -7.3294912821514091e-01 7.2160047737175113e+00
    -6.7419820108404616e-01 7.4337053601105092e+00
    -5.8696431666120863e-01 7.3722728577978307e+00
    -4.4572422876863538e-01 7.3092259281646657e+00
    -2.6212026603725946e-01 7.5304427535103908e+00
    -3.6159119321545280e-02 7.8363046615683762e+00
    2.2821378558878871e-01 8.5257661695533713e+00 5.3389026155085895e-01
    9.3910645350065654e+00 8.5808004366260537e-01 1.0052250993853413e+01
    1.1572314290769357e+00 1.0822956020412938e+01 1.3599060229559745e+00
    1.0604168726198726e+01 1.3929617519915747e+00 8.0751159112681137e+00
    6.7566543016872782e-01 8.8525397138204021e+00 7.0635360558441063e-01
    8.6826900724203266e+00 6.3567989083119214e-01 8.5511302228538870e+00
    4.9174179139460855e-01 8.0464159357023579e+00 2.9995509757195016e-01
    7.7241943559395398e+00 9.4191559923356538e-02 7.8774485414240054e+00
    -1.1047425643506296e-01 7.7317555846619035e+00
    -3.0095616978065409e-01 7.5347853599362642e+00
    -4.2550106863274934e-01 7.5180238509406010e+00
    -4.9436895795731822e-01 7.6181742762583280e+00
    -5.3580452451056348e-01 7.9196741491119367e+00
    -5.7524252245240903e-01 7.8643879464641859e+00
    -6.0801585657779933e-01 7.5011351615480413e+00
    -6.2502976916885822e-01 7.3853914732820822e+00
    -6.6580139021373419e-01 7.1723896743457152e+00
    -6.9251321914138675e-01 7.2051079600858392e+00
    -7.3512307251860476e-01 7.4706054946854330e+00
    -7.8413921914619156e-01 7.6332114321217066e+00
    -8.1324426614877154e-01 7.8045600095032652e+00
    -8.2537461212865471e-01 7.7950680260715446e+00
    -8.0274772881434042e-01 7.6036303734807724e+00
    -7.3219707878776275e-01 7.5623280286723435e+00
    -6.3165258723651818e-01 7.3985623399651761e+00
    -4.9353293348507976e-01 7.3075616623488173e+00
    -3.1477671493976084e-01 7.4323880320766653e+00
    -8.9373544512024408e-02 7.6231303335612095e+00
    1.6120569543295574e-01 8.3270759613379042e+00 4.5847940940338827e-01
    9.2143719189990669e+00 7.8377109502787612e-01 9.8598381341831534e+00
    1.0895930780585137e+00 1.0758917605445630e+01 1.3211534580849673e+00
    1.0593103307765080e+01 1.3768467034222414e+00 8.1243558632663575e+00
    6.5989748822105943e-01 8.8204655694931979e+00 6.8210640541516976e-01
    8.5457146668053721e+00 6.0592132378027308e-01 8.4182927710325277e+00
    4.7210956075920196e-01 8.0134803373219370e+00 3.0254702838245146e-01
    7.8179500235217345e+00 1.1253236266396260e-01 7.8884232117905535e+00
    -8.3035149416245221e-02 7.6164404626410223e+00
    -2.6410274902670144e-01 7.5071778813530488e+00
    -3.8720386194875395e-01 7.5250228148549887e+00
    -4.5825500862375651e-01 7.6764042477383612e+00
    -5.0957211230900656e-01 8.0114781168420954e+00
    -5.6488843486350848e-01 8.0061808202777787e+00
    -6.1500096002598725e-01 7.6513827249204427e+00
    -6.5090344736495176e-01 7.5293136377048890e+00
    -6.9523680513857944e-01 7.3494644873040080e+00
    -7.0799812134549522e-01 7.6635283032546253e+00
    -7.3426749852948459e-01 7.8508042540626830e+00
    -7.4727806832085719e-01 7.7235299239130910e+00
    -7.3614833096427423e-01 7.7113632333823157e+00
    -7.3328643851776598e-01 7.9260218086721110e+00
    -7.3584332576311307e-01 7.7652436214963787e+00
    -6.7096388655200945e-01 7.8085520720030113e+00
    -5.9317601601834746e-01 7.5985871694237010e+00
    -4.6080184390085954e-01 7.3443543716342496e+00
    -2.9691785357429989e-01 7.3178269123176820e+00
    -9.5919208834996814e-02 7.4130508309212253e+00
    1.2867421560912129e-01 8.0584928852282598e+00 4.0040809455615589e-01
    8.9080883851286288e+00 7.0857154672509670e-01 9.5286402921496762e+00
    1.0111694369901318e+00 1.0709796151026062e+01 1.2921547440696546e+00
    1.0614241804406600e+01 1.3737963088147205e+00 8.1312584164079702e+00
    6.6531941436188013e-01 8.9341932757434215e+00 6.9660983994835923e-01
    8.7900028400458190e+00 6.2719299383679261e-01 8.6988690131213335e+00
    4.8819680521892661e-01 8.2511306941559646e+00 3.1079090167736045e-01
    8.1201130936648660e+00 1.1937580108807890e-01 8.1737318147232365e+00
    -7.6246431071732249e-02 7.6393141594126179e+00
    -2.4637310292073103e-01 7.5394432148085988e+00
    -3.6375944971221458e-01 7.5295481494363958e+00
    -4.4635567729795317e-01 7.6628235566080267e+00
    -4.9791841711661505e-01 8.0724285905581077e+00
    -5.6549039397599743e-01 8.1949669507667213e+00
    -6.3218357274047021e-01 7.9629615701033831e+00
    -6.9419969144848748e-01 7.6965020608327501e+00
    -7.2362958966814039e-01 7.5487051185134382e+00
    -7.2260797067795857e-01 7.7307213375177710e+00
    -7.2437756840547685e-01 7.8413297273360509e+00
    -7.2201404817868675e-01 7.7112048568609017e+00
    -7.0952808347767493e-01 7.5210548055478181e+00
    -6.8784558970791809e-01 7.3362620388457600e+00
    -6.5202867371288598e-01 7.1961813912757577e+00
    -5.8998826894517853e-01 7.3143372313314803e+00
    -5.2366275704636511e-01 7.2750564456587492e+00
    -4.1965127060989837e-01 7.1977184279718305e+00
    -2.8553741245412967e-01 7.3025011261316219e+00
    -1.0295523748850617e-01 7.4714360205718648e+00
    1.1157095637403681e-01 8.1749684298998702e+00 3.8725294181457232e-01
    9.1075400227295340e+00 7.0707737381791336e-01 9.8298146572670948e+00
    1.0305505687927339e+00 1.1005495036601358e+01 1.3240597849474465e+00
    1.0751081985735544e+01 1.3936128038387379e+00 8.1241691610249980e+00
    6.5148683499237214e-01 8.9643456295774389e+00 6.8557273722399770e-01
    8.8220866648519465e+00 6.0400368242067415e-01 8.8221465496492169e+00
    4.4965313494547843e-01 8.4299202284517758e+00 2.4696241128466745e-01
    8.2099629525003444e+00 2.3783827506349164e-02 8.2502768743689590e+00
    -1.9203956483046758e-01 7.7998320658910325e+00
    -3.7973752238159098e-01 7.6605813531035816e+00
    -4.9816519956624494e-01 7.7693916780341832e+00
    -5.9081842545397911e-01 7.7244304991814614e+00
    -6.3009335458935722e-01 8.0076440581064894e+00
    -6.8269463805445496e-01 8.1566201446821172e+00
    -7.3337217470048932e-01 7.8007408653968149e+00
    -7.5220623816047028e-01 7.7045845504625614e+00
    -7.7217255830419740e-01 7.5223636849576616e+00
    -7.5377765716768386e-01 7.4268121666444706e+00
    -7.3296077162322015e-01 7.6884034305645388e+00
    -7.3405985864498591e-01 7.9302389724121927e+00
    -7.4921214505550426e-01 8.0018414140753347e+00
    -7.5489167582747851e-01 7.6394482538010129e+00
    -7.1411077222806896e-01 7.4372623086779983e+00
    -6.5915565185906189e-01 7.5300038569255738e+00
    -5.9103784168286788e-01 7.5154305576899931e+00
    -4.8617626303022504e-01 7.5233093967222606e+00
    -3.4200618379047060e-01 7.6899178472672745e+00
    -1.2920875911313881e-01 7.8738416066146542e+00
    1.1817970677150927e-01 8.5888952167403474e+00 4.2815005330965400e-01
    9.5083066511449470e+00 7.7302641161402241e-01 1.0227053865589681e+01
    1.1153652262364182e+00 1.1362160480282769e+01 1.4102984075266558e+00
    1.0945436294327484e+01 1.4493258884740541e+00 7.9302415164890245e+00
    6.4756556071907878e-01 8.6890003232195028e+00 6.7547485550516018e-01
    8.4754418818378703e+00 5.9801602357366024e-01 8.4740739062909043e+00
    4.4797501969214854e-01 8.0972788226884695e+00 2.4952359342180883e-01
    7.8803343388665263e+00 3.2730921195248272e-02 8.0267735070753048e+00
    -1.8103409654931787e-01 7.7797052636279238e+00
    -3.7712690310375180e-01 7.6301713850678716e+00
    -5.1788899425778423e-01 7.6348198930463500e+00
    -6.1521260410157941e-01 7.5396941527551542e+00
    -6.4646575715194277e-01 7.8478349512720671e+00
    -6.8391492307814183e-01 7.8105132983077841e+00
    -7.0317313744210996e-01 7.3507240353955892e+00
    -6.9030290247455239e-01 7.1553583921494361e+00
    -6.9767296070357521e-01 6.8970930523283123e+00
    -6.7166752825442710e-01 6.8966043238123573e+00
    -6.5181214990839664e-01 7.2283344500574778e+00
    -6.5919637774369355e-01 7.7618038605970350e+00
    -7.0339487154965630e-01 8.2692972567527026e+00
    -7.5604880343347380e-01 8.2196160341456697e+00
    -7.4653420834608708e-01 8.2127286257995049e+00
    -7.0850516858241919e-01 8.2097636891045767e+00
    -6.3002347479533549e-01 8.0012060274742041e+00
    -5.0547446417322217e-01 7.7697882090639450e+00
    -3.3992323171613809e-01 7.8224279149450542e+00
    -1.1450891233641224e-01 7.9349188019222900e+00
    1.3678110334750790e-01 8.6540297373131274e+00 4.5533265935151290e-01
    9.5301296584257287e+00 8.0444469423800713e-01 1.0367623298123764e+01
    1.1660388043012508e+00 1.1493365770774167e+01 1.4547219489504437e+00
    1.1075175669151097e+01 1.4943773396051410e+00 8.1666987307157619e+00
    6.9847992041633866e-01 8.9736825180920832e+00 7.4626573942063279e-01
    8.7899516460514988e+00 6.8953406425090058e-01 8.6667347486328925e+00
    5.4395342759652687e-01 8.0768592916960493e+00 3.4662384072649327e-01
    7.7525698373757752e+00 1.3764991623489406e-01 7.9388277064843624e+00
    -7.4875688051221773e-02 7.8666239903200159e+00
    -2.9222906216859207e-01 7.9281000046974857e+00
    -4.8372308014059134e-01 7.8027974953308954e+00
    -5.9936507598091071e-01 7.8044136286897396e+00
    -6.6584401869024301e-01 8.2058470050402459e+00
    -7.3188648473751150e-01 8.2528988344026342e+00
    -7.7217450449690894e-01 7.8154429321439389e+00
    -7.6741093718605680e-01 7.7419465833958281e+00
    -7.9852982709082243e-01 7.5640565159872395e+00
    -8.0563822612041847e-01 7.6625440329198238e+00
    -8.3268026877557766e-01 8.0320340458521571e+00
    -8.5898838591514681e-01 8.1891100297021158e+00
    -8.5928335429562663e-01 8.4491872795135432e+00
    -8.5245799306357239e-01 8.3514355533562803e+00
    -7.9516409049310732e-01 8.2407635749249497e+00
    -7.1925309237811041e-01 8.4167874235860864e+00
    -6.3684115499439209e-01 8.2910980944294117e+00
    -5.1278597745979682e-01 8.0637690456583755e+00
    -3.4693247861862336e-01 7.9874357938669913e+00
    -1.2134197959109982e-01 7.8779744369203915e+00
    1.3020569238067836e-01 8.4291715762961203e+00 4.3493286859320501e-01
    9.3177532590724290e+00 7.8416631948669091e-01 1.0182755005644829e+01
    1.1462914895548659e+00 1.1257322263546293e+01 1.4280841348696680e+00
    1.0890730925014848e+01 1.4737734199281065e+00 8.1735361740868235e+00
    7.2763952210809490e-01 8.9429922835760234e+00 7.7765726873305185e-01
    8.7066463898429660e+00 7.1683224094208564e-01 8.4840514727498544e+00
    5.6456172872199706e-01 7.7787137616938926e+00 3.6353446101147485e-01
    7.3413811761011720e+00 1.5764547946413576e-01 7.4730097220437077e+00
    -6.0331095901649846e-02 7.4267787688924614e+00
    -2.9352983452686809e-01 7.5906366649192147e+00
    -4.9887591005334730e-01 7.6988137447398257e+00
    -6.4280923966907177e-01 7.8448915652234446e+00
    -7.4379861491522359e-01 8.1469660374714064e+00
    -8.2049448952012727e-01 8.3180308132359428e+00
    -8.7943071472479883e-01 8.2560597545205550e+00
    -9.1490582686943034e-01 8.5642532827708688e+00
    -1.0052382461252036e+00 8.3096442963895640e+00
    -1.0259952992264627e+00 8.2655692126363807e+00
    -1.0591876792584265e+00 8.3867091496118480e+00
    -1.0547357752737150e+00 8.2710882462151112e+00
    -1.0084498904659476e+00 8.4204636131748867e+00
    -9.6778629432095586e-01 8.2317200675423390e+00
    -8.7013466105486825e-01 7.7789194304052121e+00
    -7.4404915199373733e-01 8.0272193601775967e+00
    -6.6271898411307706e-01 8.0730084191529699e+00
    -5.2750974442236021e-01 7.9423341189647507e+00
    -3.4451912295695647e-01 7.8981524530947498e+00
    -1.0796004834041591e-01 7.8698351268136832e+00
    1.5878984298337812e-01 8.5142916691262212e+00 4.7552333491478765e-01
    9.4797113770102897e+00 8.3434579600557357e-01 1.0321363736327005e+01
    1.1908391409184240e+00 1.1274571448057367e+01 1.4473360903713361e+00
    1.0923725167431156e+01 1.4846198190629205e+00 8.1701559935929815e+00
    7.4194773568644479e-01 8.9623646891856854e+00 7.9645139682369770e-01
    8.7573455828711673e+00 7.3884899479042765e-01 8.5967972137587321e+00
    5.9445617895022529e-01 7.9519818785292324e+00 3.9364512166752336e-01
    7.5710815582715538e+00 1.7797297317694735e-01 7.8380139325239977e+00
    -6.3481107171031809e-02 7.7706276898497064e+00
    -3.2325777451286769e-01 7.9784548668942854e+00
    -5.4685941400428772e-01 8.0880127966307853e+00
    -6.9061978463347584e-01 8.2446500362153632e+00
    -7.9232879025923675e-01 8.4639178644285717e+00
    -8.5514125047460077e-01 8.4864705956972841e+00
    -8.8937319678890259e-01 8.3737648238009843e+00
    -9.0147756287225189e-01 8.7328107705137210e+00
    -9.7800044869648084e-01 8.5136062517551121e+00
    -9.9345943422329275e-01 8.4020000785743658e+00
    -1.0223950103352173e+00 8.4497696857819520e+00
    -1.0410583330477616e+00 8.3269062915800376e+00
    -1.0318966606680076e+00 8.5400874492531837e+00
    -1.0368905256171839e+00 8.4097475550650671e+00
    -9.7433675108557094e-01 8.0085100201841559e+00
    -8.6214593604855227e-01 8.2019191127061877e+00
    -7.7284561040004784e-01 8.2368288599234134e+00
    -6.1808484334409663e-01 8.0480883240099352e+00
    -3.8988855511274523e-01 8.0096510400265295e+00
    -1.1998026361666445e-01 7.9883412198856485e+00
    1.6982917093839259e-01 8.6629456528262612e+00 4.9809733218119884e-01
    9.5075550987117357e+00 8.4384080094731662e-01 1.0250701678510238e+01
    1.1766851306967860e+00 1.1239131534306887e+01 1.4323664166052807e+00
    1.0985114195849164e+01 1.4808745795731670e+00 8.1253997207045323e+00
    7.3081972956683450e-01 8.8334668231850291e+00 7.8512076509064699e-01
    8.6330274163259570e+00 7.2837785950619505e-01 8.6598836492798181e+00
    6.0322678435429933e-01 8.1532347748476219e+00 4.1072952793351097e-01
    7.7143813463561139e+00 1.8651273408696364e-01 7.9138528042106451e+00
    -5.9785516758130139e-02 7.7611413442816080e+00
    -3.1727178198367079e-01 7.8750138995650820e+00
    -5.2314267490400612e-01 8.0132514365317125e+00
    -6.5570361259723098e-01 8.0648759421832992e+00
    -7.2082614869314365e-01 8.2237920121636616e+00
    -7.4252122248643349e-01 8.4180033944965160e+00
    -7.4866631917376958e-01 8.3392384051481301e+00
    -7.1707711228105497e-01 8.5689176917554111e+00
    -7.2579511350769621e-01 8.2509519378644267e+00
    -7.1501954016139158e-01 7.9774261112348670e+00
    -7.2334988816456658e-01 7.9616879400694254e+00
    -7.5263652039224660e-01 7.8379055297131250e+00
    -7.7408035360645389e-01 8.0895119337186028e+00
    -8.1555244118020809e-01 8.0137548746746567e+00
    -8.0377980340966382e-01 7.6716461755308405e+00
    -7.4262669334332110e-01 7.8022216525695818e+00
    -6.6718192335303250e-01 7.7873987877050723e+00
    -5.2770357049892902e-01 7.7704241746603815e+00
    -3.2095307832304742e-01 7.9371936183683278e+00
    -6.4256270498103008e-02 8.0678494133072096e+00
    2.1611566425638906e-01 8.8551571609010935e+00 5.4489673459742960e-01
    9.8881457478730646e+00 9.0265999498625504e-01 1.0683120238714176e+01
    1.2346638343387801e+00 1.1450105219965467e+01 1.4578865218801853e+00
    1.1054361163642518e+01 1.4717380996131135e+00 7.9580872088453516e+00
    7.3123536313361726e-01 8.5758331245499004e+00 7.6163205237256582e-01
    8.3613349457000936e+00 6.9340101156063649e-01 8.4454532762501948e+00
    5.6639813616351886e-01 8.0623816537661810e+00 3.7720460380219573e-01
    7.6351272379719894e+00 1.4801848136678808e-01 7.7430651551041283e+00
    -1.0175557302478286e-01 7.5452905081753006e+00
    -3.4356190257189789e-01 7.7876854794154378e+00
    -5.2439118771307403e-01 8.0312643169578095e+00
    -6.3583298951760636e-01 7.8993457472221840e+00
    -6.7274913431696459e-01 8.0343794472825305e+00
    -6.7492006978829555e-01 8.1270162917110955e+00
    -6.4985254419325533e-01 8.0389338845331331e+00
    -5.9105605237831749e-01 8.2755611069065509e+00
    -5.8008351482361220e-01 7.9249538358398333e+00
    -5.5503015265829581e-01 7.7443685090635741e+00
    -5.7444568541939300e-01 7.8255049289594272e+00
    -6.1847294311936374e-01 7.8202348016952516e+00
    -6.6411123341066214e-01 8.2251383887592269e+00
    -7.4051392450949571e-01 8.1576030161100661e+00
    -7.5716661134287488e-01 7.8548111682571617e+00
    -7.2018004731180596e-01 7.9213967187393521e+00
    -6.4495368505516193e-01 7.7791161958468438e+00
    -5.1364866800139164e-01 7.6676288428867583e+00
    -3.1798947989888071e-01 7.8054182596599455e+00
    -7.5243685202897814e-02 7.9066170935005582e+00
    1.9247773541188329e-01 8.6712586818467603e+00 5.0680998968039459e-01
    9.6265180346097559e+00 8.5050975043957855e-01 1.0372732882766051e+01
    1.1712047722478165e+00 1.1212265640725681e+01 1.4074200613032162e+00
    1.0855595858918086e+01 1.4411032435546089e+00 8.1801186350429713e+00
    7.7557604116901613e-01 8.7895001192323772e+00 7.9940242530407379e-01
    8.4538983431456796e+00 7.0977818263728443e-01 8.4290200931121166e+00
    5.7020950048336927e-01 8.0179974692414806e+00 3.7856651413505654e-01
    7.5081321059801356e+00 1.5084114885387617e-01 7.5926100591984040e+00
    -8.1887467083773174e-02 7.4907402046538447e+00
    -3.0297239891168104e-01 7.7166235969136601e+00
    -4.6909229433086957e-01 8.0601753359370871e+00
    -5.8434351328195511e-01 7.8342545552262948e+00
    -6.2179272111550155e-01 7.7978684584177183e+00
    -6.1199277559509091e-01 7.7953070277220720e+00
    -5.8041230696695900e-01 7.6682473022027979e+00
    -5.2072266173512238e-01 7.8872709580137990e+00
    -5.0402571823628994e-01 7.6321563919240010e+00
    -4.8159888498441011e-01 7.4431213549941075e+00
    -4.9884324013765824e-01 7.5782122598028181e+00
    -5.4649280685592738e-01 7.5891002758443413e+00
    -5.9992166810710867e-01 7.9270155713960362e+00
    -6.8233973159116912e-01 7.8715328650677190e+00
    -7.1437041903692278e-01 7.8204184168412620e+00
    -7.0103663538977767e-01 8.1209159670576465e+00
    -6.4103015393859153e-01 7.9635342733236909e+00
    -5.0743546848449073e-01 7.8388975916445620e+00
    -3.1878249501999228e-01 7.9200636803369866e+00
    -8.2128852490840329e-02 8.0219999892597524e+00
    1.7867837283803534e-01 8.8986941669926054e+00 5.0383875691190472e-01
    9.9025210383980138e+00 8.5974351681323602e-01 1.0595637595159905e+01
    1.1860578628036698e+00 1.1365528533429099e+01 1.4186198499325096e+00
    1.0904194524317081e+01 1.4425337906600366e+00 8.6353316185152593e+00
    8.4839419108982206e-01 9.2413436997346938e+00 8.6754461751891210e-01
    8.7357428006752276e+00 7.5532227011604514e-01 8.5395795064111795e+00
    5.9628993264772867e-01 7.9407670201704992e+00 3.9327679192848841e-01
    7.3531210737979400e+00 1.7452279093239831e-01 7.3787232864875358e+00
    -3.1241394159582898e-02 7.3005724480164345e+00
    -2.1984341878060046e-01 7.4985034505319677e+00
    -3.7447807073774803e-01 7.8064058052278602e+00
    -4.9251326895439701e-01 7.6813973277666792e+00
    -5.5321285115988761e-01 7.8857960274075181e+00
    -5.7870936338264578e-01 8.1165990946599162e+00
    -5.7046566612031402e-01 8.0842315660997368e+00
    -5.1179031969690270e-01 8.2521465201884840e+00
    -4.6877898362006387e-01 7.9087049727612122e+00
    -4.2495473979982429e-01 7.6256588013802080e+00
    -4.2759607746616035e-01 7.6779287567258061e+00
    -4.7238218274691174e-01 7.6641619168179060e+00
    -5.3560874169458084e-01 7.9581284982782305e+00
    -6.1617023149110128e-01 7.8748675745022414e+00
    -6.5116605757937229e-01 7.8238012862541639e+00
    -6.3953036608390001e-01 8.2096626806216939e+00
    -5.9088974543711881e-01 8.1060239379084624e+00
    -4.7027210062901725e-01 8.1060336865757421e+00
    -3.0134004366662204e-01 8.1886810394354086e+00
    -6.6583290113433988e-02 8.2068081749512451e+00
    1.8678650908315247e-01 8.9932741633372633e+00 5.0468296399178758e-01
    9.8875206397699813e+00 8.4683130858171718e-01 1.0499615529881265e+01
    1.1645467114540875e+00 1.1153593759264552e+01 1.3813756488695612e+00
    1.0701300961920778e+01 1.4085043186387309e+00 8.5809035859648581e+00
    8.4757552882319931e-01 9.1418015137598996e+00 8.6006994139245385e-01
    8.5732196121991944e+00 7.3611517940903592e-01 8.3649787720948066e+00
    5.8010983982259745e-01 7.7581811891606351e+00 3.8452842079948379e-01
    7.2238903347379937e+00 1.8496391828383271e-01 7.2308994101411956e+00
    3.6564874343917655e-03 7.1451564233161173e+00
    -1.5704669325166218e-01 7.3061017821436174e+00
    -2.9259034347789986e-01 7.5898272524649624e+00
    -4.0603575539928616e-01 7.5414917146636693e+00
    -4.8575284106315825e-01 7.7599230097803416e+00
    -5.3365267512407477e-01 7.9416550849658405e+00
    -5.4203344917353335e-01 7.8845880288342984e+00
    -5.0576531922254053e-01 8.1164719047050813e+00
    -4.7874315492433850e-01 7.8776029949807196e+00
    -4.4063919166506316e-01 7.5782658871902218e+00
    -4.3792758264790144e-01 7.5664969644085174e+00
    -4.7007967229721448e-01 7.4528240167576767e+00
    -5.0948812632487506e-01 7.6534019870044485e+00
    -5.6539584269266407e-01 7.5796057031082471e+00
    -5.9288881614763556e-01 7.5137318859161057e+00
    -5.8871698385786442e-01 7.9411194154743212e+00
    -5.5679018166499228e-01 7.8947940331959154e+00
    -4.5274638414387564e-01 7.9322711517146507e+00
    -3.0239228562295778e-01 8.1380222017608776e+00
    -8.6087659782549425e-02 8.1717595220635779e+00
    1.5660664796695350e-01 8.9039973582978931e+00 4.6495016408906309e-01
    9.6522439048099340e+00 7.8977382362268711e-01 1.0099374497829427e+01
    1.0861681288571046e+00 1.0730739429760186e+01 1.3010996685987506e+00
    1.0341783452267284e+01 1.3384667440911573e+00 8.7045961532447453e+00
    8.5893542017874935e-01 9.2859122102295473e+00 8.8515524084029107e-01
    8.6914022300620601e+00 7.6069658986398481e-01 8.5256713285113364e+00
    6.2045035863356812e-01 8.0222449844051216e+00 4.4516039845344063e-01
    7.6349644178934080e+00 2.7103049576586774e-01 7.6587246251359584e+00
    1.1636356106797240e-01 7.3758016144587657e+00
    -1.9314838945682006e-02 7.2420963504671674e+00
    -1.3296566374191507e-01 7.2481642510153108e+00
    -2.2378687046943804e-01 7.1151698578214733e+00
    -2.8635715232824521e-01 7.2242299568586477e+00
    -3.2706310753931822e-01 7.3297037660122983e+00
    -3.4314479858603641e-01 7.4169314206730084e+00
    -3.3484434491986970e-01 7.7588308004534827e+00
    -3.3322500704342317e-01 7.7817637149114924e+00
    -3.2385294398683107e-01 7.7026747046796835e+00
    -3.3537831613116986e-01 7.7914913251238929e+00
    -3.7980061591105124e-01 7.6367804836815880e+00
    -4.2407719891324275e-01 7.5547046109198890e+00
    -4.6321537036221094e-01 7.2657720004791813e+00
    -4.7497070685121018e-01 7.1396739380490022e+00
    -4.6497537558574087e-01 7.5256530441038310e+00
    -4.3063840302669504e-01 7.5826774258517773e+00
    -3.4631269014084626e-01 7.7366961678394404e+00
    -2.1969932175893112e-01 8.1183661538892213e+00
    -2.8597230539339501e-02 8.2726539114694244e+00
    1.9618420451133362e-01 8.9854689487210582e+00 4.8750503666097078e-01
    9.7004602060283567e+00 7.9617082019284346e-01 1.0114398179498096e+01
    1.0765358655592971e+00 1.0729188623806369e+01 1.2897467621720775e+00
    1.0343137060509818e+01 1.3203108282707767e+00 8.9671149982572018e+00
    9.3794367751565944e-01 9.6801133355054105e+00 9.8935706501558174e-01
    9.3349736055896297e+00 9.1154972888527830e-01 9.3370124105122070e+00
    8.1688216565846528e-01 8.8719072921417741e+00 6.6622737254115250e-01
    8.3928541806140018e+00 5.0379993153282587e-01 8.1795070382152844e+00
    3.5536557245703804e-01 7.7103908173973421e+00 2.2238442649707402e-01
    7.4517717908905015e+00 1.2030333728055950e-01 7.3618996160664603e+00
    4.8452909190281071e-02 6.9582972577326458e+00
    -1.3187438890184738e-02 6.8339490528100724e+00
    -5.6143544624496416e-02 6.8041167459662955e+00
    -8.6223045884456201e-02 6.8207013476347624e+00
    -1.0164842097292194e-01 7.0344063741903931e+00
    -1.1246564896507197e-01 6.9665583930624742e+00
    -1.1659370048752916e-01 6.9383113200321027e+00
    -1.2623131387684799e-01 7.1020462894025993e+00
    -1.4575559311915934e-01 7.0335690987027704e+00
    -1.6558707515360646e-01 7.1078538471665595e+00
    -1.8915941066532724e-01 7.0096412845932248e+00
    -2.0182592839056862e-01 6.9188649557481350e+00
    -1.9361763152229636e-01 7.1712918582614016e+00
    -1.5674570587868186e-01 7.3370241289172284e+00
    -9.4220796228168702e-02 7.5602715718414952e+00
    8.5093571638088644e-03 7.9126349052271285e+00 1.6449609569009505e-01
    8.1048480527204649e+00 3.4505160844914273e-01 8.8344435130489209e+00
    5.9317437104093163e-01 9.7321380836436706e+00 8.7891167390763048e-01
    1.0343159799739226e+01 1.1456759121850080e+00 1.1028180407178478e+01
    1.3507092393154037e+00 1.0641390744918430e+01 1.3783871117134192e+00
    9.2379252470124058e+00 1.0371057155256500e+00 1.0036474846102360e+01
    1.1369064958641553e+00 1.0109003765209579e+01 1.1551444314751442e+00
    1.0527381722667462e+01 1.1726869492802230e+00 1.0337220028196493e+01
    1.1008144281896166e+00 9.5724431563964441e+00 9.4267725392368917e-01
    9.2336018182750372e+00 8.1981815937486169e-01 8.8621980552835939e+00
    7.0731259716458306e-01 8.4620826063572778e+00 6.0993406364305802e-01
    8.1948163573323001e+00 5.3326784476232925e-01 7.6741731223706271e+00
    4.4311325140758734e-01 7.4666202695874082e+00 3.8882662532425888e-01
    7.3761544709805502e+00 3.5422466721407181e-01 7.3139308578102549e+00
    3.3421507416851237e-01 7.4529703076405971e+00 3.3766658315157960e-01
    7.2130400261186658e+00 3.2659001175764407e-01 7.3648385339489666e+00
    3.5100828237611592e-01 7.5514820462310901e+00 3.7072034123699288e-01
    7.6107836149099111e+00 3.7540215092204904e-01 7.7587664945205326e+00
    3.7769084803067687e-01 7.7123896982926379e+00 3.6742818325555743e-01
    7.7514806313291560e+00 3.6595361279535521e-01 8.1191719201633354e+00
    3.9535836382110895e-01 8.4543658450797015e+00 4.4957161227687975e-01
    8.8099436535893023e+00 5.3700578674164867e-01 9.2879853062857496e+00
    6.7265269193770683e-01 9.6930802845731243e+00 8.2373083860269414e-01
    1.0425754330454966e+01 1.0419455474680301e+00 1.1329468782710480e+01
    1.2876015286727873e+00 1.1862610870794125e+01 1.4850989652001039e+00
    1.2297478402089494e+01 1.6144814462750796e+00 1.1857911326740219e+01
    1.5975545494652952e+00 3.2241734564973150e+00
    -5.9789026052559524e-01 2.9006496767772560e+00
    -7.6046457115610500e-01 3.1656394119157727e+00
    -6.9280679701393633e-01 2.8692304773540878e+00
    -9.4040464242500132e-01 2.8722162393879178e+00
    -1.2412761967184476e+00 2.9133306032542419e+00
    -1.3129750411320382e+00 3.2683000947832705e+00
    -1.9839456669305218e+00 3.8740445627884723e+00
    -2.6902946690874741e+00 4.1704394733671295e+00
    -3.0176550962850581e+00 4.8679744405342440e+00
    -3.7878052006054523e+00 4.4456198594959124e+00
    -3.2878296411048025e+00 4.9723603458081902e+00
    -4.0077471087974761e+00 5.0972790447547025e+00
    -4.1643184561305917e+00 4.5917566332566109e+00
    -3.5738231232737379e+00 5.5749394639979268e+00
    -4.6673969153717305e+00 5.7583448573146381e+00
    -4.8580732554043431e+00 5.7072096832646029e+00
    -4.8096141613505505e+00 5.6030454161767258e+00
    -4.7453361132230008e+00 5.0302137293639513e+00
    -4.0562950693713802e+00 5.3297434381557851e+00
    -4.4925101879857614e+00 4.9342259872364886e+00
    -4.1067608892144314e+00 4.2856379342933018e+00
    -3.3037565255509924e+00 4.4710705493312490e+00
    -3.5786820840844427e+00 3.8956381884725362e+00
    -2.9116013306400301e+00 3.6293844476475550e+00
    -2.6102608608380184e+00 3.2274274175948969e+00
    -1.9850128710158412e+00 2.9524836724003194e+00
    -1.2695020689349721e+00 2.9441720437344276e+00
    -1.1708313899957137e+00 3.2178241037999671e+00
    -7.6624277527102358e-01 4.1421674147013032e+00
    -4.6344619535658071e-01 4.0939442576076335e+00
    -4.7208877312210440e-01 5.4065545064556950e+00
    -3.3182808457746399e-01 3.4086899996320095e+00
    -7.0094371209873729e-01 3.1234060241605204e+00
    -1.1216857620728578e+00 3.3441390647641582e+00
    -1.7694563493690096e+00 3.7354423316759231e+00
    -2.4861818777883786e+00 4.1744277325908765e+00
    -3.0578155247227228e+00 4.2843994877176561e+00
    -3.2126709278250623e+00 4.0715200695592157e+00
    -3.0385594718422828e+00 3.8825361099436586e+00
    -2.8613041756423887e+00 4.0078793156161758e+00
    -2.9547263548336851e+00 4.1092304857830930e+00
    -3.0011131582752628e+00 4.1204409080882956e+00
    -3.0274293434520447e+00 4.2749227463726234e+00
    -3.2209076345832899e+00 4.4427865916871907e+00
    -3.4107584994970104e+00 4.5785681077253653e+00
    -3.5190835126435500e+00 4.8085754752864327e+00
    -3.6834621839899739e+00 4.8691603946753208e+00
    -3.7163527706848729e+00 4.6832202936826901e+00
    -3.5833178805638974e+00 4.9194541368664009e+00
    -3.8305720641028707e+00 5.4228166528483186e+00
    -4.2600672625064835e+00 5.0898222947996761e+00
    -3.9247188818894623e+00 4.8843779697940173e+00
    -3.6935717955245320e+00 4.9405307435312515e+00
    -3.7277451454297257e+00 5.1922963256412924e+00
    -3.9263519336578407e+00 5.0815470910128093e+00
    -3.7830083472274785e+00 4.8390540883118600e+00
    -3.5190018834266894e+00 4.7248565614213867e+00
    -3.4285382735865539e+00 4.7526314789382464e+00
    -3.4256072700418021e+00 4.7253654915256504e+00
    -3.2721776105198330e+00 4.3590142993063603e+00
    -2.7866737655671341e+00 3.8670610711644713e+00
    -2.1761370778097580e+00 3.5346179217640885e+00
    -1.4887978848877086e+00 3.6256009687697985e+00
    -9.1212453585338105e-01</input_scale>
  <output_scale>
    5.2631578947368418e-01 4.9999999999999994e-01 5.2631578947368418e-01
    4.9999999999999994e-01 5.2631578947368418e-01 4.9999999999999994e-01
    5.2631578947368418e-01 4.9999999999999994e-01 5.2631578947368418e-01
    4.9999999999999994e-01 5.2631578947368418e-01 4.9999999999999994e-01
    5.2631578947368418e-01 4.9999999999999994e-01 5.2631578947368418e-01
    4.9999999999999994e-01 5.2631578947368418e-01 4.9999999999999994e-01
    5.2631578947368418e-01 4.9999999999999994e-01 5.2631578947368418e-01
    4.9999999999999994e-01 5.2631578947368418e-01 4.9999999999999994e-01
    5.2631578947368418e-01 4.9999999999999994e-01 5.2631578947368418e-01
    4.9999999999999994e-01 5.2631578947368418e-01 4.9999999999999994e-01
    5.2631578947368418e-01 4.9999999999999994e-01 5.2631578947368418e-01
    4.9999999999999994e-01 5.2631578947368418e-01 4.9999999999999994e-01
    5.2631578947368418e-01 4.9999999999999994e-01 5.2631578947368418e-01
    4.9999999999999994e-01 5.2631578947368418e-01 4.9999999999999994e-01
    5.2631578947368418e-01 4.9999999999999994e-01 5.2631578947368418e-01
    4.9999999999999994e-01 5.2631578947368418e-01 4.9999999999999994e-01
    5.2631578947368418e-01 4.9999999999999994e-01 5.2631578947368418e-01
    4.9999999999999994e-01 5.2631578947368418e-01 4.9999999999999994e-01
    5.2631578947368418e-01 4.9999999999999994e-01 5.2631578947368418e-01
    4.9999999999999994e-01 5.2631578947368418e-01 4.9999999999999994e-01
    5.2631578947368418e-01 4.9999999999999994e-01</output_scale>
  <inv_output_scale>
    1.8999999999999999e+00 -9.4999999999999996e-01
    1.8999999999999999e+00 -9.4999999999999996e-01
    1.8999999999999999e+00 -9.4999999999999996e-01
    1.8999999999999999e+00 -9.4999999999999996e-01
    1.8999999999999999e+00 -9.4999999999999996e-01
    1.8999999999999999e+00 -9.4999999999999996e-01
    1.8999999999999999e+00 -9.4999999999999996e-01
    1.8999999999999999e+00 -9.4999999999999996e-01
    1.8999999999999999e+00 -9.4999999999999996e-01
    1.8999999999999999e+00 -9.4999999999999996e-01
    1.8999999999999999e+00 -9.4999999999999996e-01
    1.8999999999999999e+00 -9.4999999999999996e-01
    1.8999999999999999e+00 -9.4999999999999996e-01
    1.8999999999999999e+00 -9.4999999999999996e-01
    1.8999999999999999e+00 -9.4999999999999996e-01
    1.8999999999999999e+00 -9.4999999999999996e-01
    1.8999999999999999e+00 -9.4999999999999996e-01
    1.8999999999999999e+00 -9.4999999999999996e-01
    1.8999999999999999e+00 -9.4999999999999996e-01
    1.8999999999999999e+00 -9.4999999999999996e-01
    1.8999999999999999e+00 -9.4999999999999996e-01
    1.8999999999999999e+00 -9.4999999999999996e-01
    1.8999999999999999e+00 -9.4999999999999996e-01
    1.8999999999999999e+00 -9.4999999999999996e-01
    1.8999999999999999e+00 -9.4999999999999996e-01
    1.8999999999999999e+00 -9.4999999999999996e-01
    1.8999999999999999e+00 -9.4999999999999996e-01
    1.8999999999999999e+00 -9.4999999999999996e-01
    1.8999999999999999e+00 -9.4999999999999996e-01
    1.8999999999999999e+00 -9.4999999999999996e-01
    1.8999999999999999e+00 -9.4999999999999996e-01</inv_output_scale>
  <weights>
    <_>
      -1.0511714287633193e-01 -1.0672767197637377e-01
      -7.4936578771954879e-02 -2.5546468668864342e-01
      8.7995836824472845e-02 4.0603324820869374e-01
      -8.3675154717790634e-01 7.0400156096909539e-01
      -5.6720700498793108e-01 5.4901563707187084e-01
      3.5950895461661342e-01 1.9017713260659411e-01
      1.4736743179829013e+00 1.5901574440248825e+00
      -1.2778919636241481e+00 -4.7147981772659142e-01
      5.1487310700538136e-01 1.1678604747238042e+00
      -9.2294390029766082e-01 4.0931641657338247e-01
      -3.4753766120836288e-01 -3.4344356858101655e-01
      -1.4419195097002482e-01 -1.4159651876150441e+00
      -1.0582236783295504e+00 6.6344900127796913e-01
      6.0799056921346573e-01 1.5187555760001323e-01
      -5.1517343450071806e-01 -3.2899697747539774e-01
      -8.6568273414349261e-03 5.9467254828955673e-01
      -3.1969810641904151e-01 2.8664990181101985e-01
      7.4959653568012741e-01 -4.5034041040525427e-02
      -2.8552238442441313e-01 4.8084031258415469e-02
      4.9597831891424421e-01 1.0961436503555171e+00
      7.3555765619446301e-01 9.8885024218301454e-01
      5.8797542059779606e-01 -5.8298250061409251e-01
      6.7428169661385307e-01 1.1433900986733874e+00
      1.2625657578423660e-01 1.0902698310642414e+00
      1.4029055036993805e+00 -4.0542294997922967e-01
      1.0246859306735671e-01 -9.6703064864976362e-01
      1.0632290315897210e+00 -1.0282709314550578e-01
      3.9043347543763240e-01 -3.9544861147295368e-01
      1.1178425153620504e+00 -3.3900410597351555e-01
      1.4477748818385918e+00 8.6137350410402450e-02
      -7.0854221125974493e-01 -8.3946129885637621e-01
      7.0264705128597393e-02 -3.7611329038454006e-01
      -6.0610665302544935e-02 -9.2593590048148253e-02
      4.1152768622369246e-01 -2.0447059353942829e-01
      2.4279764579890956e-01 4.7105711068230977e-01
      -5.0953566640100056e-01 5.8745359522554907e-01
      -4.7903931858850213e-01 -8.1549788569935128e-03
      2.4801783116049944e-01 4.1952626963394288e-03
      1.2021431001706442e+00 1.3194259532676553e+00
      -9.4137675777391772e-01 -6.7867071616629071e-01
      5.4000000451430075e-01 6.9120950392928049e-01
      -8.8981243811849309e-01 3.8584519136012491e-01
      -4.3471435075180448e-01 -3.8506751779797233e-01
      1.8093656568518515e-01 -1.2783476835560679e+00
      -8.7410703759387098e-01 4.2984247544631599e-01
      6.0036604251461179e-01 3.6797078715959455e-02
      -4.9569482354681854e-01 -7.6170929709324464e-01
      2.2126059512750818e-01 7.8879937777642939e-01
      -3.3659891078958293e-01 -2.8162695140625506e-02
      8.3737414097894169e-01 -1.9969808567775058e-01
      -1.1210225727829813e-01 5.4339919819534038e-02
      7.8239873945692706e-01 7.8567991942574089e-01
      5.0015014831584392e-01 8.0259637974644338e-01
      5.2895271585610981e-01 -1.0498119673385231e+00
      7.6966469741769361e-01 1.1480503168158749e+00
      -3.5169721641514229e-01 1.0548666390826711e+00
      1.0050644097639287e+00 -2.4043027306983344e-01
      3.3224798631941660e-01 -9.5527397729880914e-01
      5.9932696629979276e-01 9.7956201650286595e-02
      4.3446228618061389e-01 -4.6506579992862873e-01
      9.6348700169851809e-01 -4.8078027152321828e-01
      6.9948632389087062e-01 7.6616220702907675e-02
      -6.6228589088316359e-01 -7.2100839784543258e-01
      -3.0658044610245860e-01 -1.8339283301122314e-01
      -1.5789357589037298e-02 -6.9120030633985405e-02
      1.0697839721899201e+00 -1.4985245422792320e-01
      3.7756452326624179e-01 7.4527310678399561e-01
      -1.5749138675996313e-01 5.3088101012366040e-01
      -5.0923492877462528e-01 -8.9166474054964839e-01
      7.1806481244178155e-02 -2.5076124823593499e-01
      8.5338282428058621e-01 9.1162232539499977e-01
      -3.6490913183309437e-01 -8.2435038700284347e-01
      5.6455271359342762e-01 -2.7783289654210463e-01
      -8.8130681460103188e-01 9.1779479748228393e-02
      -7.3748919706869742e-01 -1.6266271958641226e-01
      6.0471952385508643e-01 -9.7941566074049058e-01
      -3.1678746396654833e-01 1.1944949365912513e-01
      2.8807785994972956e-01 -2.0812454175263306e-01
      -5.5586038600823773e-01 -1.4696019182754094e+00
      4.0284346637774970e-01 7.6615515112983679e-01
      -8.1564579066157258e-02 -3.6784891419202170e-01
      7.7363820270554207e-01 -2.4914701843256937e-01
      1.4477138572109755e-01 3.7067149931660007e-02
      1.2828074915286511e+00 2.2319852262066933e-01
      4.5094772408756485e-02 7.5198452617598310e-01
      3.2273276967862174e-01 -1.2501385632794348e+00
      9.0354826078665407e-01 1.0416484601428140e+00
      -7.6621692157374899e-01 9.9181219433469991e-01
      6.2618902930676634e-01 -1.1367256492836994e-01
      7.2934924263841017e-01 -7.3761327068267646e-01
      -3.0461720459696836e-03 3.3772036904023067e-01
      5.3342339779260128e-01 -5.5756643419672691e-01
      4.6248873050471373e-01 -6.8263204695261248e-01
      -5.9635232444126302e-02 2.3319013742129016e-01
      -3.7516924362970677e-01 -6.7268540992446280e-01
      -8.7848145680403400e-01 1.8203328334961227e-01
      -3.2082153453941298e-01 1.9209353809990193e-01
      1.0103659736523802e+00 -4.4713424558835085e-01
      4.5738546138963659e-01 9.9628380587964194e-01
      2.1991960314588321e-01 5.7744253070522855e-01
      -2.3574724977442252e-01 -1.1295016722735107e+00
      2.5480904473646754e-01 -6.7993872893677532e-01
      7.3056808225336745e-01 1.3333965137567214e+00
      -3.7503197089971685e-01 -4.7838375910703618e-01
      -4.1907488546562843e-02 -2.3080929903683631e-01
      -1.1786369000849903e+00 -8.5366190977990253e-02
      -6.7426818710625647e-01 5.6777542454765562e-01
      4.1873938454257353e-01 -7.9920973318723387e-01
      1.9336140267407750e-02 5.3851332000650398e-01
      -1.6077479930427654e-01 -2.9231651250744946e-02
      -8.9821359187715200e-01 -1.8927594189636983e+00
      4.3030194659338045e-01 1.4717871604665464e-01
      -1.0270163043200974e-01 -3.0769244451789868e-01
      4.6579416475135549e-01 -2.8179755462967543e-01
      8.2898409580439159e-01 -7.7780722632569921e-01
      8.3964073201392847e-02 5.3584224014548702e-02
      7.6728975912624522e-02 7.9906133699795312e-01
      2.7679478396384050e-01 -1.0672673239541086e+00
      4.7760548352024262e-01 9.6655479145867162e-01
      -5.3066727007311087e-01 7.4439362360353367e-01
      6.7497263083644987e-01 -9.8148248897635109e-03
      1.0868702343232313e+00 -6.8963212408065877e-01
      -9.0389651237882895e-02 5.2762312338681072e-01
      -6.9557193198478848e-02 -7.7353044931134129e-01
      -1.9693738530055765e-01 -1.9642493693498935e+00
      9.7420830935206430e-03 -8.8462848662559407e-02
      4.0699292524801721e-02 -4.5371598139877539e-01
      -7.6951279611191148e-01 -8.2558314522054504e-02
      -5.5324912560254857e-01 2.9373121159267329e-01
      6.5670874108367105e-01 -9.1427902191411792e-01
      6.0600425047097262e-01 1.1358070600560448e+00
      2.0592914284960723e-01 3.4236620161698222e-01
      1.8626890379510458e-01 -7.4659071447944247e-01
      -1.0367341197817344e-01 -3.7079195646759688e-01
      5.8629161000939167e-01 1.4946028086052243e+00
      6.5799025498568350e-02 4.7296907813324129e-02
      -5.4998030282817856e-01 -5.8933360017748557e-02
      -9.0029164255826610e-01 -3.5866696358447298e-01
      -5.7150377510695294e-01 9.4716325925651312e-01
      1.2903645862241134e-01 -7.5064797359414714e-01
      1.6062204076777015e-01 2.1877609009816140e-01
      -6.3299355189565132e-01 -3.9619070601065914e-01
      -5.7962433494295007e-01 -1.5301679806906374e+00
      2.6002647942648997e-02 -3.7540464947369817e-01
      5.4501138616753368e-02 -4.8869194144340301e-02
      4.7296361826846517e-01 -2.8507664470434035e-01
      1.3195809972056507e+00 -8.6394447937975838e-01
      -7.7890900036121191e-01 3.0475718394728474e-01
      -1.2152649977075608e-01 7.7984498641107824e-01
      9.7785317433421282e-02 -3.2058262203063603e-01
      -1.2251314020828155e-01 6.8472600291952113e-01
      6.3040527569687838e-02 2.9354806760066088e-01
      1.2647141762382013e+00 1.2909962934123590e-02
      1.2821553585830630e+00 -9.3322391278018135e-01
      2.0238567911568356e-01 1.4096419571256197e-01
      -6.2724513047520691e-01 -6.3582263453601273e-01
      -7.2623402273853488e-01 -2.4239836071921865e+00
      5.4165893420186728e-01 -3.4181868286910527e-01
      2.0273210411389936e-01 7.1691798126161093e-03
      -2.2345065465666319e-01 -3.2919701113497896e-01
      -5.8248806647160201e-01 1.2822483544750080e-01
      3.8666602259786331e-01 -1.1151700018789656e+00
      7.3036182459894339e-01 1.3601526528717487e+00
      -2.6825032455889342e-01 3.1156304958523902e-02
      7.5498980804895000e-01 -5.0225314364141305e-01
      -3.0838445912022117e-01 -3.2135416628325436e-01
      4.6977128786799316e-01 1.2845660739509037e+00
      7.5624987935889565e-01 8.4602117520264175e-01
      -5.6884068163077550e-01 3.1117842183541194e-01
      -7.5973235915014381e-01 -9.7955654470852993e-01
      -2.5080681821799927e-01 5.4481108698795622e-01
      1.1370806765457982e-01 -6.4305831720193041e-01
      4.9351507165688618e-01 -7.6118115544273460e-02
      -7.1474756504564008e-01 -1.0744621197992219e+00
      -4.0475712404681147e-01 -8.0830282570670542e-01
      -2.6038979216685226e-01 -7.2172048774300157e-01
      2.4551798016568269e-01 2.6297905236153130e-01
      2.0425168610606137e-01 -1.2977737795773025e-02
      1.3264753143381129e+00 -5.6983834295139113e-01
      -1.2743429276925824e+00 3.3941543594656293e-01
      -1.5860490463776145e-01 9.2434931436044077e-01
      1.3812493482334113e-03 1.2494382870083540e-01
      -3.0280339112939797e-01 5.1218152646526971e-01
      4.6873950031078682e-01 -1.4631597915247888e-01
      1.6942822571207814e+00 -1.0630437173771412e-01
      1.3951205856011422e+00 -1.2118420736776685e+00
      2.6175231784072001e-03 -5.4669143653372532e-01
      -5.0745032619825592e-01 -5.6637685140255278e-01
      -9.0278091975428243e-01 -1.7766267788044807e+00
      6.0291624792918130e-01 -8.6886216532293969e-01
      4.4772565023921446e-01 2.7260264571298193e-01
      -7.3298558826739094e-02 -7.0196379118520080e-01
      -3.7423174523784242e-01 -4.0745258550349966e-01
      6.1241117588909322e-01 -1.1174240398095785e+00
      5.2669545981333810e-01 1.0456685334613429e+00
      -1.7292255336306064e-01 -3.3870232390984617e-01
      8.9137878299747475e-01 -4.0235620038026515e-01
      -5.5743947607639388e-01 1.7076277926162525e-01
      8.8617712513159985e-01 4.1320445075383677e-01
      8.5901851335404544e-01 6.9377914324034795e-01
      -9.4098143418767446e-02 1.0021124117683517e-02
      -3.8144876579315740e-01 -1.3808495350220937e+00
      -5.4287841380045010e-01 2.6068339901048720e-01
      -1.2771013076621556e-02 -7.6539962251805838e-01
      1.0426757690424022e+00 -4.8021092575525276e-01
      -5.1709175972575894e-01 -1.5421913079156275e+00
      -1.0861694297172821e-01 -6.8978899451313233e-02
      -5.3937482276395565e-01 -4.9298184745934065e-01
      7.2788559033729341e-02 3.1261126117623578e-01
      3.9299841321548762e-02 -1.0949727060341884e-01
      9.2360915872960170e-01 -5.2975476080233697e-01
      -1.4367494837699395e+00 -2.5572999027663607e-01
      -3.3793497786269139e-01 1.0507329714644273e+00
      2.2447068116522742e-01 2.0496691126660344e-01
      -2.3024145442637917e-01 6.7494948006562827e-01
      8.8706710273889677e-01 -3.3054572050233633e-01
      1.5960454165294449e+00 2.0716425996362445e-01
      1.1432866585138848e+00 -1.0555920226017115e+00
      -4.6718795716001721e-01 -7.7847441099295844e-01
      -4.1098981077449548e-01 -6.0013920613128502e-01
      -6.3640239228737261e-01 -8.7538538311180980e-01
      1.7786383834768046e-01 -1.0259283857885524e+00
      6.1414555973051133e-01 6.5740128927646435e-01
      1.0992075349685065e-01 -6.4559400043538906e-01
      -6.4048839758971510e-01 -5.2699819394377589e-01
      1.1291863357776526e+00 -8.9505911613762978e-01
      8.0233252891541096e-01 5.0778238442964596e-01
      9.5601333286625775e-02 -6.4900915397162751e-01
      6.4112828187375481e-01 1.4640724414741962e-01
      -8.8205497917272468e-01 8.4304313274483689e-01
      1.2361461690165145e+00 -3.0614942136436391e-01
      3.8196997476959665e-01 1.6700187721041107e-01
      5.5008150816624901e-01 -1.6457358846345504e-01
      -2.4274956027843275e-01 -1.6405852291545360e+00
      -3.7782992113073188e-01 1.6058652953385658e-01
      2.7654027563793648e-01 -9.8797443525707729e-01
      1.5920955434069641e+00 -7.7592792540667288e-01
      -5.5485855572047560e-01 -1.1231522897582760e+00
      -3.1912558007889491e-01 2.6647561270272430e-01
      -6.0183555411031009e-01 -1.7802528626858061e-01
      -3.8604346211786078e-01 2.1038192785190699e-01
      1.1772779882512895e-01 1.5366792407402230e-01
      7.1843316858657613e-01 -4.9343137934740661e-01
      -1.6243030268142638e+00 -4.9920799290391928e-02
      1.8168511292535941e-01 1.0416775513729122e+00
      4.0763074220284057e-01 -6.6175707672383968e-02
      -5.5726200921003173e-02 9.1808870209458970e-01
      1.1821705469496153e+00 -5.6684396124112246e-01
      1.1106376848332069e+00 6.4626753403711634e-01
      7.0258026267839269e-01 -6.9317371875184253e-01
      -3.5768184438519657e-01 -7.7045253976775629e-01
      2.0238446745026517e-01 -5.6712623684018670e-01
      -1.3192439913119958e-02 -3.0839169221701535e-01
      1.1351008307426745e-01 -9.9653330968185005e-01
      4.8629295380124643e-01 8.2328827973791963e-01
      -7.4688507475889135e-02 2.2219711048473381e-01
      -5.7049897335059596e-01 -4.6323528415091120e-01
      9.5569685403778271e-01 -8.8494970279621099e-01
      9.2553688817559554e-01 6.1256943824294315e-02
      3.9695612675779707e-01 -3.7899729479932681e-01
      -1.8469573701607606e-01 3.5600877820944637e-01
      -5.0281592001721642e-01 1.6214221912713707e+00
      8.4734826482367775e-01 -7.7602052301996371e-01
      -3.3633368724626350e-01 -5.6360528037347546e-01
      1.0687787185723054e+00 -1.0173183327401696e+00
      -5.8200295582378458e-01 -1.5254166652784971e+00
      -4.5832212033924602e-01 -1.2442589987118373e-01
      1.1011352113424631e-01 -1.6865695026470084e+00
      1.5895783610731611e+00 -9.9359520724844907e-01
      -2.0483660298307477e-01 -1.0388829587274420e+00
      -3.0120429500296697e-01 -5.9335910925903443e-02
      -6.6494299679639979e-01 -5.7365254968842786e-03
      8.0934568749813085e-02 1.1045994953378599e-01
      -2.7563228013657407e-02 4.6760578949874226e-01
      8.3163440023854163e-01 -4.0878890648008082e-01
      -1.2838035347264438e+00 2.3557422457310603e-01
      5.6503253177544166e-01 5.1974939872561476e-01
      3.1891411118404339e-01 -2.1602146933979430e-01
      3.1219273639357298e-01 5.0134356726702922e-01
      9.0463496002859289e-01 -7.1898156136280345e-01
      6.5390270357206182e-01 8.0737368824845723e-01
      7.4168821170230503e-01 -2.5917391144432195e-01
      -4.0932881605583443e-01 -4.5183681956431165e-01
      9.2517032723021830e-01 -2.7711701243923215e-01
      2.7651812226782779e-01 -8.5220924091775463e-01
      -3.8330072994114797e-02 -6.7049546472312394e-01
      2.8515773335821631e-01 6.8879375241991159e-01
      -6.9687779309956444e-01 3.7142942123304579e-01
      -3.2736606781603245e-01 -3.3662482204832461e-01
      7.0420383980813850e-01 -3.9556434192707496e-01
      7.8799315119112956e-01 -6.6073970868853982e-01
      6.0567314919876947e-01 -8.6602411698294066e-02
      -3.0929993541642709e-01 3.2465211652179832e-01
      -8.9036772471534287e-01 1.6413764623006264e+00
      9.5267204251375248e-01 -4.9298654367777939e-01
      -9.4791639095351810e-01 -9.6368530996017887e-01
      1.1014991169728892e+00 -1.4113524265831903e+00
      -6.0606514125360245e-01 -1.0919820910330218e+00
      -3.0887341533960760e-01 -2.0953849720241097e-01
      2.4713741847712573e-01 -1.7744439196269712e+00
      1.3921548162268711e+00 -7.8203807107173851e-01
      1.2980266694898596e-01 -7.9121749849043577e-01
      -2.9747538686228958e-01 -2.0451969985689006e-01
      -3.0329455836168967e-01 -9.7184063827181533e-02
      8.0522281222783010e-01 7.4351607202796266e-01
      -5.8864550840280298e-02 1.0197696669436445e+00
      5.0022520290547401e-01 -4.8213200014572760e-01
      -1.2448474963206193e+00 8.0636381190865372e-02
      5.5366279706941179e-01 -6.2244148161895206e-03
      1.9361605217721800e-01 -3.1206851614648123e-01
      6.2729479457559090e-01 4.3126672260797932e-01
      5.5824870808701965e-01 -6.6890615899061279e-01
      5.5241848354330769e-01 5.9342699425127654e-01
      1.0523165785196422e+00 2.6850544491603084e-01
      -2.6515944157908894e-01 -5.7114682044087084e-05
      9.0017688955947139e-01 -6.0558312561492071e-02
      1.7441177075230072e-01 -1.3996805876315788e+00
      -5.8025527929787035e-01 -8.3072462900515609e-01
      1.8503194783269231e-01 4.1829829138107094e-01
      -7.9380211939214396e-01 1.2884450679169804e-01
      -1.4065395679660142e-01 -2.8552006141323010e-02
      4.1969611875668189e-01 1.1468875298343839e-01
      1.1098116631456505e-01 -7.7985074527310083e-01
      9.2089634128612219e-01 5.6402635357392011e-02
      -3.2215436089290339e-01 1.2392805451800977e-01
      -1.1370773399518299e+00 1.3015557376800679e+00
      8.2862625934650258e-01 -2.9970146871288267e-01
      -1.9333195875321785e+00 -1.0286306567376942e+00
      1.3042989881908658e+00 -8.5883839930667549e-01
      -3.6726860547193552e-01 -6.8491663157359106e-01
      1.0096891444316591e-01 4.4537521401906990e-02
      2.2259271091459937e-01 -7.6281727268412081e-01
      9.1550506225860440e-01 -5.5560686530532721e-01
      1.3622760058506692e-01 -8.6817718128881050e-01
      -4.7361781136373338e-01 -1.8841885162875954e-01
      2.3709217718552525e-01 -3.9755830547383762e-02
      1.1614676790074103e+00 1.1898032849713216e+00
      -2.1741751112052429e-01 1.1431987760320450e+00
      1.8716964140256864e-01 -5.4415206632241553e-01
      -1.2511121439987218e+00 -2.0779517743855688e-01
      7.9183320449411188e-01 4.7334186213864010e-02
      7.4051249217308837e-02 -1.7344961852122440e-01
      8.1815674695488716e-01 -4.3198092660277625e-02
      5.0858835241827094e-01 -3.0582517109718721e-01
      8.2935969437822910e-01 3.8586709595717444e-01
      1.1512915833590278e+00 8.9049631121685768e-01
      -5.6426580584772856e-01 2.0332386037742073e-01
      4.1728125907075175e-01 -3.2877668785558095e-01
      -1.0468389149023583e-01 -1.3315080545394371e+00
      -1.1864600691371250e+00 -8.8234384041342595e-01
      -3.6277264737530307e-01 8.6314993631021547e-02
      -6.0576976484616951e-01 8.2415844023347132e-02
      -2.6188632151504193e-01 4.4190932560041341e-01
      2.5301959647344313e-01 1.4567275401917506e-02
      -2.8975707888918545e-01 -5.7180094429396555e-01
      9.0106734575072223e-01 1.5017779696552652e-01
      -3.6361617220875098e-01 1.2931057702294116e-01
      -9.8905370602538911e-01 8.4152779257143184e-01
      6.9649680627098665e-01 -1.1699282814937903e-01
      -1.9450103110539809e+00 -8.4410879079348722e-01
      1.2891823116879439e+00 -8.0443919416371934e-01
      5.3209126387046529e-02 -8.0431673653302882e-01
      2.6804835376352942e-01 8.7848837325542151e-01
      -2.9831606722694570e-01 1.6862795657500335e-01
      7.3811302348558072e-01 -3.4531342066002418e-01
      7.3694837790005241e-02 -1.7046661351423338e+00
      -7.0206038522687730e-01 -2.6690719242317351e-01
      1.0502344430494930e+00 -1.8963637686339885e-01
      1.3735578864951468e+00 9.9130240626920307e-01
      7.5256876795742139e-02 7.5639153882158738e-01
      -7.0986911477133957e-02 -4.3745250484215709e-01
      -9.6422107834960169e-01 -6.5430660568058097e-01
      8.2598766295057269e-01 -2.5302975775683312e-01
      1.9081268627767478e-01 -4.1968456032032053e-01
      9.1957544668296498e-01 -1.6448430772650657e-03
      6.7539347188503529e-01 -3.4064964325386365e-01
      4.8624572534756150e-01 -1.4876982765195881e-01
      8.3962364098956754e-01 1.0693163445034828e+00
      -7.4360065549417986e-01 -2.0700050303280598e-01
      3.8596611809770316e-02 -7.0949009517876394e-01
      -3.7477214133869757e-01 -6.5121540244092879e-01
      -1.4261996696528478e+00 -8.4589802729921648e-01
      -6.5084338230407834e-01 -2.0014817407870736e-01
      -8.6096242991466509e-01 -9.4573912821755410e-02
      -7.9196644158203329e-03 6.2657729136754936e-01
      1.2686644074326642e-01 -7.2868473672027187e-02
      -4.5542713381975508e-01 1.8122155547997540e-01
      8.3425116197592231e-01 3.6351997813680581e-01
      -4.2926886439948569e-01 1.4524376620119056e-01
      -6.6347457168768642e-01 2.7670278350549199e-01
      9.0573395260157652e-01 -1.8471715465709845e-01
      -1.0280685224429218e+00 -3.7034690199888698e-01
      1.1190042600589805e+00 -4.4925622572527490e-01
      -1.1079696855305350e-01 -4.7797631927246909e-01
      6.4547498086707775e-02 1.6444759179519284e+00
      -2.9441598349103137e-01 5.0553280809787782e-01
      4.8046218693872478e-01 1.5321353495020329e-01
      -1.8398740627199500e-01 -1.8938755379758150e+00
      -8.6640334598055690e-01 -2.8680404326204578e-01
      1.4023200895068451e+00 -2.5185751257051442e-01
      1.5426519204050708e+00 5.1105792148762985e-01
      1.5109167862421341e-01 2.4290495809176241e-01
      -3.7321210924168924e-01 -2.9834896397271032e-02
      -4.0344477600752843e-01 -9.5609200675659001e-01
      6.1002086756386520e-01 -5.3180606671904296e-01
      1.0953344242864049e-01 -4.4368731656112015e-01
      7.8998048133495902e-01 4.3092963493384547e-02
      1.1613871365858548e+00 -1.4471777644373135e-01
      1.4223266359197889e-01 -6.8701798975491990e-01
      2.9369911141169436e-01 1.0710799654827545e+00
      -8.5869010303368065e-01 -6.1361558141268691e-01
      -1.4790778055826756e-01 -1.1562243661493792e+00
      -3.3130881183228594e-01 -1.6480080147788190e-01
      -1.6797158215832784e+00 -2.2901991776999883e-01
      -7.6016681692821164e-01 -2.4045056737286935e-01
      -1.0472116614904290e+00 7.5915261724414165e-02
      4.1768502685069070e-01 2.5454426119727375e-01
      3.6500203744368898e-01 -4.3650999214907937e-01
      -5.6422677829151091e-01 7.1964036553407262e-01
      5.9739094193513753e-01 4.2935275110961835e-01
      -7.3997780164058702e-01 1.7481084248317061e-01
      9.6231540402092711e-02 -2.3555828604989681e-01
      7.2234993576645579e-01 -4.3718308753666346e-01
      8.2607087895172154e-02 -1.5608004426492164e-01
      7.2714314215806364e-01 -2.2698211472180135e-01
      -2.7681742630061162e-01 -1.7503793723285480e-01
      -6.3421725420004171e-01 2.2501098577379635e+00
      -1.0657111092353411e-01 8.4287487149476847e-01
      2.4233703185889335e-01 4.1634650435642695e-01
      -4.0434317036287708e-03 -1.2284371402225598e+00
      -1.0349248605622108e+00 -9.6979736471850223e-02
      1.2834067160479905e+00 -4.3850732896736277e-01
      1.1837608322664115e+00 1.7539779677732761e-02
      1.8295101962974644e-01 -1.3723323579418734e-01
      -4.7062225101255817e-01 1.0042847919247502e+00
      4.3793358610145278e-01 -9.3553643895602234e-01
      6.2549081666830497e-01 -8.1828747541264635e-01
      -4.5222330498710508e-02 -4.8766812713389796e-01
      7.1583476101265675e-01 9.2116373814017286e-02
      1.3357828540131422e+00 1.1258207390703301e-01
      1.3495760547941832e-01 -1.1494254657825309e+00
      -1.5998211007696583e-01 1.2017223810112696e+00
      -8.3742150308437602e-01 -8.2408808711185699e-01
      -7.3364159100128959e-02 -1.2727525767837529e+00
      1.2048531786202412e-02 -1.8297507857025611e-01
      -1.6829329191502900e+00 2.4848065646689629e-01
      -7.9814432489430809e-01 -1.3474503347793323e-01
      -1.2190684323551551e+00 2.9296184261224445e-01
      8.9288584782217939e-01 -7.8856970955391847e-02
      4.1277586819925977e-01 -4.4120397414761259e-01
      -9.2293855568839700e-01 8.2476795920029466e-01
      4.1199701010870510e-01 1.2640887465836359e-01
      -8.6321979689188466e-01 5.8519573740335951e-02
      2.2882948777245385e-01 -1.5430102203381238e-01
      6.4081241818990597e-01 -9.8921858787589012e-01
      9.3914124551081002e-01 -5.7836343164332941e-02
      -4.2100065301003044e-03 -4.1238908127844059e-01
      -1.8587354539937906e-01 2.6015785595713664e-01
      -6.9158951520085588e-01 2.3393313586874704e+00
      9.1877575992672489e-01 7.3760448758054731e-01
      1.7966311008480712e-01 7.4226832388050656e-01
      1.5716495130160371e-01 -5.1351329268175983e-01
      -1.1005645615765203e+00 1.1409326053416582e-01
      4.8907807103305212e-01 -3.6160143939639074e-02
      2.9460791688658333e-01 -1.7526581483302722e-01
      -1.1087857163854760e-01 3.7233644992366349e-03
      -3.3012996405046680e-01 1.3247274658995163e+00
      8.7442280173287423e-01 -2.4208243902527332e-01
      1.5217211635916972e-01 -4.4755202887247031e-01
      -5.4423499452193311e-02 -4.4007290831458096e-01
      3.5706535729134881e-01 -2.3774266730439028e-01
      1.3109601030123013e+00 2.0273259021855489e-01
      -1.0190019984781619e-01 -7.0330346483173778e-01
      -5.5897375271700789e-01 8.0907947974233152e-01
      -7.9393973356580860e-01 -5.8920477988421660e-01
      -3.9948145575547112e-01 -1.0495212029792540e+00
      2.2057520399916966e-01 -8.5962198200184525e-01
      -1.3898864689525665e+00 1.1724549896813259e-01
      -5.8692371277698374e-01 3.8889036641938957e-01
      -1.1890598832760872e+00 1.6433096944900724e-01
      1.2187513617176826e+00 -2.5698964399654700e-01
      1.2618324025338817e-01 -2.9679149307017083e-01
      -7.0759654111235160e-01 6.6201860268304136e-01
      3.6575955695972218e-01 -1.7427605250168171e-01
      -1.1776532034176270e+00 1.4409221790075600e-02
      1.4506114362572856e-01 -2.6309382779079977e-02
      2.0044763531443557e-01 -1.1935940578715125e+00
      1.0754271388007144e+00 -3.0013565432879702e-01
      -2.8187613226515673e-01 -4.4713029900411044e-01
      2.3826594657441605e-01 5.0305184177696249e-01
      -3.2098976263312184e-01 2.1025415553778317e+00
      1.4132358117600854e+00 4.0164773364089168e-01
      1.6647560905900796e-01 8.7251786382549235e-01
      -4.8096777267467117e-01 5.3600147275779253e-01
      -1.3438223671448435e+00 3.9092434590512776e-01
      -1.1035738787891725e-01 1.5166448922636963e-01
      8.2884473095468467e-02 -6.8172332106332334e-02
      -2.3205266232703992e-01 2.4790872686672621e-01
      -3.6270909849522587e-01 9.5117296284141917e-01
      8.8363351850457450e-01 4.0628813053241258e-01
      -1.6315025417755147e-02 -1.7337703175194855e-01
      9.7739139100760375e-03 -2.4191360585079702e-01
      -3.6883534260832890e-01 -4.3945187231509431e-01
      1.3870836903598145e+00 2.4312855248485460e-01
      -2.1616044605026791e-01 2.7999015204301470e-01
      -6.0763132462193292e-01 4.0896522980145855e-01
      -2.6488335333988433e-01 -1.2428319560234954e-01
      -2.8465859414672429e-01 -5.2495588226675494e-01
      -2.5974590729505304e-01 -1.3382448356087326e+00
      -6.9199720220850436e-01 1.5003169164042507e-01
      -2.7366272137380954e-01 7.9133584605458651e-01
      -8.9892669424790628e-01 1.1588722886190851e-01
      1.3659663081916669e+00 -5.1488461365065741e-02
      -2.7028327911291478e-01 -1.5446076489520685e-01
      7.5996672560434436e-02 8.2331837476145686e-01
      2.7493605405628163e-01 -5.8041097079408122e-01
      -1.6210143371043610e+00 -1.9879751781840257e-01
      -1.3360391168150601e-01 2.6010039290208270e-01
      1.7523322521430349e-03 -1.0208231713251832e+00
      6.3577102539206420e-01 -8.5740484737854117e-01
      -1.7551410544044019e-01 -2.7040929363793043e-01
      -5.9961401743645421e-02 2.2062344563708139e-01
      -3.6117325495346875e-01 1.7667415195204801e+00
      1.6109120763063549e+00 -1.0152494238573935e-01
      -8.4186775779076559e-02 1.0549008557567592e+00
      -1.1935962801846007e+00 1.1102813296785128e+00
      -1.0735510447664520e+00 1.3132817058011134e-01
      -5.7976166796042872e-01 1.5226076163533805e-01
      3.4653540124115317e-01 1.1718926340329321e-01
      -4.8739404631167582e-01 1.6010988063952003e-01
      -1.5922613742277172e-01 2.7392293840281945e-01
      6.5131358953055862e-01 6.4243010322244987e-01
      -2.4009180313965087e-01 -4.1870573678950046e-01
      -1.3788798376632525e-02 5.1073298909006255e-02
      -1.2722034729813776e+00 -1.2025054044176808e-01
      1.0975180522132191e+00 8.4332871526265007e-02
      -5.1397284078709460e-01 6.9921437526351704e-01
      -3.9164706663395643e-01 -1.0330735169522482e-02
      -2.3374025170861534e-01 3.2185978799746377e-02
      2.3761881052573516e-01 -1.3745319056346234e-01
      -7.5281281046452930e-01 -1.4647556278911524e+00
      -1.5867780374412402e-01 1.8899580894032908e-01
      2.2524032281112630e-01 7.7743560755431695e-01
      -2.2208460929159832e-01 3.1850615255565984e-01
      7.1050943867963423e-01 2.6725721419696501e-02
      -4.2925794839835063e-01 3.5382371222292132e-02
      5.6425623740748776e-01 2.4264014971578635e-01
      -8.3195017695881474e-02 -5.8473866747912762e-01
      -1.8205402881459791e+00 3.3491863178663709e-03
      -2.5092483657575509e-01 6.3720439717397592e-01
      6.0164147708550393e-02 -9.0012110700308667e-01
      1.6533763382073249e-01 -9.0775299430006007e-01
      -1.1370439133437864e-01 -2.7897625818867894e-01
      -3.4038419630883734e-02 1.5871641718595456e-01
      -8.2276636076836729e-01 1.3130659463195558e+00
      1.2689039207415020e+00 -5.3305156175826640e-01
      -2.0427396645861517e-01 7.8205157653983992e-01
      -1.3328465849680122e+00 6.2608767458981551e-01
      -8.3732225593333587e-01 2.0243821447785273e-01
      -6.4210520040314467e-01 4.5207055890094183e-01
      6.1121313827184520e-01 1.7662068557257360e-01
      -5.1538371035092567e-01 -5.1210478726204219e-02
      -1.3132964660939415e-02 5.1800245451335392e-01
      6.7894298533962516e-01 5.5814160519429445e-01
      -8.2068002089084102e-01 -3.9305211568707760e-01
      -4.8004517801594926e-02 1.1227151664685781e-01
      -1.5813650819637226e+00 -5.3759972776809084e-01
      8.8046797157383883e-01 1.5830151413491866e-01
      2.5612148313962323e-02 5.5405844589410957e-01
      8.0429632417317390e-02 -1.2617812405410619e-01
      -6.0578459257835227e-01 -8.1908231170691376e-02
      4.2827127392014025e-01 -5.2548220296443404e-01
      -8.4209859573948609e-01 -1.2324677146058185e+00
      -1.5742768293965365e-01 3.2237370521904424e-01
      2.5550299905943474e-01 7.7873860061729872e-01
      -1.1010377347513026e-01 2.9451412524160037e-01
      -2.6925405767592320e-01 4.8788052172434110e-01
      -3.7052516187579715e-01 3.2153777461667778e-03
      5.1538929126574995e-01 -6.1778239077931352e-01
      -3.4288195083997208e-01 -3.3140892170633246e-01
      -1.6356297343891943e+00 4.3966346145915958e-01
      -4.9646817861177084e-01 9.6359619432291499e-01
      1.5611584738324508e-01 -1.1315069635812889e+00
      -3.3168710644890903e-01 3.1962654826548000e-03
      -3.7541646425534891e-01 -4.8131617169488661e-01
      1.4575738994351442e-01 4.2708026382369002e-01
      -8.3758562878871989e-01 4.8118636279310845e-01
      1.0691325149015296e+00 -7.5927282318094935e-01
      -4.3637193094227278e-01 2.9375812105708721e-01
      -1.2922997965065315e+00 -1.1798994165221610e-01
      -2.8921700685207480e-01 3.9659058134105019e-01
      -9.6739091242291986e-01 6.5135638310821986e-01
      4.3642462741523724e-01 2.4714773208512819e-01
      -1.9365244732251874e-01 -2.7578247311157056e-01
      -3.5793688997191414e-01 7.3894347968063567e-01
      4.0007941745567327e-01 3.8634375731048920e-01
      -7.8818992386617004e-01 -4.6629579485146733e-01
      8.2158830697712987e-02 -1.7147482299761213e-01
      -1.5670894605346988e+00 -8.9747945249563821e-01
      4.5063813482259713e-01 9.4350366785308434e-02
      -8.6592733022810009e-03 5.3487573959317514e-01
      6.4752265286788527e-02 1.2389651153670608e-01
      -7.3750937936455052e-01 -6.1992821333817805e-01
      5.1894895273708930e-01 -1.0504673331734959e+00
      -9.5818366753894002e-01 -1.5469019672550366e-01
      -2.7513885454382758e-01 1.5073099814885080e-01
      3.2601257827932062e-01 5.1438730824958756e-01
      -4.9236605335538482e-02 4.5756653100700512e-01
      -7.6785275529813046e-01 9.5469303407182704e-01
      1.2944318472079647e-01 -1.9931246639407410e-01
      2.3261175214014015e-01 -1.3565061975930395e+00
      -3.9631260112932892e-01 -5.9637673859856655e-01
      -8.1820205044102290e-01 8.1110357097253927e-01
      -7.6981134883589419e-01 7.0561840795633368e-01
      2.8053735247602039e-02 -1.4409636697865214e+00
      -4.7518416230444027e-01 8.1664699847216637e-01
      -8.0462366044085942e-01 -7.4476040717989989e-01
      -1.2121103267202955e-01 5.4116023322272022e-01
      -2.9298612802889995e-01 -1.7188350257715029e-01
      5.8013058420444363e-01 -1.3460527388799632e+00
      -3.4291281415800456e-01 -5.6026316795526179e-02
      -1.1824300503977048e+00 -8.5893968972288048e-01
      7.2249636974646925e-02 9.2466216314377445e-02
      -1.2083098900811948e+00 6.3103286323101426e-01
      1.4119216538411913e-01 -1.1068267328125882e-02
      1.6947175728823849e-01 -1.1695245286406672e-01
      -6.9488424265117388e-01 7.9607805854077829e-01
      3.9571717368671661e-01 4.0488887528932127e-01
      -4.3246727608213015e-01 -3.5799893098396568e-01
      1.4328358941985805e-01 -6.3440589325811159e-01
      -1.1389825291673892e+00 -8.5498897009690478e-01
      5.0102182121289529e-02 -1.0303661260902515e-01
      -1.8168793834669475e-01 5.5667748128872685e-01
      1.9635274902035971e-02 4.9169437378567682e-01
      -7.4224469780043867e-01 -8.2526998283143516e-01
      4.5331430326367855e-01 -1.2703157425537697e+00
      -9.6183046967019270e-01 9.7254362163967167e-01
      -5.7671371536987703e-01 4.0508888233778739e-01
      3.0763577010935450e-01 2.2191512545708855e-01
      3.7764916065038026e-02 3.6508107198926676e-01
      -1.1885834595061082e+00 1.0081872496145914e+00
      7.0109216795868878e-01 -4.2021328918176198e-01
      -1.5880148173241496e-01 -1.0097832438971492e+00
      -3.4590894345327733e-01 -9.9847120229977693e-01
      -1.2610928156880877e-01 5.8263946188056737e-01
      -1.1069208991457116e+00 2.6814689828353322e-01
      -1.1118576040164563e-01 -1.8374958198013480e+00
      -5.3837231172886479e-01 1.2622536713271821e+00
      -1.0835254823515372e+00 -5.4782220032187501e-01
      -5.2385420167968888e-01 3.8118475734724305e-01
      1.3841341549316216e-01 -8.3193810806219648e-01
      -3.3181603242339797e-01 -1.3287345585003609e+00
      -8.0562740379161196e-02 -8.0088895284823686e-02
      -8.2476610998691247e-01 -8.2580839308139320e-01
      4.2398627830978541e-01 -9.0909655752098195e-02
      -1.1688799711794033e+00 5.4408413680051282e-01
      -1.2671018465599315e-01 -4.2786950525449202e-01
      5.0520285643648744e-01 -1.7865099644880209e-01
      -1.0120924896655858e+00 8.1154720470135011e-01
      7.8492912868530595e-01 3.0047911542106159e-01
      1.8531512830644925e-01 -5.1125432319407926e-01
      2.4660288580967735e-01 -4.2762216192595653e-01
      -5.5790671073131715e-01 -5.9696161859566077e-01
      -1.7787704215447409e-01 8.4360932587275606e-03
      -4.0041071324089950e-01 5.4257502186111717e-01
      -2.0151045602536485e-01 5.7741082070015015e-01
      -8.4114864142838219e-01 -6.3178255780641857e-01
      5.1678428411812749e-01 -1.1614231009517504e+00
      -8.3164387030817288e-01 1.4863376853002286e+00
      -8.0156447274482157e-01 9.2374345218628895e-01
      -7.4227570833243564e-02 1.3614277694483515e-01
      -1.2158138524062953e-01 2.3416135255324644e-01
      -1.1188925132464718e+00 6.2031629365339824e-01
      1.1135918605871067e+00 -8.2786549864465309e-01
      -2.0610306533774347e-01 -1.5387705568463600e-01
      -2.1777247927063387e-01 -1.2633829455646339e+00
      3.2970339244352231e-01 9.5280698953231754e-02
      -1.2829180876997850e+00 2.0606083100952695e-02
      -3.6951267213555516e-01 -1.5734388620170494e+00
      -6.5335983629268746e-01 1.3377232260820109e+00
      -7.9415390633723237e-01 -2.5064289854067517e-01
      -4.2988770698902479e-01 3.7237498673645708e-01
      1.3427364881612924e-01 -8.5623726974811332e-01
      -1.3760734979064331e+00 -1.0288888863095418e+00
      -1.6102490801153002e-01 -2.2698870151557662e-01
      -1.0693112179002852e-01 -5.0581183215474812e-01
      9.9155442919853287e-01 -4.4824222816261589e-01
      -9.0517361931004581e-01 7.2814159951909274e-01
      -6.8245919841298552e-01 -7.8481426391069820e-01
      1.1373487273974474e+00 -1.6002933719947357e-01
      -1.2138025978875981e+00 9.5501062806576575e-01
      8.5648687968772708e-01 2.6553373620183390e-01
      6.1281849934326948e-01 -7.2483695497176048e-01
      1.3494893522816781e-01 -5.4345131023923876e-01
      5.8420700622284182e-03 -1.3796009245944957e-01
      -6.7454686052492396e-01 3.8317409628385346e-01
      -5.9562930940095538e-01 4.1282267010101842e-01
      -2.1797129964349554e-01 1.9682518647751435e-01
      -8.1570223008296339e-01 -6.5055599984855816e-01
      7.2426424710197801e-01 -5.2695869936892392e-01
      -7.0929520203599350e-01 1.1319072010899915e+00
      -1.0247640944332239e+00 1.2501508094882789e+00
      -8.4880607244118125e-02 1.6710454168135638e-01
      -3.3394334986937479e-01 -1.2539263686325439e-01
      -9.2157417368676575e-01 2.0343043736916652e-01
      7.6817139673203638e-01 -1.3240898229339777e+00
      1.7553198655127483e-01 6.8863689501715231e-01
      2.1310075558375852e-01 -1.1548738482867664e+00
      6.3246673614392179e-01 -2.3893556777067826e-01
      -1.1825191528265786e+00 -2.9211934114422089e-01
      -6.3798083458984231e-02 -1.0014931976792267e+00
      -6.1080507232758763e-01 1.0654706411880224e+00
      -1.6960848408135987e-01 -2.6249786159780225e-01
      -2.2958287820729531e-01 4.2195589029478026e-01
      9.8367257273710665e-02 -5.9740251320646554e-01
      -1.7454228051835490e+00 -7.5510692937744184e-01
      -4.8948565487812318e-01 -1.7215690491087157e-01
      4.9413413784658994e-01 3.0570617662834292e-02
      1.6292935607548902e+00 -7.8764515830249082e-01
      -7.4868483929502228e-01 1.0981211794738062e+00
      -1.1621086001419541e+00 -5.4006778484760276e-01
      8.4561705192251568e-01 -1.8062582877055239e-01
      -9.1100904794771032e-01 8.1808377274392963e-01
      7.1727795385294724e-01 2.6825602260377812e-01
      8.9521397415129234e-01 -9.2852780451958306e-01
      1.1944902132855877e-01 -3.9902102537459033e-01
      3.2437720375776929e-01 3.7454524554757240e-01
      -1.1668320924528999e+00 4.2989660118708134e-01
      -6.8137964114569083e-01 1.4930673626738011e-01
      1.1342290851279380e-02 -3.7979088403368888e-01
      -4.0980043804523225e-01 -7.1657414435560618e-01
      6.1206027181960376e-01 -1.0904736918660797e-01
      -7.0091939780973689e-01 7.8592570741584511e-01
      -1.0382694378947779e+00 1.3527966578459123e+00
      1.8017827822462092e-02 -5.9944075662823934e-02
      -5.0546998541865973e-01 -3.8488267196336773e-01
      -9.0038897338584745e-01 8.4497105470729382e-03
      3.6893256936622543e-01 -1.4454965590795079e+00
      4.9590340656213533e-01 1.2087737236715794e+00
      5.3993330119851501e-01 -8.4374433636014989e-01
      9.3722364486486143e-01 -2.4022138517826536e-01
      -1.0832066910415494e+00 -6.9936123049530097e-01
      3.4070372618468503e-01 -7.7110355809542980e-02
      -3.4044613214549674e-01 9.2267879020427068e-01
      1.5767318474908054e-01 2.1388822017984835e-01
      -5.3737715665122998e-01 2.5879030021236699e-01
      3.8133629888147597e-01 -1.7771651929290472e-01
      -9.6484317569494926e-01 -5.4205520763214177e-01
      -8.6984164407225073e-01 -1.1672278628619638e-01
      8.2426226831859084e-01 2.6223188170419742e-02
      2.0772905303387970e+00 -1.1147131744572343e+00
      -6.4552166170047682e-03 7.6120639346439445e-01
      -1.4031350409067846e+00 -5.0986509192978730e-02
      4.1891596688702615e-01 -1.4014769653490067e-01
      -5.9808178728802308e-01 3.0425584630251179e-01
      2.5467222501335529e-01 2.9124545968402926e-01
      9.3212148150127538e-01 -6.0915169798905144e-01
      -5.9862978632003953e-02 -6.4340341864843287e-01
      3.0796195454994113e-01 7.1761732421737934e-01
      -1.5541625884642052e+00 3.0679212896343744e-01
      -5.4631920303674686e-01 5.2386274781717125e-02
      1.2663706373954876e-02 -8.0247557786687584e-01
      -1.3836439233905698e-01 -8.3516694811222947e-01
      5.2660656653701776e-01 5.8727966618125120e-02
      -7.2657081350847097e-01 2.5443374329373752e-01
      -7.8490877138288284e-01 1.1748369524487636e+00
      3.0626733027784214e-01 -3.7262749536833062e-01
      -6.6076398137066750e-01 -7.8257762474124259e-01
      -9.1054015411334277e-01 -2.7868641209756191e-02
      2.2044377543286747e-01 -9.8892367250943936e-01
      4.1454714405614951e-01 1.1326055664430910e+00
      2.2482561868472364e-01 -7.3105367626292106e-01
      1.0111492089588470e+00 8.3532622853960140e-02
      -6.9806682399850584e-01 -9.4476887721393421e-01
      7.3995160266298377e-01 4.8739365162725740e-01
      2.4312053914910969e-01 7.9868580926035537e-01
      2.6461171471403111e-01 7.1231315016208996e-01
      -9.2627791169277196e-01 6.5407492717689908e-01
      8.8134929325837852e-01 -4.0692810472606877e-01
      1.4651575269075909e-01 -6.1231625235070797e-01
      -5.8452685348961997e-01 -1.9894699542105418e-01
      4.1936696988119920e-01 -1.2807200542749536e-01
      1.7157368112477069e+00 -1.1855796932220510e+00
      7.0048249131300377e-01 6.1347943268968130e-01
      -1.2998657434194059e+00 4.8883757521866972e-01
      -9.4532517768781701e-02 2.6035453299601163e-01
      -2.7627639079145844e-01 -3.6480075815112895e-01
      8.7504217300862677e-02 5.8520061565697301e-01
      1.6994407983440785e-01 -6.5114666669322696e-02
      6.0708178227920913e-02 -1.0446947686693899e+00
      8.3933706466404287e-02 5.3940356123315734e-02
      -1.2273580425465489e+00 3.3190613885101861e-01
      -2.7939472627270201e-01 1.2998274661393645e-02
      -4.5169365567916855e-02 -1.2729219193426871e+00
      3.9934487159424303e-01 -8.0647779483098492e-01
      7.7313237485004405e-01 1.3214129448338888e-01
      -6.2885239569087126e-01 -1.1377704590848250e-01
      -4.2800125621163931e-01 7.6621820168520782e-01
      1.6991585292772388e-01 -3.0890142607573950e-01
      -5.1991728589002195e-01 -1.2071477185966002e+00
      -1.0183512236341734e+00 -1.5142213096227713e-01
      1.4399008645488767e-01 -7.2807086857232584e-01
      3.2638752204362531e-01 1.0548845996806657e+00
      -5.3629703552711006e-01 -1.7146061726686093e-01
      6.5560490032847907e-01 6.0075245208156458e-01
      -3.5661515120571724e-01 -1.4743661449002219e+00
      3.4444957668011877e-01 1.3220011055196285e-01
      8.6171330262775725e-01 9.5113433334917241e-01
      4.0240219542373312e-01 1.1575333332440023e+00
      -1.3731985264111974e+00 5.0042122203909023e-01
      1.6387490623822623e+00 -4.0763131097575522e-01
      7.2766069992902749e-01 -5.0254595107032829e-01
      -5.8621489808923632e-01 -5.0127839349699954e-01
      1.4709691080787071e-01 -3.4753511943472842e-01
      9.9343386705781778e-01 -1.3520128734600774e+00
      9.0342035601191772e-01 5.1561873809687619e-01
      -2.8492055192563626e-01 6.6544801884748128e-01
      -3.7574639080559691e-01 4.6885231697689450e-01
      -1.0327182031740314e-02 -7.3110255626312892e-01
      7.1653437312352644e-03 5.4822800085835310e-01
      -4.9430404910030912e-01 2.8106985673985574e-01
      4.8218200734625689e-02 -1.1848276682312944e+00
      -9.6366382695225059e-02 -5.6871231539846046e-01
      -5.3791774592612869e-02 -1.2077487805646403e-02
      6.3041940819604436e-01 -5.9859892424000964e-02
      2.8899810527803260e-01 -1.6284250542002121e+00
      8.1797513979577152e-01 -2.9776738584421242e-01
      1.5622859281069630e+00 4.3111583661386416e-01
      -8.5981308532171330e-01 -3.0264293954266308e-01
      8.7438353893390094e-02 4.8322901242087801e-01
      1.0157162978696054e-01 -1.6901917946375669e-01
      -7.2181589893113274e-01 -1.2595604728357104e+00
      -7.9144522261274741e-01 -2.9324926230132486e-01
      3.7751131895419732e-01 -3.5674865599005806e-01
      9.2084771119940470e-02 9.2471912658749977e-01
      -9.2468112728316731e-01 2.4448612499094891e-01
      2.3856713031810997e-01 4.9757072873220848e-01
      -1.4080747505791916e-01 -1.6770731866340736e+00
      1.7752097468442113e-01 -3.1041100852781817e-01
      1.2050684357993835e+00 1.1711813438365499e+00
      4.5110116821812246e-01 1.0105860583551827e+00
      -1.3412779961868746e+00 6.2583630780404442e-01
      1.8998274222249691e+00 -5.9831707651436961e-01
      7.2224558304066466e-01 -4.0082714285433724e-01
      -8.1148283131179844e-01 -6.4822692793920200e-01
      1.9751716965575622e-01 1.7002774663721967e-01
      3.4785774491015836e-01 -1.2829829992358368e+00
      5.3786237609451193e-01 5.5995950528087934e-01
      2.0961444098605272e-01 6.0643601779487899e-01
      -6.6896619620014219e-01 5.7086210448876795e-01
      7.6502001383555044e-03 -8.0647587957099964e-01
      2.9899400843839689e-02 2.9613642922330086e-01
      -1.0484460670961857e+00 1.0838039240411674e-02
      2.1377027553699159e-02 -7.7955625436346343e-01
      -9.0825739479478779e-02 -9.2986391461040585e-01
      1.3298809783945675e+00 -4.9734454640714415e-01
      7.1142226461304303e-01 2.3343233834660415e-01
      4.5182284689769031e-01 -1.8514940324049474e+00
      9.7837992651014716e-01 -2.0589416706287122e-02
      1.6540333103116853e+00 2.3500084137744265e-02
      -5.3135079180079048e-01 -9.1510880881697454e-02
      3.2494568831142945e-01 1.2326521903007605e-01
      1.8210178390265344e-01 -3.2587596142242670e-01
      -7.8860838680353063e-01 -1.2270235516922974e+00
      -4.7655221648944401e-01 9.2166384638787499e-02
      3.5143250501034157e-01 1.9639356665697199e-02
      -6.4190983568419946e-01 3.8242837109488143e-01
      -1.0183336527501292e+00 3.4693546932234320e-01
      6.2395163960552537e-02 7.4305549449527164e-01
      -2.5865495102056529e-01 -1.7459421257726184e+00
      -1.9146967385598970e-01 1.8902617512266678e-01
      1.0179730285448696e+00 1.0282233767654061e+00
      3.9489065082316593e-01 3.9832743229329770e-01
      -5.7531764368855054e-01 2.2042444556691068e-01
      1.7580115493797728e+00 -6.0203205449716068e-01
      5.7906202225779269e-01 -2.3423358219397111e-01
      -1.0252653396248192e+00 -6.0526677253257910e-01
      3.1586824124851576e-01 8.2333266291142904e-01
      -5.3689239971382352e-01 -8.7560348156991319e-01
      -2.9265026914601566e-01 4.9917623241210446e-01
      9.0081641164024839e-02 4.8950671258531181e-01
      -7.3372220033395974e-01 3.5050461620069989e-01
      3.3419652634136082e-01 -7.0543515990256922e-01
      1.9186222097824456e-02 3.0506519397505202e-02
      -1.3533217850360779e+00 -3.6888467203716063e-01
      2.5590172901515721e-02 -3.7874841379711854e-01
      1.5011675020371106e-02 -8.5070172135670763e-01
      2.0060143467437039e+00 -6.1627114714632647e-01
      3.9633678668351441e-01 4.5569468910355959e-01
      3.7431815903371307e-01 -1.8311006476440363e+00
      7.0212953936297373e-01 3.9031055218689936e-01
      9.2600368294391688e-01 -2.0257358581663493e-01
      -4.3843042284197953e-01 1.1555967532995688e-01
      1.3239290018440808e-01 1.3005634975765417e-02
      3.3058088989891438e-01 -5.3847636487061412e-01
      -4.0256426414080621e-01 -8.4358661395390167e-01
      -3.8128841544454900e-01 5.9799567971251644e-01
      5.0381906994828551e-01 2.1970988511955011e-01
      -3.5945946938057538e-01 -2.8172760595227997e-01
      -6.7927690115317230e-01 5.9387140576888464e-01
      5.2657098852114488e-03 5.6983525975484695e-01
      -4.2488258837955506e-01 -1.3090423368457831e+00
      -2.7380569617017686e-01 3.3282593250612891e-01
      1.3888406903004236e+00 8.3257465551897869e-01
      2.1007350253338039e-01 -8.9763414830994093e-02
      1.7764858146761803e-01 8.8649794496780537e-03
      1.4129716297391115e+00 -9.9276925699082730e-01
      4.7553850275513987e-01 -2.1780724958703512e-01
      -1.1593907076265579e+00 -5.3058218292727521e-01
      4.4355949477613654e-01 1.4888682803702178e+00
      -1.1781805415771716e+00 -4.6136056065226244e-01
      -7.3122788300014119e-01 6.6616272197368376e-01
      -2.2055895569938619e-01 4.5351706532675778e-01
      -7.0453114636637371e-01 4.4350616888659974e-02
      3.1447393300573323e-01 -7.5586858378872868e-01
      -2.9794211678717097e-02 6.1267600258101025e-02
      -9.3975942511791766e-01 -7.9135438441091066e-01
      7.6399698425045057e-02 -4.1921969806057829e-01
      4.0965019733722896e-01 -7.8137307742773499e-01
      1.4356569694194330e+00 -4.6870273120609268e-01
      -1.0268782081048056e-01 6.6344795000899248e-01
      6.1695568277236587e-02 -1.4586714038542257e+00
      4.6918705518215870e-01 6.6213864714932846e-01
      3.8748176437635290e-01 -3.3148004728600122e-01
      -4.6364188885571517e-01 3.1682727292255969e-01
      3.6742119969137033e-01 5.8818041393082020e-02
      4.0799043404283958e-01 -5.4300816802983431e-01
      8.4020823814928147e-02 -3.6914438721630849e-01
      -7.0071326244455756e-01 6.4246836988587419e-01
      8.0180469897291873e-01 1.3281324201118719e-01
      3.1872327065485867e-01 -8.6626337162080314e-01
      -1.9934857475827589e-01 6.4264141221694260e-01
      5.4136842353520798e-01 -7.7156632639074366e-02
      -3.8516359997197236e-01 -6.7875208081885197e-01
      1.0988947775103128e-01 4.1799157374463886e-01
      1.6207611669642759e+00 5.0210278215238480e-01
      1.6180757837695639e-02 2.6004174981746264e-01
      3.5886477863796273e-01 -4.2737065771839544e-01
      1.1571615270733080e+00 -1.7238677744595490e+00
      5.1504523677795688e-01 -1.7296431986371558e-01
      -1.1662776533896999e+00 -2.2909192853859858e-01
      7.0777560107037529e-01 1.4130932909441087e+00
      -1.3616776038027099e+00 -1.1668297370503063e-01
      -1.1036225596324061e+00 7.6382662142756386e-01
      -8.8243973964191835e-01 2.1985867015722280e-01
      -4.1898762209382562e-01 -3.1689653684967306e-01
      -1.4907824653962184e-01 -9.1545368775873026e-01
      -4.2357148069802751e-02 4.0979128549350580e-01
      -4.9931313904387870e-01 -9.6199243282791069e-01
      2.2757542226561045e-01 -1.4131994378464133e-01
      6.3344460542533065e-01 3.2283602640779820e-02
      3.9565723896447313e-01 -5.0360726284817518e-02
      -4.9136958558795560e-02 5.0467306824924607e-01
      -2.6462589791761409e-01 -1.0529622015751252e+00
      2.0077831734814222e-01 6.0693691990465637e-01
      -2.0897415997350857e-02 -4.1921962153894266e-01
      -3.7681755871038147e-01 3.9657850505126829e-01
      5.9117515821090150e-01 2.5464421679908450e-01
      2.4199277249397746e-01 -6.8040705994855000e-01
      8.5337647803892791e-01 1.4072761941151640e-01
      -1.3277158452145181e+00 5.9019519489530237e-01
      7.2947746996774276e-01 -2.8314013845152741e-01
      1.2225622098941640e+00 -8.6618111589083668e-01
      -9.8171575444389661e-02 2.7004123856907503e-01
      8.7995598832071553e-01 -5.3966337369800588e-01
      -3.8261242230685932e-01 -6.1620878656935407e-01
      8.2475958565667973e-01 -2.0968714556033385e-02
      1.5836443759587140e+00 3.4392647219781280e-01
      -3.0016030256836190e-01 5.9042652955735386e-01
      5.7569464014848537e-01 -4.6473038621188983e-01
      1.2834573035740409e+00 -2.3141815915093820e+00
      3.6572411583555464e-01 -6.0458916646469775e-02
      -8.5048654894819120e-01 4.5379023449720179e-01
      7.6505422318140648e-01 8.1244445740667581e-01
      -1.4743610226121402e+00 -2.9017690460761947e-01
      -1.2290910867845861e+00 1.3580645638352651e+00
      -1.5990567105544589e+00 4.6378150015111802e-01
      3.9298162446439144e-01 -3.8989129571662701e-01
      -6.3970838241242189e-01 -4.5704407663719826e-01
      2.5729577006904208e-01 5.4923603640139129e-01
      -2.3130078567815657e-02 -7.7325157736708916e-01
      4.2428458278131725e-01 -3.1466257513075518e-01
      6.4365405311965551e-01 4.8642577879555815e-01
      -1.0316286954917884e+00 -3.1099221812874928e-01
      1.3772819376695580e-01 5.5283974047087914e-01
      -2.1003593338772378e-01 -6.1972267467047193e-01
      3.7112697400049421e-01 9.4244293601863982e-02
      -2.4600415789874369e-01 -6.4767036930675648e-02
      -6.6594246726369455e-01 9.4178319206974825e-01
      4.1377799874371057e-01 2.0463530192771470e-01
      2.6823197205243099e-01 -5.0312418934312364e-01
      1.0572950056121428e+00 3.7982197859201688e-01
      -1.8443142598682254e+00 2.6479250379909819e-01
      4.5527296440602200e-01 -6.6748745633128237e-01
      1.5463383555014389e+00 -7.1120219159849807e-01
      3.9230016549530150e-02 1.4537747977018775e-01
      8.9202440520322213e-01 -5.7443674977360693e-01
      -4.6852833780623909e-01 -5.0846231768733308e-01
      1.2654983702741534e+00 -4.2600667402335823e-01
      1.2991291353300543e+00 1.1067910238481822e-01
      -5.8623264053172019e-01 8.5232129838138071e-01
      5.0410673150134189e-01 -3.7375187961123701e-01
      1.3777878974623494e+00 -2.4092268035177957e+00
      2.5172310385223240e-01 4.2377052229913031e-02
      -7.0719283740857930e-01 8.0978110498470390e-01
      9.1437943090489104e-01 3.5230406084227606e-01
      -1.4802318869435618e+00 -4.1690716188100241e-01
      -1.2571515826153443e+00 1.6930237336839078e+00
      -2.0026703664326959e+00 6.9087632564211587e-01
      9.2516009650380715e-01 -5.6229533881030569e-01
      -9.4625625096622312e-01 -2.9222979196362836e-01
      1.9690830758567129e-01 6.8067298959918732e-01
      2.6985896931265851e-01 -6.0231479905491792e-01
      5.8695409905957285e-01 -7.0856144667476528e-01
      6.9403092604403738e-01 6.4288997386165281e-01
      -1.9755010048662833e+00 -6.1283849621701114e-01
      2.7216352710941505e-01 6.7434699459280045e-01
      -2.2633876566203878e-01 -5.0004593918540008e-01
      5.3310214836452130e-01 -2.0322524607159981e-01
      -5.1263995340277202e-01 1.5860604867150116e-01
      -1.0086076202407219e+00 1.1109542883160426e+00
      2.5735409365784817e-01 2.4624675412893648e-01
      3.8034246951016626e-01 -3.5638605644448768e-01
      1.1374007158290620e+00 5.8361977345615812e-01
      3.1842389070990890e-01 -1.7270329570805537e-01
      -2.1780869769506894e-01 -3.7551504744213460e-01
      1.3316281100941224e-01 -1.2705696479275630e+00
      -1.5824828920157579e+00 -3.8068184268595312e-01
      2.1780082553034427e-01 -3.2723545866998144e-01
      -3.3974622554752476e-02 8.0592650566929847e-01
      1.0095967793542084e+00 3.0388640311656395e-01
      -1.7072859235295841e-02 1.3853331858722797e+00
      1.8116727412905173e-01 6.6348838945467725e-01
      -1.2105700147375729e-01 3.9276695986575877e-01
      -2.9924599738395019e-01 -3.4823329338293885e-01
      -1.1002566082735170e+00 -5.4451727013744433e-01
      -1.1608568698639570e+00 1.2051601020890979e-01
      5.2880428952227432e-01 4.2594120186588702e-01
      -2.4143549147272850e-01 -1.5378673750510968e-01
      4.7963996944719467e-01 8.7531036347687594e-02
      7.4854770123573655e-01 4.4536319033864463e-01
      1.1293631242730644e+00 -3.0379009752839730e-02
      -6.5182661760948968e-01 3.6992699780190924e-01
      2.6001417916460057e-01 7.5391831891564520e-01
      3.0627940214540350e-01 5.5448343728679006e-01
      3.9937250047602757e-01 1.4003654018465730e-01
      8.3147189357660389e-01 2.3488435198220278e-01
      7.3666772864026120e-01 9.8342603305025666e-01
      1.1620477303395926e+00 -8.7529882221953154e-02
      2.2910824973125093e-01 -1.2184926917422430e+00
      9.7322270990533755e-01 -4.5709051063973855e-01
      7.8300989661470688e-01 7.3950374436559566e-02
      3.3764210115497079e-01 -5.8112098751104728e-02
      1.2451037698485006e+00 -2.2293360602943493e-01
      -7.7472950557758502e-01 -4.8376309592429789e-01
      9.4778099976709196e-01 -1.0108732766135211e+00
      4.7243729253287903e-01 -4.6203259063949575e-01
      1.5358336029351452e-01 -2.7489149195429141e-01
      1.1579449622380485e-01 -1.0579860866980710e+00
      -1.0199958747100519e+00 -5.0328329617219025e-01
      2.1305865213880759e-01 -6.2537440107418085e-01
      -1.1652339165922193e-01 4.1252067552601646e-01
      5.4866323894102165e-01 2.8113600096210162e-01
      5.8511217712705677e-01 8.4445491000016160e-01
      8.5057513996256301e-02 3.5217926506582781e-01
      6.0994518278970629e-02 3.0476005467056350e-01
      -3.4704324280023074e-01 -3.6900295692775636e-01
      -1.0789172073600315e+00 -4.8460899224689741e-01
      -8.7848456315020751e-01 -3.0602755480374566e-01
      3.2603165412793256e-01 2.6948228905536986e-01
      -4.5102844094291605e-03 -4.6631001720852422e-01
      5.7306610742094755e-01 4.1339269337950324e-01
      7.7794757475258780e-01 2.5252474066327568e-01
      9.0524716239281133e-01 1.0496989818339200e-01
      -6.7560427187499417e-01 7.1300464552359966e-01
      5.6869101647269438e-01 3.5570920920750654e-01
      2.9755956339275585e-01 3.8024988837552937e-01
      2.7782507142605911e-01 4.3757558244159944e-02
      8.8848049171911003e-01 1.8230830972360970e-01
      3.6723940234778582e-02 1.1435019633377095e+00
      9.0240465448109919e-01 1.4954056024508772e-01
      4.6347755927483730e-01 -1.3422554369415662e+00
      6.5842095778439647e-01 -3.2476282960299108e-01
      8.8006693311214912e-01 3.7219541947326692e-03
      3.2336233770442890e-01 -1.7096839288334301e-01
      6.4411051145026410e-01 -5.0156690563363271e-01
      -5.9467138804705844e-01 1.7532734129150639e-02
      7.2129391197106174e-01 -9.0218805290998683e-01
      5.1920047813882886e-01 -7.0159650840299281e-01
      6.7833707736252946e-01 -2.0996427214355493e-01
      5.5692258769963331e-02 -3.6673141525236946e-01
      -3.4113968670475131e-01 -4.6360027096595807e-01
      4.3613164624438351e-02 -8.0582676127642672e-01
      -1.9250950459735572e-01 -1.5137284358297834e-01
      -2.8701349166134643e-01 4.9297854875195229e-01
      1.3501483136120802e+00 -1.0691460060234013e-01
      5.7014377475478197e-02 -2.0967089685707391e-01
      1.9824139933800528e-02 1.8145896660298400e-01
      -6.2913763365935815e-01 -8.1642668588979894e-02
      -7.7831211332019135e-01 -3.7399144849566285e-01
      2.2240437067438881e-01 -7.0997988290764835e-01
      3.0135339587362350e-02 -8.4136568294957914e-02
      1.8951918140550644e-01 -9.5434856224952302e-01
      5.6961201640249715e-01 8.4775222955291618e-01
      7.8120500770134138e-01 1.4911150845384133e-01
      3.1813815622634045e-01 5.2867344977694397e-01
      -5.4801768404130624e-01 1.0332111793648555e+00
      1.0161079728200804e+00 -1.7283586348743332e-01
      2.6526778440478965e-01 3.6391776563721878e-01
      2.8283007610991437e-02 3.6133537088002970e-01
      9.0204237624251116e-01 -1.7730537532875898e-01
      -5.9438902147562489e-01 1.2234563527303932e+00
      5.2519697403666921e-01 4.1123303784390541e-01
      9.3864287588998052e-01 -1.3436530952050758e+00
      4.1561106827831706e-01 -2.7928528296661520e-01
      7.0449900059084458e-01 -1.8484144582550305e-01
      1.3184802201499163e-01 -1.8312383947645619e-01
      1.1855965378539722e-01 -7.5286768984507435e-01
      -3.6937268358407022e-01 4.6468504668354943e-01
      3.4523333109886511e-01 -5.3190192657904167e-01
      3.7952394061351846e-01 -4.5161882672315334e-01
      6.3166249364692817e-01 -7.8371590988991963e-02
      -2.1512408523532972e-01 2.4045319090241885e-01
      7.3992166528327255e-02 -2.6802866230181527e-01
      -1.7796936283060408e-01 -3.6294696127225240e-01
      1.4674114914533956e-01 -2.5071484922650733e-01
      -5.1644583424408852e-01 1.3587991694802155e+00
      9.8682310843534093e-01 -2.0807325252174697e-01
      -3.0387887381629303e-01 9.1190129806194870e-02
      -2.3700328135652413e-01 2.6065404989611274e-01
      -3.4215522266159948e-01 6.3152473094971218e-01
      -9.6297466252467356e-01 -4.0500747575255425e-01
      6.9660553299311034e-01 -3.5664402433285514e-01
      -5.3082800722268542e-01 3.4368817970792181e-01
      -1.7756467578971178e-02 -1.2451911416411694e+00
      5.6414849457869709e-01 4.3396502927017461e-01
      2.6335765420678448e-01 3.1249467191426572e-01
      -1.5738150902721235e-01 5.1611028023816519e-01
      -1.5671121684449557e-01 1.1115002582119895e-02
      3.3833863683706833e-01 -4.9072063316420167e-02
      2.3192180719011515e-01 4.1082109665139221e-01
      3.1147348846810463e-01 8.3957833462663478e-01
      6.4613583004884945e-01 -1.6156358525281703e-01
      -3.8322336060359208e-01 5.1568919794340917e-01
      4.7003628097386779e-01 4.8157773563859779e-01
      1.2877236105170524e+00 -8.9678037755620121e-01
      6.5292602644068853e-01 -1.1200223144517918e-01
      9.2208221814998395e-02 -3.0122888564839767e-01
