<?xml version="1.0"?>
<opencv_storage>
<opencv_ml_ann_mlp>
  <format>3</format>
  <layer_sizes>
    120 40 65</layer_sizes>
  <activation_function>SIGMOID_SYM</activation_function>
  <f_param1>1.</f_param1>
  <f_param2>1.</f_param2>
  <min_val>-9.4999999999999996e-01</min_val>
  <max_val>9.4999999999999996e-01</max_val>
  <min_val1>-9.7999999999999998e-01</min_val1>
  <max_val1>9.7999999999999998e-01</max_val1>
  <training_params>
    <train_method>BACKPROP</train_method>
    <dw_scale>1.0000000000000001e-01</dw_scale>
    <moment_scale>1.0000000000000001e-01</moment_scale>
    <term_criteria>
      <epsilon>1.0000000000000000e-02</epsilon>
      <iterations>1000</iterations></term_criteria></training_params>
  <input_scale>
    5.8027336822788129e+00 -2.5445656581261761e-01
    3.0309412436382832e+00 -6.6353402471478207e-01
    2.8562147190540079e+00 -1.8790879397087756e+00
    4.3515106969789539e+00 -3.7679331117295667e+00
    4.1932172511413199e+00 -3.4140182979960927e+00
    4.1405685078468277e+00 -3.4104152458322008e+00
    3.7269699331843076e+00 -3.0897293285771870e+00
    2.7682877604871661e+00 -1.4903243238860491e+00
    3.8815164963203217e+00 -5.0877189750900453e-01
    8.7371683192656562e+00 -1.7313187004083025e-01
    3.2360876561719194e+00 -2.2187107537983013e+00
    3.9922394384541717e+00 -3.1864324941387516e+00
    4.3015623545828277e+00 -3.3057543069690185e+00
    4.3733806135235955e+00 -3.3568588635039780e+00
    4.9348011426736438e+00 -3.9479587651601542e+00
    4.8357222652129748e+00 -3.7963391862992877e+00
    4.4325833207148202e+00 -3.3270055055279570e+00
    4.6428229405144910e+00 -3.5855809752397918e+00
    4.0723625209292340e+00 -3.2371851370645222e+00
    3.2869485545694368e+00 -2.1113557387158886e+00
    1.0014156433362258e-01 -1.8314757972898357e-01
    3.2359698758093761e-02 -3.5266578556376732e-01
    1.4445180111624148e-02 -7.6943828030037631e-01
    1.1565809126038416e-02 -1.2283427121185349e+00
    1.0643547106552959e-02 -1.2094315476408428e+00
    1.0552280669706050e-02 -1.3280430690946143e+00
    1.1600292253858776e-02 -1.3542673129975273e+00
    1.5680046502239767e-02 -7.4240991632281261e-01
    3.8430406639057890e-02 -2.8628420569535773e-01
    7.3559297387206957e-02 -1.1754895298134739e-01
    8.2016674248615154e-02 -2.4445817288977034e-01
    2.4822703009959864e-02 -4.4756704017073456e-01
    1.2577538514669280e-02 -1.0074523448832926e+00
    1.1304011513186364e-02 -1.5151519418665440e+00
    1.2233573540290556e-02 -1.4188692625931767e+00
    1.1960570320422035e-02 -1.5673658168795366e+00
    1.1433972079789669e-02 -1.6521938266432454e+00
    1.3090844762433149e-02 -9.3663049614199556e-01
    2.9664438162155481e-02 -3.8624568745514781e-01
    7.7357367019242618e-02 -1.6211170441654787e-01
    6.3392271827040408e-02 -2.5179145277039033e-01
    2.1758605409706519e-02 -4.8605942170769162e-01
    1.1957320562089042e-02 -1.0745421753109641e+00
    1.1737603881021887e-02 -1.5419723510167020e+00
    1.1362712989660280e-02 -1.2414668787514622e+00
    1.0562083407433656e-02 -1.2502754478943732e+00
    1.1729635849850265e-02 -1.5244472554239923e+00
    1.2513784450771774e-02 -9.2257340017973466e-01
    2.7516691548504172e-02 -3.8770648166805699e-01
    8.1316974603060435e-02 -1.7203635275346466e-01
    5.5389204913028803e-02 -2.3947219350246512e-01
    2.1712226767458542e-02 -4.7915688344008606e-01
    1.1656034054174593e-02 -1.1100950914638883e+00
    1.1525257694509418e-02 -1.6408879018473126e+00
    1.1355897333226939e-02 -1.4275276029384860e+00
    1.1018246285240518e-02 -1.3947650058934031e+00
    1.1046604604524120e-02 -1.3946988028939193e+00
    1.2517335355234895e-02 -8.4888287680813213e-01
    2.7472103239273127e-02 -3.5332545164715634e-01
    7.0385132272974604e-02 -1.4546540783849982e-01
    4.7755951119070258e-02 -2.2526019648945661e-01
    2.1835448366478848e-02 -4.4572777522661000e-01
    1.1582801318226350e-02 -1.0677695398560485e+00
    1.1430322825909988e-02 -1.7160541311042017e+00
    1.1707357685506360e-02 -1.7823117479340238e+00
    1.1942518544652572e-02 -1.8785252082014370e+00
    1.1352321021489085e-02 -1.6230560944074925e+00
    1.2570579733183471e-02 -8.2995227053069021e-01
    2.6509896028811659e-02 -3.1287488057919211e-01
    7.2623916376115039e-02 -1.3126241247811973e-01
    4.6256828143435062e-02 -2.2191963062204323e-01
    2.2147904661147487e-02 -4.4480163312816046e-01
    1.1312499394673098e-02 -1.0571979246714778e+00
    1.1648654699094261e-02 -1.7385148649622229e+00
    1.1719535680640877e-02 -1.6363048525830581e+00
    1.1445223749196588e-02 -1.6888338533260439e+00
    1.1179285230581563e-02 -1.6202215378510803e+00
    1.2295221292270262e-02 -8.3631255486601797e-01
    2.6867215376519992e-02 -3.0369111858981312e-01
    7.7526322090220895e-02 -1.3047078010214930e-01
    5.1664950745677146e-02 -2.2510563996887012e-01
    2.1673744357474014e-02 -4.7594389436164108e-01
    1.1502226334476643e-02 -1.1154578493516085e+00
    1.1911926376253400e-02 -1.6677367908204066e+00
    1.1352598693034481e-02 -1.2549899833883964e+00
    1.0849374660349999e-02 -1.3121605473577591e+00
    1.1105225030610002e-02 -1.5113772537943311e+00
    1.2155636611932591e-02 -8.6028475537069360e-01
    2.7573035470888393e-02 -3.2447854953207694e-01
    7.9685645952186704e-02 -1.3590628361078894e-01
    5.0450214344058046e-02 -2.3642432571944116e-01
    2.0762642911459399e-02 -5.0338706912762698e-01
    1.1735438711969484e-02 -1.1985633429656226e+00
    1.2449706070790252e-02 -1.7720937271014172e+00
    1.1659049209724997e-02 -1.2240714964898269e+00
    1.0918492840098557e-02 -1.2784450247374917e+00
    1.1075554984269003e-02 -1.5197729363593453e+00
    1.2195725457209629e-02 -8.9904492644961742e-01
    2.9951647261234688e-02 -3.3668794723073092e-01
    9.0156478947446952e-02 -1.4449103751226042e-01
    4.9535868462540281e-02 -2.2124368307058870e-01
    2.3053460694621920e-02 -4.8983390296780543e-01
    1.2281795151579041e-02 -1.1289710875695196e+00
    1.1533934010551116e-02 -1.6281027673439570e+00
    1.2709472713603712e-02 -1.4650457487981765e+00
    1.2803816264545360e-02 -1.5899964085196541e+00
    1.0816085829833628e-02 -1.4285997948972580e+00
    1.3743641936461137e-02 -8.6450791646355585e-01
    3.4822001080572540e-02 -3.3258686127957099e-01
    1.1892844173449101e-01 -1.5344865481267980e-01
    5.4858166794519853e-02 -1.9572973392624329e-01
    3.0023978241779156e-02 -4.0245485863924157e-01
    1.4999276461734613e-02 -7.9959292100886348e-01
    1.1903111300579214e-02 -1.1918829434572280e+00
    1.0568239209267832e-02 -1.2230123982983663e+00
    1.0878110067554167e-02 -1.2016322934336963e+00
    1.1910425578451598e-02 -1.0797602672753730e+00
    1.6373182447983105e-02 -6.5237925570431687e-01
    4.7634123236493638e-02 -2.9257242905911940e-01
    2.2132537044673917e-01 -1.3177686335181246e-01</input_scale>
  <output_scale>
    5.2631578947368418e-01 4.9999999999999994e-01 5.2631578947368418e-01
    4.9999999999999994e-01 5.2631578947368418e-01 4.9999999999999994e-01
    5.2631578947368418e-01 4.9999999999999994e-01 5.2631578947368418e-01
    4.9999999999999994e-01 5.2631578947368418e-01 4.9999999999999994e-01
    5.2631578947368418e-01 4.9999999999999994e-01 5.2631578947368418e-01
    4.9999999999999994e-01 5.2631578947368418e-01 4.9999999999999994e-01
    5.2631578947368418e-01 4.9999999999999994e-01 5.2631578947368418e-01
    4.9999999999999994e-01 5.2631578947368418e-01 4.9999999999999994e-01
    5.2631578947368418e-01 4.9999999999999994e-01 5.2631578947368418e-01
    4.9999999999999994e-01 5.2631578947368418e-01 4.9999999999999994e-01
    5.2631578947368418e-01 4.9999999999999994e-01 5.2631578947368418e-01
    4.9999999999999994e-01 5.2631578947368418e-01 4.9999999999999994e-01
    5.2631578947368418e-01 4.9999999999999994e-01 5.2631578947368418e-01
    4.9999999999999994e-01 5.2631578947368418e-01 4.9999999999999994e-01
    5.2631578947368418e-01 4.9999999999999994e-01 5.2631578947368418e-01
    4.9999999999999994e-01 5.2631578947368418e-01 4.9999999999999994e-01
    5.2631578947368418e-01 4.9999999999999994e-01 5.2631578947368418e-01
    4.9999999999999994e-01 5.2631578947368418e-01 4.9999999999999994e-01
    5.2631578947368418e-01 4.9999999999999994e-01 5.2631578947368418e-01
    4.9999999999999994e-01 5.2631578947368418e-01 4.9999999999999994e-01
    5.2631578947368418e-01 4.9999999999999994e-01 5.2631578947368418e-01
    4.9999999999999994e-01 5.2631578947368418e-01 4.9999999999999994e-01
    5.2631578947368418e-01 4.9999999999999994e-01 5.2631578947368418e-01
    4.9999999999999994e-01 5.2631578947368418e-01 4.9999999999999994e-01
    5.2631578947368418e-01 4.9999999999999994e-01 5.2631578947368418e-01
    4.9999999999999994e-01 5.2631578947368418e-01 4.9999999999999994e-01
    5.2631578947368418e-01 4.9999999999999994e-01 5.2631578947368418e-01
    4.9999999999999994e-01 5.2631578947368418e-01 4.9999999999999994e-01
    5.2631578947368418e-01 4.9999999999999994e-01 5.2631578947368418e-01
    4.9999999999999994e-01 5.2631578947368418e-01 4.9999999999999994e-01
    5.2631578947368418e-01 4.9999999999999994e-01 5.2631578947368418e-01
    4.9999999999999994e-01 5.2631578947368418e-01 4.9999999999999994e-01
    5.2631578947368418e-01 4.9999999999999994e-01 5.2631578947368418e-01
    4.9999999999999994e-01 5.2631578947368418e-01 4.9999999999999994e-01
    5.2631578947368418e-01 4.9999999999999994e-01 5.2631578947368418e-01
    4.9999999999999994e-01 5.2631578947368418e-01 4.9999999999999994e-01
    5.2631578947368418e-01 4.9999999999999994e-01 5.2631578947368418e-01
    4.9999999999999994e-01 5.2631578947368418e-01 4.9999999999999994e-01
    5.2631578947368418e-01 4.9999999999999994e-01 5.2631578947368418e-01
    4.9999999999999994e-01 5.2631578947368418e-01 4.9999999999999994e-01
    5.2631578947368418e-01 4.9999999999999994e-01 5.2631578947368418e-01
    4.9999999999999994e-01 5.2631578947368418e-01 4.9999999999999994e-01
    5.2631578947368418e-01 4.9999999999999994e-01 5.2631578947368418e-01
    4.9999999999999994e-01</output_scale>
  <inv_output_scale>
    1.8999999999999999e+00 -9.4999999999999996e-01
    1.8999999999999999e+00 -9.4999999999999996e-01
    1.8999999999999999e+00 -9.4999999999999996e-01
    1.8999999999999999e+00 -9.4999999999999996e-01
    1.8999999999999999e+00 -9.4999999999999996e-01
    1.8999999999999999e+00 -9.4999999999999996e-01
    1.8999999999999999e+00 -9.4999999999999996e-01
    1.8999999999999999e+00 -9.4999999999999996e-01
    1.8999999999999999e+00 -9.4999999999999996e-01
    1.8999999999999999e+00 -9.4999999999999996e-01
    1.8999999999999999e+00 -9.4999999999999996e-01
    1.8999999999999999e+00 -9.4999999999999996e-01
    1.8999999999999999e+00 -9.4999999999999996e-01
    1.8999999999999999e+00 -9.4999999999999996e-01
    1.8999999999999999e+00 -9.4999999999999996e-01
    1.8999999999999999e+00 -9.4999999999999996e-01
    1.8999999999999999e+00 -9.4999999999999996e-01
    1.8999999999999999e+00 -9.4999999999999996e-01
    1.8999999999999999e+00 -9.4999999999999996e-01
    1.8999999999999999e+00 -9.4999999999999996e-01
    1.8999999999999999e+00 -9.4999999999999996e-01
    1.8999999999999999e+00 -9.4999999999999996e-01
    1.8999999999999999e+00 -9.4999999999999996e-01
    1.8999999999999999e+00 -9.4999999999999996e-01
    1.8999999999999999e+00 -9.4999999999999996e-01
    1.8999999999999999e+00 -9.4999999999999996e-01
    1.8999999999999999e+00 -9.4999999999999996e-01
    1.8999999999999999e+00 -9.4999999999999996e-01
    1.8999999999999999e+00 -9.4999999999999996e-01
    1.8999999999999999e+00 -9.4999999999999996e-01
    1.8999999999999999e+00 -9.4999999999999996e-01
    1.8999999999999999e+00 -9.4999999999999996e-01
    1.8999999999999999e+00 -9.4999999999999996e-01
    1.8999999999999999e+00 -9.4999999999999996e-01
    1.8999999999999999e+00 -9.4999999999999996e-01
    1.8999999999999999e+00 -9.4999999999999996e-01
    1.8999999999999999e+00 -9.4999999999999996e-01
    1.8999999999999999e+00 -9.4999999999999996e-01
    1.8999999999999999e+00 -9.4999999999999996e-01
    1.8999999999999999e+00 -9.4999999999999996e-01
    1.8999999999999999e+00 -9.4999999999999996e-01
    1.8999999999999999e+00 -9.4999999999999996e-01
    1.8999999999999999e+00 -9.4999999999999996e-01
    1.8999999999999999e+00 -9.4999999999999996e-01
    1.8999999999999999e+00 -9.4999999999999996e-01
    1.8999999999999999e+00 -9.4999999999999996e-01
    1.8999999999999999e+00 -9.4999999999999996e-01
    1.8999999999999999e+00 -9.4999999999999996e-01
    1.8999999999999999e+00 -9.4999999999999996e-01
    1.8999999999999999e+00 -9.4999999999999996e-01
    1.8999999999999999e+00 -9.4999999999999996e-01
    1.8999999999999999e+00 -9.4999999999999996e-01
    1.8999999999999999e+00 -9.4999999999999996e-01
    1.8999999999999999e+00 -9.4999999999999996e-01
    1.8999999999999999e+00 -9.4999999999999996e-01
    1.8999999999999999e+00 -9.4999999999999996e-01
    1.8999999999999999e+00 -9.4999999999999996e-01
    1.8999999999999999e+00 -9.4999999999999996e-01
    1.8999999999999999e+00 -9.4999999999999996e-01
    1.8999999999999999e+00 -9.4999999999999996e-01
    1.8999999999999999e+00 -9.4999999999999996e-01
    1.8999999999999999e+00 -9.4999999999999996e-01
    1.8999999999999999e+00 -9.4999999999999996e-01
    1.8999999999999999e+00 -9.4999999999999996e-01
    1.8999999999999999e+00 -9.4999999999999996e-01</inv_output_scale>
  <weights>
    <_>
      -8.5376445381055677e-01 -2.3970245139994797e-01
      3.0220621825251315e-02 1.1708820492914824e+00
      2.7631310923584573e-01 4.7900673860678436e-02
      1.4476043610435800e+00 -9.4486915349109857e-01
      -5.2882920634987018e-01 -1.4582908703416539e+00
      7.3013304543299243e-03 -5.5941094475171060e-01
      -1.6754776072920208e+00 -2.6622035618169260e-01
      4.9806049638206024e-01 2.2690405267749966e-01
      2.6520950581257413e-01 6.7923753314498203e-01
      -7.3311087594898217e-01 -2.6873418951257760e-01
      7.3655137767160317e-01 1.5011052738097144e-01
      7.2714096280944285e-01 -1.4879876950188706e+00
      -8.8823843825607585e-01 5.0638069328501756e-01
      3.8735340697323611e-01 9.3245457742904738e-03
      -7.6842035476390524e-01 3.1275429952823425e-01
      -1.7480386570486411e-01 -5.7734620232027234e-01
      -1.4251090655350451e-01 1.0161239282246450e+00
      -5.1914407850423316e-01 -7.9853177093502226e-01
      -1.0975319967305488e+00 -3.0012893278472763e-01
      -6.3570654627182144e-01 -4.7222154436338287e-01
      -4.4638766339150765e-01 1.0887055326364521e+00
      3.5175632129400194e+00 5.6654188594146970e-01
      8.6657813258070884e-02 -7.7300064951919406e-02
      2.3979597005650036e-01 -7.0507525839181662e-01
      6.0510076674575974e-01 -1.9120573514409969e+00
      -1.0652041608921985e+00 -2.3119367775121188e-01
      2.7829427105664745e-01 2.0105624577435360e-01
      -3.6479644035910247e-01 -3.5235980791415256e-01
      -1.9495221856651218e-01 1.0865804961411309e+00
      5.9034969776347046e-01 -5.5939787309129496e-01
      7.0199204498791301e-01 -1.2777214748078594e+00
      2.6885380034750903e-03 2.5872839715521950e-01
      1.7332195651705378e+00 -1.6665054648912365e+00
      -1.0452562717368870e-01 3.4340553225694670e-01
      1.4561862823096694e-01 -2.3250643746996030e-01
      9.0446337495536444e-01 6.9932292946708496e-01
      1.4172144315566459e-01 1.5824329136841377e+00
      7.6003571429226691e-01 7.1277542159071380e-02
      2.4838717401618262e+00 2.5466158678687467e-01
      -1.4872956656649161e+00 -8.0244281774039650e-01
      -9.1909187371540260e-02 1.5777619140150743e+00
      2.8442464375519321e+00 -1.1542637742618866e+00
      2.4432479869103796e+00 -2.7884757085829415e-01
      -5.0218010783215333e-02 -3.8989200434768650e-01
      8.0636021920131429e-01 -8.8606180445988325e-01
      3.2677575444681944e-02 9.7395064017993388e-02
      1.0937622663313631e-01 6.6478325878442113e-01
      1.5376944074398042e+00 1.1186874161606473e+00
      -4.5346424625227011e-01 1.2865673272428870e+00
      -2.0371419589854514e-01 7.9934477052508890e-01
      6.7522603393688721e-02 1.4061241389284218e+00
      1.9665907927568758e+00 1.5824712156819654e-01
      -2.6601155920538955e+00 -1.8047815886790632e+00
      2.0324160198504634e-01 2.3968419194081259e-01
      -3.2737116169530522e+00 -2.5792006473948087e-01
      8.9895142143416928e-01 1.2040001708714665e+00
      4.0951754668134083e-01 9.6975081398582397e-01
      8.1700003820001532e-01 4.3875981357000821e-01
      1.9774925232864187e+00 2.2493535298597980e+00
      -1.9678286648851262e+00 -1.6352154663169738e+00
      -2.3259649480359652e+00 -9.2840634550712775e-01
      1.7526767540095318e+00 8.1521126578398451e-01
      -6.3458744968830272e-01 6.2070504567370031e-02
      1.5128584138638497e+00 -4.3139483811476170e-02
      -9.4942687210436499e-02 4.7279161967143662e-01
      2.8297004097567902e-01 8.5685487981953912e-01
      -9.9780819337800974e-01 1.4024051133166773e+00
      1.0844629355081443e+00 1.0010304112944142e+00
      -2.2847179701201537e+00 7.0327125235280574e-01
      4.6488235216699603e-01 -1.6770217310835334e+00
      2.6490490770860333e+00 7.1303856194536763e-01
      2.1129934478104104e+00 1.0413453520011673e+00
      -1.3446312797234772e+00 -2.8522612014595463e+00
      -8.7286829012978928e-01 -9.1674914297042631e-01
      9.5153088220683446e-01 -2.7859745885574831e+00
      1.1194156816983893e+00 -9.5835418573869305e-02
      1.6046504157805854e+00 1.9571344661136423e+00
      3.9172958509460376e-01 1.3749455188844659e-01
      1.3053229717899872e+00 7.0334032899410392e-01
      7.0450693794390884e-01 -2.0986761871470305e+00
      8.2480696899282191e-01 8.5533036293404163e-01
      1.5162960438556687e+00 -5.4168545277644853e-01
      4.8655346800767624e-01 4.1397415386427155e-01
      3.1872941645120734e-01 -6.0411588818490980e-01
      -5.0312723738013831e-01 -1.9635455826832604e-01
      -7.4853781680630405e-01 9.4192368794728287e-01
      -7.6364978419446772e-01 8.3917902883793916e-01
      -2.5709315526333792e-01 1.2164925122733563e+00
      3.3824687259063735e-02 -2.4252496401560011e+00
      2.4155919021601011e-02 -1.6566948116086695e+00
      2.4357988597642724e+00 5.3473155272854445e-01
      1.1982387452683994e+00 1.1621284645033674e+00
      -2.2283896338237787e+00 -8.4257140185331120e-02
      6.6003914246640660e-01 -1.2991084757859086e+00
      -1.4348110811902643e+00 -1.2261438790918863e-01
      6.6794739505430123e-01 -8.6203855361285753e-01
      8.8089665131418160e-01 1.4234069126416391e+00
      -9.8196625437842033e-03 1.5378830418158862e-01
      -9.2734690809285270e-01 2.9982045506446200e+00
      1.4358117291484149e+00 -2.6402069603955929e+00
      -2.3984247175578832e-01 -9.0918994591321867e-01
      -5.4419337553901614e-01 8.2688086279387729e-02
      1.9258902278313800e-01 -9.3439404356534506e-01
      -1.4621464730172478e+00 -4.7233467733530982e-01
      -5.1241242017950239e-01 -7.2966558583287533e-01
      1.9141615999620856e-01 1.0460868988032717e+00
      9.9296314819708043e-01 -3.9431586805892943e-01
      -1.2134963369541742e+00 8.6409683361317802e-01
      1.0261333029046773e+00 -2.7983228872311399e+00
      2.9328406002018487e-01 1.4672336609773706e+00
      3.1379987577708550e+00 -8.5317112227851954e-01
      -9.4537737704359848e-01 1.7003016252959862e+00
      4.2745818435326205e-01 -1.1717606973011139e+00
      7.4385114369766869e-01 -9.4619523900594460e-01
      -2.4160890901013441e+00 8.9315942318660302e-01
      1.7139295173209719e+00 1.6464207628341825e+00
      1.2929406822506501e-01 6.1526924012770323e-01
      1.1553996091230805e+00 5.4200561023677463e-01
      -5.9808056572828983e-01 1.5040183279615138e+00
      4.7200985048004390e-01 -1.3810098385363607e+00
      -4.5030119425479737e-01 -2.1634384856178572e+00
      -1.8594844387543683e+00 -7.4866728189411469e-01
      1.6727436919639338e+00 2.2984114325833449e+00
      1.1724436628370152e-01 5.2516268294275903e-01
      -1.2513917434304556e-01 1.3679574279149782e+00
      3.3865942406425042e+00 4.1949508662355145e-01
      -1.7451220814429141e-01 7.5683615715664077e-01
      1.0434824184094815e+00 1.5364746455962526e+00
      1.3065862598795464e+00 1.0553113253181536e+00
      -4.5561926814497239e-01 -5.7288376055983636e-01
      1.8371468679187648e+00 3.2303620803250732e-01
      -2.3450520868816147e-01 1.1821111113080531e+00
      -1.0927116476717723e-01 3.2975472776224950e+00
      -1.5448033528786815e+00 -1.1759259518532190e+00
      1.3838730937621855e+00 -2.9455171510185600e+00
      1.6800241400192051e+00 1.1441807199996357e-01
      4.4777104802110312e-01 6.1135290425016375e-01
      1.0134098115339827e+00 5.5190144229967475e-01
      1.1857034870516878e+00 1.6825233506150419e+00
      -2.1762486463700201e-01 -3.5467124533043720e-01
      -1.2733021980148913e+00 -1.8680004370186261e+00
      6.0533998712642434e-01 4.8594116534315701e-01
      6.9306376237287648e-01 -1.4037510802241726e+00
      -8.2244956347521814e-03 -4.4680178826091897e-02
      -9.4146242139499514e-01 6.8850797855518953e-01
      3.0741730660360043e+00 2.3127052765065454e+00
      1.2306424265369751e+00 -1.3580631019469505e+00
      1.4215526618160187e-01 2.9816750023936920e+00
      -6.7811685566508872e-01 6.2078108072870619e-01
      2.4329508808350719e+00 1.6861976565907431e+00
      1.0254987987281223e+00 7.8903971968527242e-01
      -7.8449451710852280e-01 1.2546366642396661e-01
      -1.8529548807561746e-01 3.4923267184833695e-01
      -6.3714227462549333e-01 -1.9116578381257703e+00
      -1.2576585330079741e+00 5.0619700793147315e-01
      -1.5430255241348728e-01 1.5034133285893940e+00
      -1.5455669721021217e+00 -1.0559104390450604e+00
      -1.7258180322431118e+00 7.9045768764570964e-02
      -1.4692570901149216e+00 9.1334894630272911e-01
      -1.8057672124760724e+00 -4.7412667172314210e-01
      -6.8395475850643664e-02 2.4116643553431213e-01
      3.0611784880155701e-01 4.9428002808483856e-01
      1.1812063708564928e+00 7.0872119290618829e-01
      -7.9296028333680890e-01 1.3857730603748266e+00
      -4.1778403479661258e-01 1.4713933880480790e+00
      -2.6988893981329742e-01 3.5967049700622455e-01
      -2.4896962680131166e-01 -8.3728602055831880e-01
      9.0934297417587195e-01 -9.8745164537192578e-02
      -3.5265294925946489e-01 -3.5942850946690397e-01
      -6.7353770632925991e-01 -5.4386730593140209e-01
      1.1384656810461320e+00 2.9635543691309640e-01
      8.2485671974684938e-01 -3.0280840684068339e-01
      8.5941308262466778e-02 -1.6869007868020942e+00
      1.6792411388370990e-01 -1.7076093016044516e+00
      2.2365358804950506e+00 -2.4191778442814232e-01
      -8.8648508197808906e-01 8.8331242739781601e-01
      -6.9425342832450987e-01 -2.8315100317481995e-01
      -8.4971401071254438e-01 1.3306534171727757e-01
      -5.7655012448538445e-01 4.4105525863283379e-01
      -1.0108035539959734e+00 -5.7922950478403368e-01
      -9.1286327267409417e-01 3.3074679811002095e-01
      -8.5839271509852877e-01 1.6672445845437083e+00
      -2.2782834746810124e-01 1.4691609599432804e+00
      -6.2120988786819195e-02 -3.3496711088150061e-01
      -1.5941247324941221e-01 5.4469680403156787e-03
      -5.0786669314430111e-01 -3.4405383259965833e-01
      1.6673432294545474e+00 2.2780883993085876e-01
      1.3949333845899343e+00 -6.1944867503749534e-01
      1.0733296225627700e+00 -7.6719670804156392e-01
      -3.2234403076376789e-02 -5.4843391427939377e-02
      -2.5273873356034332e-01 1.1865181342844662e+00
      -4.2802662293916982e-01 5.3245594979671951e-01
      -5.8571188456659629e-01 -6.7957369233188458e-01
      5.9801908464102005e-01 -1.1908546414306218e+00
      -9.1224733691858073e-01 3.0959815680454456e-01
      1.9432811077649359e-01 -6.2469867195294959e-01
      -6.4156614515635924e-01 -3.5509474716376499e-01
      9.6735761006116777e-02 -4.1735197552832816e-02
      -1.5269375144546731e+00 8.7054147214974439e-02
      1.2546753789854252e+00 1.5164541405781988e-02
      1.0693981869802677e-01 1.7182124672124572e+00
      -1.5647112320014493e+00 -1.3595834236330531e+00
      1.6053002277959585e+00 1.4595524539788651e+00
      4.1238458036514442e-01 -3.8525335712421765e-01
      4.8071919712987549e-01 -2.3310986199903811e+00
      -6.0142483135986502e-01 3.2827220560468717e-01
      3.8267155246466172e-01 -8.4276623146420093e-01
      -7.2635828935949998e-01 -1.0363515081802113e+00
      1.5960211397014454e-01 4.8739600448981418e-01
      -5.6099522727422213e-01 -6.6855617712946458e-01
      4.4804240395176120e-01 -3.7046417968904327e-01
      -1.4465529604188978e+00 -9.0795726058098258e-01
      -2.8378088433274112e-01 1.5580773742527361e+00
      1.1017659635410863e-01 2.2717851261910532e-01
      4.9224032103748561e-01 1.0885493915890785e+00
      2.7522260054340824e+00 -7.8997991643922794e-01
      1.4622913510491214e-01 -4.7630742087831252e-01
      1.6110714968045790e+00 3.5296355752590486e-01
      6.7583839104722732e-01 -1.5689346832312996e+00
      -1.4132222037362810e-01 -9.7924872297743337e-01
      1.1956383680926794e-01 -6.0041085792718041e-01
      -1.0015553965830748e+00 1.3466130466010477e+00
      9.6278344498197410e-01 -1.1327548932073386e+00
      1.6191117437651800e-01 -1.1767139723064119e+00
      -6.1544500061852558e-01 -1.2014070666971157e+00
      1.8763301131227161e+00 -1.7694896756789352e-01
      7.3011798786835402e-01 -8.3418672714177022e-01
      -3.1054684663428372e-01 -1.6091222199337341e-01
      1.4137308798597847e+00 3.4757757658314126e-01
      2.2081715811737102e-01 7.2059973683881928e-01
      -6.6006382660096596e-01 -1.1923831572570091e-01
      -3.1063752445341941e-01 -2.3874590569184240e+00
      -2.1138793536796907e+00 8.2250362192359583e-01
      -1.4047400309683833e+00 8.9089050100174827e-01
      1.4602989222017857e+00 8.6572093510798143e-01
      9.7381587089198540e-01 -1.6655806532424384e+00
      -1.0723563892033963e+00 -2.8704029821929550e-01
      2.3319571758382884e+00 -7.5127703610887858e-02
      4.9108338438867349e-01 -8.5127004817465968e-01
      -3.6424683808492192e-01 -1.6785088932542687e+00
      1.0778186716278000e+00 -1.1943331444477109e-02
      -2.0357439823595742e+00 5.5530474916637507e-01
      -1.4210722373509903e+00 -7.6701809918304220e-01
      6.4560062844094124e-01 -4.1310537167154338e-01
      -1.0728464926357284e+00 -7.1925956383153300e-01
      -9.8872113405961770e-01 -1.0575520327358365e+00
      4.3695578824190434e-01 -9.8160081562340706e-01
      -3.9805504752115944e-01 -1.3404340055518265e+00
      1.4261549810496112e+00 -9.4876972741338483e-01
      -5.1512124105942192e-01 -1.8190509098168302e+00
      -6.5386150263381448e-01 7.1742111235096917e-01
      1.2143741617499111e+00 1.9908159043119777e-01
      -5.4176723453916886e-01 -1.0440145451422735e+00
      -8.6402128587332028e-01 -1.9423151938103883e-01
      -1.9024207580058478e-01 4.7880845829725471e-01
      -1.7322937649596104e+00 -6.8864818140054818e-01
      -4.7033045650301308e-01 6.6059308233803204e-01
      1.2657864751687491e+00 2.7666402506035088e-02
      -4.2888143532852391e-01 -7.2677934644991615e-01
      7.1912074597983444e-01 2.4009871328498822e-01
      -8.4890024893924287e-01 -9.2101152668752684e-01
      1.0473654294339243e+00 -5.4783194922486034e-01
      -8.3482669722902381e-01 1.0543831439627664e+00
      2.6246151673764639e-01 -5.6661424502396374e-01
      8.1327660054713605e-02 3.7842053180831053e-01
      1.4047690189040676e+00 -1.7874170591119185e+00
      5.9544253044155770e-01 1.9038820671153153e-01
      1.3808379651736129e+00 -2.0615417114018544e+00
      8.6340099052485664e-01 -1.3022191369363101e-01
      1.9196565141348015e-02 -2.8235823038710959e+00
      -5.3206073912254781e-01 -4.6375997720079443e-01
      -5.9108832327664551e-01 -8.0067484445012904e-01
      -1.6345461685531293e+00 -6.2329163743754412e-01
      3.3773183760946585e-01 -1.1638398775044492e+00
      8.1494898999813714e-01 1.8200552112098209e-01
      2.1267214983734950e-01 -6.7770065457018669e-01
      -2.2606061693872199e+00 1.2161209087692826e+00
      -3.7246720115030313e-01 -3.6762496574417297e-01
      -1.6169720460938172e-01 1.5254249942837410e+00
      1.3671909628881769e+00 -9.3304641397807153e-01
      -9.8044483880713440e-01 -3.4076728712339460e-01
      1.2868133954914609e+00 3.6229057400603670e-01
      1.5875414475384093e+00 1.7958150083003472e+00
      -5.6851269770923396e-01 1.5640486920367885e-01
      8.9469649405614360e-01 -5.1658719672154196e-01
      1.6276994295011579e-01 -8.8200492972930733e-01
      4.6525559840783620e-01 -5.5565165488410084e-01
      9.2325519618513996e-01 5.9196081376074361e-01
      -2.2694010463862938e-02 7.0813128119731661e-01
      -9.7427744760960977e-01 5.2009502753654169e-01
      -4.1656267935735508e-01 4.6184040804377746e-01
      2.1598971556707447e+00 1.6805352768950543e+00
      5.8605910412669671e-01 1.1344528705245063e+00
      -2.5023553941170795e-01 -5.2539475905736648e-02
      -2.0011769466774793e-01 -1.7029432275669021e+00
      4.5973492989976231e-02 -8.1527374608776415e-01
      -2.0210493160107821e+00 9.3701020473130947e-01
      -5.1737111570069594e-01 -1.7611077181375509e-01
      -1.1650599392792542e+00 3.2324405045379878e-01
      1.9172371233061238e+00 -6.5487588406307262e-01
      -1.2017073958791086e-01 5.2413601499315321e-01
      7.8948356710440659e-01 -1.4627437862180429e-01
      -1.2754256576809093e+00 1.4534667268510304e-01
      3.3763304609014749e-01 1.5878184814953618e+00
      -3.7919072899319406e-01 -8.4046072055014340e-02
      -5.8808158384310449e-01 -6.7959428434606139e-01
      -1.0713541738891019e-01 4.2208177609874570e-01
      -8.3984767245305658e-01 5.0400721944452442e-01
      -1.2760077704452091e+00 1.6088691599077223e-01
      2.5638677205715682e-01 3.4777750008770952e-01
      1.0132822121352805e+00 1.2254009437581953e-01
      1.1174052642853869e+00 1.7750988450010017e+00
      2.0238095379478409e+00 -2.7695487086003945e-01
      6.8019245677560303e-01 1.8677246458431965e-01
      1.0420655467959061e+00 -1.9022133283369187e+00
      -8.7569064646621353e-01 -6.9701493435141970e-01
      5.2381137047941595e-01 4.8955846928101239e-02
      3.9553302498478005e-01 3.9430794938260710e-01
      -2.0182094294142869e+00 -5.4253974099728208e-01
      -5.9121785094922075e-01 -9.1216949548677329e-01
      8.3823087210332481e-01 -2.9610259122047372e-02
      3.5028859778475735e-01 -1.6070004926365962e+00
      -5.1550282897530519e-01 1.6163638702415747e-01
      -8.3214132792894235e-01 2.3726282258793460e-01
      -2.9260165292546447e-01 1.2730401735572741e+00
      8.1439390699810033e-01 -1.2287490910309049e+00
      4.2556064721306541e-01 1.2404096043035728e-01
      -3.2421647307362456e-01 3.2405520614434502e-01
      -1.3077599679188937e-01 -1.1694203234677896e+00
      1.3791964518160653e+00 6.8194933338197550e-01
      1.3485121009108365e+00 -5.0053685088583388e-01
      -8.2165974175644452e-01 -4.9186452351395227e-01
      -1.5249777868214376e-01 -1.1108929939201764e+00
      3.1079699298485486e-01 2.8148237911968860e-01
      8.9279328866638766e-02 -4.8304333819343420e-01
      -7.5313289171211162e-01 -1.2017663821738647e+00
      2.2162565274473103e+00 -1.1589995158354849e+00
      1.8469897416604448e+00 -7.6670424421634775e-01
      -4.2281977474098748e-01 -1.4629637895281051e+00
      -9.6441318559074962e-01 -5.4420344380065988e-01
      -1.0933561671562697e+00 -3.9718684670027593e-01
      1.7237193455891708e+00 1.2881112923415867e+00
      -5.6547499729165418e-01 7.6326585416856307e-01
      -4.5183644517937011e-01 6.8698761289287680e-01
      -1.6937821755906704e-01 1.5831484645014930e+00
      -1.7668456255468207e-01 -1.3125393023244176e+00
      2.4341760670215387e-02 8.3314858829034477e-01
      1.0062852367530144e+00 -1.2654644374562662e+00
      -8.2714581318901637e-02 1.0507228020475843e+00
      1.9045511380814577e+00 6.8374191049895972e-01
      -1.0524455480239014e+00 -1.1872161352500874e+00
      -7.4342947732196385e-01 -8.4247558759094565e-01
      -1.3351449788134975e+00 2.3462588667468505e+00
      -1.1709515484935287e+00 -1.2319087626868328e+00
      -7.5813551828378872e-02 6.9056945591171404e-01
      4.7235591064383098e-01 -8.6740778572105892e-01
      -8.8097558692585443e-01 8.0815935944709594e-02
      2.8046273445502412e+00 8.7112790136523829e-02
      2.7888551614164299e+00 6.7877664991385522e-01
      -2.3368050865811907e+00 1.2043368217159922e+00
      -1.6472907779009485e+00 -2.1664906865072450e-01
      1.0496398341120647e+00 -1.0538724154243102e+00
      -1.0259808398261283e+00 4.0159629343878039e-01
      1.8457885713505065e-01 1.4845459463045134e+00
      -6.3680387675650241e-01 1.2069110108360426e+00
      1.2083136949748634e+00 1.4826246770374302e-01
      -1.1623175499224243e-01 4.5680487883035442e-01
      7.5946953139357498e-01 -6.4727699861864829e-01
      -8.3172208694214811e-01 4.5769795148903381e-01
      -8.0678624683551359e-01 -1.0468336888330749e+00
      -3.0259755552939688e-01 -3.5229600059567168e-01
      2.4194649942103927e-01 1.4067955227846014e+00
      -5.5267498008117344e-01 3.0104519995845407e+00
      -1.1790033810997571e+00 -1.3484211908192383e+00
      -1.5136755197054888e-01 -4.4722862022588178e-01
      2.0684200228625991e+00 -7.1271948617766590e-01
      4.6775384545847298e-01 -7.9000534513756948e-01
      2.3003426233245050e+00 4.3915795435601490e-01
      1.4826576402613252e+00 9.9570055246003775e-01
      -1.9722309371663300e+00 -8.3226450214506265e-01
      -3.2245555136185861e-01 -1.5066869785290160e+00
      8.4158822961412694e-01 3.3032570853327231e-01
      -1.9466655789457532e+00 -1.0223564918472521e+00
      -4.9174090748250288e-01 1.0588754667904190e+00
      7.8751225913872047e-01 -9.4313905151623278e-01
      2.0747068430326117e+00 1.1585906881125247e+00
      -1.0615796903681167e+00 1.5810453152197184e-02
      -3.4745513415495290e-02 -2.8302224147960811e+00
      9.9741002524794353e-01 4.1777704401518739e-01
      2.0773433421437866e+00 -4.3811170438927522e+00
      -1.5032678832542912e+00 2.6099372919749810e+00
      -2.3393475285707543e-01 8.3706441149572852e-01
      -1.5515097939364293e+00 2.5247863958971917e+00
      -6.7977495645904029e-01 -5.9651399005305128e-01
      -2.6465304795059075e-01 1.4388933956603682e+00
      2.3595025075478375e+00 1.7737381018519653e+00
      5.1520772697849815e-01 3.2843765803012259e-01
      7.4902378092103650e-01 -2.2791863013746905e-01
      2.1547644429778581e+00 9.2698274022278204e-01
      -2.0895547578341795e+00 9.5112024239783355e-01
      -2.9731106040164224e-01 1.4729051364729233e+00
      -5.5581431213830512e-01 1.2827052626385520e+00
      -1.8536872759994497e-02 -1.3541142533367674e+00
      5.1713953572000215e-01 -1.1707771191511265e+00
      -8.8709371426079087e-01 -6.3274788057588316e-01
      -1.1908178371237170e+00 -4.1019603446472186e-01
      3.5111972329906022e-01 2.4543295311223332e-01
      1.0782678849685343e+00 -1.5874588073380186e-01
      -2.7618451683524153e-01 -3.8433892995615848e-01
      -3.8953236708870120e-01 1.7889252013297978e+00
      9.0603068829656941e-01 -1.4912210881383776e+00
      -1.7025154746254274e+00 8.8438358542031370e-01
      2.2646008761349856e+00 -6.2818848991566079e-01
      5.3491439288698950e-01 4.6986626966959272e-01
      -5.8745316718307261e-01 8.1988351935225834e-01
      -1.5581875622576169e-01 -1.8831938415198841e+00
      -8.4716531624590685e-01 4.7205714294840329e-01
      1.5290420919725120e-01 -1.2048096548423697e+00
      -3.7791468531184302e-01 -2.0499987704047329e+00
      -2.1205377832377588e+00 -7.0963930124859498e-01
      -2.3632441168251237e+00 1.4288527061749381e-01
      4.6099589499781701e-01 3.3505203156201704e+00
      6.3662603919395977e-01 -1.0354712803244135e+00
      1.0129764150656013e-02 -8.9650922622947227e-01
      -7.9659133554172612e-01 1.0990709589817274e+00
      -1.2887909555725832e-01 -5.2057120477699870e-01
      1.4542492421446072e+00 -4.1030470878102421e-01
      3.2420842006154627e-01 4.8996154456848912e-01
      1.4970053862272004e+00 -2.6379734967958451e-01
      -8.0163837820247408e-01 2.1745238390419935e-01
      6.0327752652518707e-01 -1.8767783398869556e-01
      -1.8334562831370085e+00 3.9157266806284297e-01
      1.8162125315555894e-01 1.2888339341217654e+00
      7.0946950163238942e-01 5.9847706025166947e-01
      -2.9125819487994753e-01 4.1226905712199696e-01
      -1.9025978860017301e+00 -8.5926916024304434e-01
      -3.4370231057795092e-01 9.6046647192706169e-01
      -2.0215486548033720e-01 -3.9239950500037635e-01
      2.5939719258116489e-01 -1.6876369869466232e+00
      -1.1895629609638250e+00 -5.3583955736133537e-01
      -2.8635329375785292e+00 -4.7423503589305033e-01
      5.9119631029273845e-01 4.9008186127531346e+00
      8.3081355770426094e-02 7.1717032413900916e-01
      -2.5889935224066996e-01 -1.4617910666873077e+00
      -8.2115697672310661e-01 -1.3304891262382803e+00
      -6.5127843498419968e-01 4.4011383732062326e-01
      6.0348977300965712e-01 8.9016582833820768e-01
      -6.4377401269959555e-01 9.8638817539307977e-01
      -4.9226965423875652e-01 -1.5222870429667060e-01
      -1.1744305843303620e+00 -6.5406587223868951e-01
      -2.8636236854217711e-01 -1.0298784856141974e+00
      1.1806921341982901e-01 4.8137465916277329e-02
      -6.7352015346518135e-02 8.0863205345654066e-01
      4.1747670349893884e-01 9.1780782422621821e-01
      1.1002358017740754e+00 1.2347960235215953e+00
      -1.5575710381512990e+00 -7.4779883869255681e-01
      7.2445920718565215e-01 -1.2778717511175675e-02
      -2.0559577140140020e+00 -1.4890557208387753e-01
      4.3871161492780414e-01 2.5370439056044114e-01
      4.4170577791457288e-01 -1.0046577770468856e+00
      -1.8095543585530594e+00 -1.3417722309775586e+00
      2.3330787503912401e-01 3.4015233734812829e+00
      7.7204460543212061e-02 3.0729196582514917e-01
      -1.1091460173822611e-01 -2.5191975149947861e+00
      4.3400120965313888e-01 -1.3250019741928269e+00
      4.5623892832397372e-01 1.8269258580121892e+00
      -1.1130215581921263e+00 1.3711748442665357e+00
      -6.3871223458353654e-01 -6.6916907687765637e-01
      9.8472324872447614e-02 4.3605809560748171e-01
      -1.6500883368051429e+00 3.3751392245934020e-01
      1.5154686699168066e-02 1.7910990013590730e-01
      3.0993704591408039e-01 -9.0794706819930071e-01
      -9.5636246578112039e-01 -2.0778896526192727e+00
      -4.0511351634940040e-01 -1.2639343625487690e-01
      2.2211243508769836e+00 -1.7908509502355704e-01
      3.8755443493554437e-01 2.1621799440890146e-01
      5.1979340624559300e-01 5.3904705259407004e-01
      -1.5270741656714224e+00 1.1367617839636981e-01
      9.5676178065880926e-02 -1.2900026470877004e+00
      3.2395595203905625e-01 -8.9870060929136153e-01
      3.0092675359073945e-01 -2.3063576989949368e+00
      1.9130993893291359e+00 -2.9548764048903138e+00
      -4.5061392308111325e-01 -4.1010957080562767e+00
      -8.2905570005080031e-01 -1.2385875808587643e+00
      4.3973043737531151e-02 -2.7088506562836945e-01
      2.5824485025574893e+00 3.8507438444478886e-01
      -4.7463436959259547e-01 7.5803587136531547e-01
      -3.0856603271108007e-01 1.0667603364830567e+00
      2.6370507294555172e+00 3.6797877903142234e-02
      -1.8412567645270010e+00 1.7484559169531365e-02
      -1.0604112168775619e+00 -4.1010773563187408e-01
      -1.1478012821232406e+00 -8.2632300507527856e-01
      2.2236245587432664e+00 -2.8390158171625757e+00
      -2.8640025944610648e-01 1.6672035098560001e+00
      -2.4443075956334153e+00 -4.5429606143469083e+00
      3.4288454521232885e+00 2.8703710437788619e+00
      2.1770871144424011e+00 -1.5771122689678541e+00
      1.1527336057226771e+00 -1.2967798820743728e-01
      -1.6037205359250764e+00 -2.6329795729463563e+00
      1.1577953496575979e+00 -7.5442183640720983e-01
      -1.0210292053481649e+00 -7.0813515280217745e-02
      -2.7604407712301513e+00 -2.9860903759612745e+00
      3.6581610196135400e-01 -2.4524854060859900e+00
      -1.0831594925245120e+00 -1.2634592781061929e-01
      4.3583157474043094e-01 1.1801598839819822e+00
      9.2890509977984614e-01 4.3455524754700581e-01
      1.5774249036653774e+00 -1.4264590212910890e+00
      2.4102245383702550e+00 1.1669629344283947e+00
      4.2244478399820196e+00 1.3479766987271822e+00
      -1.4440852222851006e+00 -3.0370260003241517e-01
      -1.7876814140045705e-01 -2.2179726636029382e-01
      1.1955562614023167e+00 -1.3053041153577012e-02
      -1.5800063813384152e-01 6.6247758254394751e-01
      -6.4923482772445107e-01 -9.7966545509118241e-01
      -3.5889881243296986e+00 -9.2471339850476497e-01
      2.4244354234575645e+00 2.9380999503393332e+00
      1.4835408260337688e+00 -6.2103545932092075e-01
      -4.4401343761718381e-01 -1.1352297078327821e-01
      -1.3505118567042236e+00 -1.1465246685198351e+00
      -6.9088855416590933e-01 -2.0311957921644858e-01
      -3.1854311829676479e-01 3.4112064952715027e-01
      -3.4133918749207846e+00 1.4535826447447922e+00
      2.3525015752708316e+00 8.7353577556645456e-01
      2.1647034112301164e+00 9.9255736576155529e-01
      -9.6179646905781933e-03 -6.3300292078019216e-01
      -3.2702923936947226e-01 1.0293214303548914e+00
      -1.8537767187992416e-01 6.4303640568450407e-02
      3.5690946219549458e-01 6.8813333128653287e-01
      4.5206566831378958e-01 1.1310441007118496e-01
      -1.3431298357460923e+00 -1.9336364589656847e+00
      2.1641047305626309e+00 -1.0267727319532740e+00
      1.1448341649739428e-01 -6.7462665232820818e-01
      1.6224359539523756e-01 1.2775420025272002e+00
      3.5268100674126851e-01 -1.7026448587465010e-01
      8.7101321440760227e-01 1.7126243270818664e+00
      1.5973379627135062e-01 1.4740264296770642e+00
      2.0179310793009084e+00 -5.0441376405337046e-01
      -1.1428771029248310e+00 2.7440194457236083e-01
      3.0296976758734404e+00 -1.2347965134547985e+00
      3.5309420116334228e-01 3.1920626105488525e-01
      7.3988174547010088e-01 1.1492873290277692e+00
      -1.0386786625782440e+00 7.4192867390136930e-01
      1.0698858243276508e+00 1.4332626527982495e+00
      2.6714799954771378e+00 2.3663835587752913e+00
      2.1492164890263435e-01 -1.5194829123293629e-01
      1.4188872031936959e+00 1.0746479196958314e+00
      -9.4659008805841979e-02 -1.5864366806796831e-01
      -1.6084853965567611e+00 1.6503294133849489e+00
      1.2384474896841469e-01 -2.9650448795619033e-01
      -1.0485248935227447e+00 -1.1308444514945120e+00
      -8.6909816505602464e-02 -1.1841320508759898e+00
      -4.0386610904266451e-01 -1.6455349046333938e+00
      1.9235964945812085e+00 3.2559460352980613e-01
      -5.3894789714466595e-01 -3.6234281276345554e-01
      9.7716296356136290e-01 2.4800443567164931e+00
      -2.5917040130179064e-01 3.0655896931696375e-01
      9.2235147588580757e-02 -2.0555286175043477e-01
      -4.7178332609820167e-01 -4.0382228218604127e-01
      -1.2549751077449862e+00 -2.1503945108522431e+00
      2.4685226019915527e-01 8.5380298969964474e-01
      1.5984239970647920e-01 -4.7318501208795205e-01
      -1.3779745002997927e+00 1.9479488955617122e-01
      3.2576467237045609e-01 -4.5028625070298056e-01
      1.5464066061030224e-01 1.1385617676204000e-01
      7.7819849517617334e-01 -2.7430473778895646e-02
      7.0907702128442918e-01 1.8140116643640805e+00
      -5.8477633132964946e-02 1.8333509637413259e-01
      -1.6315093544481181e+00 9.6907913600075901e-01
      5.7372017988141066e-01 3.0594467810249426e-01
      1.1511483026394655e-01 -7.6532689238251117e-01
      -2.4974648237341879e-01 -7.8678804977151262e-01
      4.5587969901764433e-02 -8.4431229068330793e-01
      3.4324360779514557e-01 -6.5373967520684095e-01
      7.7705954858008008e-01 -4.3426108313617068e-01
      4.5343673841936910e-01 8.1410499921206536e-01
      1.2095605636808335e+00 -2.2117889864071438e-01
      -1.6189715867502363e-01 1.7019050719650672e+00
      6.0365175612837751e-01 -1.8350759651124587e-01
      -1.0210239173940696e+00 -7.5018867258614996e-01
      4.1043379849990860e-02 6.8338552744270464e-01
      -7.7418462488815609e-01 -5.0982822542274764e-01
      2.6670406505440968e-02 6.5542840594640794e-01
      -2.6821130084386136e-01 -3.9498520008031529e-01
      -1.4481488940794382e-01 -3.9328242000985281e-01
      -7.3287558484511017e-01 2.9679351969085194e-02
      -9.5651594289063602e-01 -1.5369869373981312e-01
      9.1614031268430363e-01 -4.5097214168651001e-01
      -5.8724222804546711e-01 -5.3453213179425074e-01
      8.5025792098622544e-01 -1.2920950629115266e-01
      1.4519702724407813e-01 6.9562013894592323e-01
      -6.2397744339281531e-02 1.0564357147430381e+00
      9.5580697431911735e-02 1.5685540282910968e+00
      -1.0824337348742479e+00 -1.3431524194394748e+00
      8.4314442345550178e-01 -9.6328274999250685e-01
      -3.7958229028821022e-01 2.8876934358164053e-01
      8.8565883028543207e-02 7.4939801831204730e-02
      -4.7445046100702842e-01 6.8973274420077479e-01
      -6.0002911142980986e-01 -1.0904341388149066e-02
      -2.7405971730166567e-01 -3.6118036318109753e-01
      -9.7063928916569586e-01 2.9413974088299477e-01
      -4.7480968938890283e-01 5.2502044170695328e-01
      -3.3680592122122366e-01 6.2038241433366736e-01
      5.4235687226445883e-01 -1.5895253354221599e+00
      -5.9649562875314499e-01 -7.9081513842342199e-01
      1.7658612801607947e+00 -4.7447514405655644e-01
      1.7863668426892615e-01 5.7415245008341709e-01
      -6.2682332010618314e-01 8.6743926539500138e-02
      -4.8324731849365882e-01 -3.8613028309119563e-01
      8.5044064436848521e-01 -7.8261530574417415e-01
      2.4041399129238972e-01 2.3535041927192877e+00
      1.5807500645976131e+00 -1.2716571749459152e-01
      2.4720052878156565e-01 1.1479385562948077e+00
      -2.5522897695713167e-02 2.0098692427678193e+00
      3.9358787514338933e-01 8.2008299373610954e-02
      -9.5398971700427035e-02 6.0990097604827098e-02
      1.0217454481165393e+00 2.8112535771869890e-01
      1.1499357531733931e-01 7.8452291630500756e-02
      -1.3830805062564020e+00 -6.9522566015270415e-01
      -9.0479909810161807e-01 -1.0646185172075600e+00
      3.8771878371224672e-01 -6.6375052185665073e-01
      -6.5662675475826771e-01 5.5671388542844369e-01
      4.8105065553755683e-01 1.3535344455376579e+00
      1.3229927819099496e-01 -6.8671740200696429e-01
      4.4092778243359426e-01 7.5017671461067548e-01
      9.9735809251017571e-01 2.2428754038168208e-01
      7.9921737555082317e-01 -7.0038602271389871e-01
      -1.5622741308353975e-02 4.0164172387681646e-01
      -9.9407322596721881e-01 2.4887784304770100e-01
      -9.4211103161762444e-01 -8.4947143779829204e-01
      -2.1307469839269383e-01 -2.2890911603172146e+00
      -3.7504781190980307e-01 3.8667902216109418e-01
      1.0903923637396531e+00 2.3002215028781495e-01
      -1.8993232112867375e+00 -1.1094832038823056e-01
      -4.5151771239160560e-01 -3.4668113108446941e-01
      -1.3528789951784909e-01 -3.1717189337580914e-01
      -4.5060278217181154e-01 -7.5026933053977352e-01
      -3.7552728658834561e-01 -9.4154967726030925e-01
      -1.5712238595750037e+00 -6.6042429668670466e-01
      1.2306756996697248e+00 -1.4208154688622006e+00
      2.1445129570617216e+00 1.2036827576362975e-01
      9.4149309987807861e-01 -7.5933796795971542e-01
      -1.2395306974373095e-03 2.6003461909131129e+00
      -1.9755956543108584e+00 -2.1030761601898898e-01
      5.6325251244825825e-01 3.8553052915394098e-01
      -2.8315645503218723e-01 -1.3281284826933801e+00
      4.4289631630820936e-01 5.1188609750592295e-01
      9.7507559742487038e-01 1.2225035198993237e+00
      -1.4323990719103734e+00 2.6458909979694378e-01
      -9.6950401597072922e-01 -1.1719489094857620e+00
      -8.8695511966873630e-01 -1.4596689152785913e+00
      8.5439135251661091e-01 1.1486296528398088e+00
      1.3180557743489196e+00 4.8262333372865363e-01
      -1.0354470340972317e-01 -1.0317743714720971e+00
      4.8726367908385415e-02 1.3539193468717707e+00
      2.9563470561523381e-02 2.3212062620820581e-01
      -2.9015131539689593e-01 -6.1300013059290515e-01
      1.9210972715627050e+00 3.2467483365264699e-01
      -1.1440704566527657e+00 -3.4330209542988005e-01
      6.8694177297122638e-01 -1.6486262283291191e+00
      9.0712978470687566e-01 5.2643570741685991e-02
      1.3153991057039325e+00 -1.7127737672336116e+00
      -6.5532953711366315e-01 -4.1486552878705552e-01
      -6.5873346755574647e-01 -1.4852245924716120e-01
      2.0629627389698748e+00 2.3813710854928822e+00
      6.0284137816192007e-01 -3.6497872130466963e-01
      -1.0328625978744317e+00 7.7288260986000212e-01
      1.4955105286900428e+00 1.6660369909054358e+00
      -7.7595066138942947e-01 7.9301030481434331e-01
      1.6477226499887998e-01 1.8170432624396096e+00
      -2.7771701708957686e-01 1.1898007946862066e+00
      8.6964921340259183e-01 1.4071280502703492e+00
      1.0366991967801520e+00 -9.1655418302283242e-01
      1.6631475284725514e+00 6.3360613386878117e-01
      -1.1460018525948119e+00 1.6054172061929972e+00
      1.1291248868200694e+00 -5.4730290952424010e-01
      5.7421115446712012e-01 -1.7010208899210921e+00
      2.0632346125136802e-01 -9.5550178091618698e-01
      1.5857682356267833e+00 -3.2817270827310946e-01
      -5.5551412307488479e-01 7.8253359301533980e-03
      1.7558788306638765e-01 -9.5344038793556707e-01
      -1.2209536716721201e+00 -3.1393838578744178e-02
      1.6265511230390644e+00 5.7812724995589937e-01
      2.3143736197294706e+00 3.8411412525238509e-01
      2.3180469160093178e-01 1.6991038135138725e+00
      1.2983107928604742e+00 4.5970509628230727e-01
      3.1952318828544102e-01 2.4182711385116291e+00
      3.3656262423750949e-01 -2.7682197975354966e-01
      -9.1521548434969824e-01 -7.9837796374569425e-01
      -1.6713498060396268e+00 -2.1915698092795791e-01
      -7.3034902507814758e-01 7.3340718195494259e-01
      3.3932108835821889e-01 1.1716738331266132e+00
      -2.1285273625242804e+00 -1.4406642266355030e-01
      -8.1346786834124729e-01 2.3822402074145996e-01
      3.1558287989096945e-01 9.0152221734196014e-01
      1.4538807413373148e-01 7.6984632593106583e-01
      3.0258226568785912e-01 2.4167666924344286e-01
      4.8525233270545254e-01 -3.0025388096774169e-01
      2.9922955512620985e-02 -1.1422484679480910e-01
      -6.6977059049127141e-01 2.3559654422196416e-01
      -1.1251781207817284e+00 -1.7836257446998285e+00
      -2.2187560521520733e+00 -1.9252451512911131e-01
      5.7872110083637929e-01 3.8085012062897147e-02
      3.5045317805032785e+00 -2.2231869501550552e+00
      2.9055475105725737e-01 4.3455029052958061e-01
      1.2160278762998138e+00 -5.3807427044191380e-01
      -3.0875388953954647e-01 1.6368254089316476e+00
      2.0828750183837248e+00 -4.1441423418188367e-01
      -4.7218723262488516e-01 -6.7063871674062270e-01
      1.3951763711202647e-01 -1.2062404016475701e+00
      -1.3310181297248778e+00 -1.8379048191926719e+00
      -1.1313407911804452e+00 -5.0641412175861922e-01
      -8.6971950152385269e-01 -2.4262832739063145e-01
      8.0902706656529955e-01 -3.9322090387016906e-01
      -1.3437532170795730e-01 -3.1628149197931327e-01
      -1.4367206740439915e+00 2.3525514156037217e+00
      -1.2312746670790975e+00 1.5166211230457767e+00
      1.6612216849078865e+00 8.5275469727392283e-01
      -6.2425034169507010e-01 -2.4209675063546193e-01
      -2.6740037388590183e+00 -1.3653607454532113e+00
      -1.4659149995338838e+00 5.2930944345155839e-01
      5.0432944495234033e-01 -1.2764550170753954e+00
      -1.0054353844919728e+00 -1.6846838803233441e-01
      2.3501713434392872e+00 -8.8266112728747445e-02
      -3.7812295994187521e+00 -1.0884066727274484e+00
      1.2207735268792621e+00 5.4427822313498075e-01
      1.9288289319466886e-01 1.0637752617738618e+00
      1.1311703978067786e+00 -1.6509939219535133e-01
      2.3546778512610982e+00 -1.9487907554776367e+00
      5.3547806906885220e-01 3.5994803765809202e-01
      -1.7533877257477393e+00 -9.4049226218069515e-01
      1.2161163015978320e+00 -9.7213549376295927e-01
      8.6209078497482869e-02 -2.4733805645463227e+00
      -3.5445030935349127e-02 6.9042739238718753e-01
      2.6998923946218917e-01 -8.6680258816372069e-01
      4.2426974043534460e-02 4.1908633838828380e-01
      -3.7077810805380849e+00 2.3311054130284731e-01
      1.6602844408167028e+00 1.7913095375134045e+00
      8.9927614851544913e-01 -2.6591141820423908e-02
      3.1896021761145312e+00 5.8796490337342455e-01
      8.0655211238377400e-01 7.4189103154637814e-01
      1.0639431628154725e+00 -1.1500562544582706e+00
      1.4451080266561064e-01 5.2458634649649116e-01
      1.9877614873976226e+00 5.6255683894252106e-01
      -1.3768366337460369e+00 -2.0820325485070756e+00
      1.2671038479728367e+00 1.7596949494728104e-01
      1.3127338960688020e+00 -1.6331727754234268e-01
      -7.4404595790349504e-01 -6.0025287774740099e-01
      4.3268004271945665e-01 1.3866156346226155e-01
      2.0684440098676463e-01 2.5842286763137701e-01
      -1.4411402594409390e+00 1.9412032527771326e+00
      2.6578439897921147e-01 2.2104351774989085e-02
      -3.6549550773957740e-01 -1.7551801640585865e+00
      1.3314005629574448e+00 9.3377797978585153e-01
      5.8308975985491085e-01 6.6678073349036482e-01
      2.7470684904972363e-02 7.5416970214488288e-01
      -2.8474151286731395e+00 -1.8829556089896271e-01
      6.1719341315766429e-01 4.0068029381592152e-01
      1.4798163502770330e+00 4.5202201131021628e-02
      2.8037513098062844e-01 6.3643895282505336e-01
      3.3848281664912043e-02 2.5013984778310466e-01
      3.5760255685839143e-01 -4.6207679009755787e-01
      -4.2053467082787149e-01 -1.7348555338869376e-01
      1.3350806393818229e+00 -1.1902947991107600e+00
      1.7409581341923028e-01 -2.2703870576330991e+00
      6.7897845043028815e-01 3.5155398544016686e-01
      -3.4179026730919210e-01 1.6312112578582443e+00
      -2.1996329337780707e-01 1.4879597222546601e-01
      8.7342558705549667e-01 -5.0079541065014936e-02
      1.6068942624045768e+00 3.9658688763835481e-01
      -1.0543339857103575e+00 1.6067508968119177e+00
      4.4830596708470488e-01 6.7946256323987786e-01
      3.6836382641505283e-01 -8.5077983503511867e-01
      5.5376209171443758e-01 1.8795997577055398e-01
      6.6444877576299421e-01 -4.7809969035050776e-01
      -4.7310905688810478e-01 -3.6021677908171207e-01
      -1.7253635508115959e+00 2.2116665007358033e-01
      6.2073927207565416e-01 1.0791239093519969e+00
      2.3908733399130067e+00 6.6161893137205297e-01
      3.0447186235420415e-01 -2.9144899087189624e-01
      -4.1009983196386685e-01 6.1938261159878127e-01
      2.2160183734460975e-01 -3.9430369226315964e-01
      -1.4199735757927140e-01 -2.5891003640045884e-01
      5.6397646319890735e-02 -1.8566375897212312e-01
      -7.8804319629221975e-01 -1.0367753648263136e+00
      1.2374291593881095e+00 2.4284788851891362e-01
      -1.5567568379477370e+00 3.4330263495839558e-01
      -7.6742488911744777e-01 1.4818959175971385e+00
      -9.8338529526693724e-02 -1.0114772048129730e+00
      9.3859886955606342e-01 -3.3579910616694991e-02
      1.0486522804249430e+00 1.0075250641329810e-02
      8.7075716168359255e-02 7.9710816596413292e-01
      -1.5810367680317443e+00 1.5032765624601514e+00
      -5.6379539180837523e-01 -1.1146847438446421e+00
      5.7270471186125027e-01 -4.5375238694056025e-01
      1.1750608866292753e-01 -3.1920262591249310e-01
      -1.0643595688327332e+00 7.1044918616201236e-01
      -8.8051060162262706e-01 6.8402240067058884e-01
      5.3780321072799953e-01 -1.4512733922341209e-01
      -3.2971865828796953e-01 1.9309215250836346e-02
      -1.1267580765453111e+00 1.9686473955941955e-01
      -7.1299395003629951e-01 -5.0375063726251246e-01
      -1.4160866329487336e+00 2.3088896643791461e+00
      -1.7368127388040075e+00 1.3226827336879743e-02
      3.3728936555395966e-01 8.0445932829075628e-01
      -9.0604303542239972e-01 -9.9847612823262899e-01
      1.1055651170792928e-01 8.0982756091750119e-01
      -8.4567194311527250e-01 -1.9417911884921360e-01
      5.7661396831074940e-01 2.3077866696536772e-02
      8.8679973359142006e-01 2.8085067918247608e-01
      9.9763465870804713e-01 -1.3427136707762313e+00
      1.4119606601114385e+00 5.6983194621948530e-01
      -1.8739192264277224e-01 -8.7947967461084098e-01
      -5.7549624619082429e-01 -1.8448416208728708e+00
      6.4115002678655764e-01 1.3502270849872966e-01
      -5.6504320285542553e-01 -4.6219952514553353e-01
      8.7268432441580157e-01 3.3374427572149429e-01
      1.5314097493374235e-01 5.9708820884139668e-01
      -2.0798120777547657e+00 -9.0399828149633021e-01
      -1.6247815180924807e-01 -5.1924101935995604e-01
      1.5524904194185587e+00 -2.9781223502556688e+00
      2.3696655899617825e-02 -1.0926984724086546e+00
      -1.1724989110179409e+00 1.4046668252265970e-01
      3.0944586313302375e-01 -8.9465295388109867e-01
      1.6731452580053938e+00 1.4298605249404570e+00
      -6.1712548666671285e-01 -4.1958721853138448e-01
      1.4626131397300626e+00 3.1875277655068590e-01
      3.0908078408983897e-01 2.3445160344431359e-01
      9.8050759981203717e-01 8.3855440130931630e-02
      -5.7416980116040028e-01 7.4977723285047329e-02
      1.1248735059560391e-01 -8.6550989352898899e-01
      -7.8452690430220329e-01 2.6981342807753267e-01
      9.6073601307312007e-01 5.2418462665559251e-01
      1.9685422817697569e+00 4.4127976633031218e-01
      -5.6131998948135664e-01 -4.5227547418376629e-01
      -1.3877083495052833e+00 5.8719716428268920e-01
      1.0430199847354329e+00 1.4628999141436758e+00
      -9.2872873888241458e-01 1.8590190371874180e-01
      -9.4212228631314432e-01 -1.8981376618345250e-01
      5.1721244782198905e-01 1.1335618178810525e+00
      2.1066688197413153e+00 -1.1615223604818975e-01
      8.5245914416050128e-01 -8.3601993973579336e-01
      -1.4555639256518176e+00 -4.5456140920912841e-01
      -4.5866552828214424e-01 -4.3578982825985046e-02
      2.5400272788629068e+00 2.6803727271292952e+00
      -1.4985526861434859e+00 3.9148476496065404e-01
      4.0262497699089089e-01 3.9670783940463733e-01
      1.5028239202549474e+00 8.6337533665662936e-01
      8.3188437831338113e-01 -5.8417121352192458e-01
      -1.6312662753347802e+00 -1.0268835715431921e+00
      3.1862397843754775e-01 -1.2462707609207941e+00
      -1.0492815035260687e-01 6.9207674953296860e-01
      6.7847444231273601e-01 2.8591626118068980e-01
      8.5503831070426695e-01 2.1117204754895607e+00
      -6.5325416891706178e-01 2.6145568361771485e-02
      6.6766838953322908e-04 1.1390554683437890e+00
      4.7124293465044771e-02 2.1076267672770108e-01
      1.3115817035103516e+00 -7.6429337071037606e-01
      1.0165591993662966e+00 1.6962339875618779e-01
      -1.3171275762831840e+00 2.2590741810216288e+00
      4.3139658919273485e+00 -1.6255639641715656e+00
      -8.4267668723034139e-01 -5.1111734552542953e-01
      -2.2774110455267596e-01 4.0374279946777536e+00
      -2.7139581516120842e-01 2.1474278225102177e+00
      1.3736994766826613e+00 1.1395006900830691e+00
      -1.1209755086304156e+00 2.1119830978797699e-01
      -1.6011760423545933e+00 -1.1166053877379056e+00
      1.8212069509685211e+00 2.2285710389397746e+00
      3.2021424605539868e+00 -5.9809856142749607e-01
      -5.4532195593825505e-01 2.9950217382515358e+00
      -1.2489767937601886e+00 -6.2445926763237701e-02
      9.3005672593920563e-02 -2.4191879132226868e-02
      -5.0756443696127718e-01 1.9881156894416367e+00
      -1.1016650630488986e-01 3.0530336070809576e+00
      -1.0247204923995721e+00 4.8968998233941013e-01
      1.6915751993899126e+00 -6.7104749170711775e-01
      -5.3670560029597369e-03 -6.6301769607882044e-01
      -3.2646560681775061e-01 -4.4605994822514550e-01
      1.4169413470464129e+00 1.1997073104554177e-02
      1.3256521971841932e+00 9.6372915794858283e-01
      3.9063749890387567e+00 4.3235772095559138e-01
      -2.1823826531057477e+00 3.1329181303909749e-02
      2.9784710707031294e+00 -1.7203281912415040e+00
      8.5227954199034817e-01 2.4301834544011038e+00
      1.8525278371631291e+00 -8.2349829971713240e-01
      9.5977799202008185e-01 -1.5392144939307335e+00
      -1.1287575362915945e+00 -1.1188206362258850e+00
      3.7461033322758219e-01 -9.8139907107117577e-02
      -2.1426916202639150e+00 -8.1562096477017332e-01
      -1.0789099804954312e+00 1.1417450374960798e+00
      -1.9459872374231864e+00 1.3581946073049420e+00
      2.6805448471181963e+00 -1.6080868064676139e+00
      -3.9460418497060386e+00 9.0031658203976062e-01
      -1.6394491163745220e+00 -7.6266485938813167e-01
      -2.6807992590399710e-01 3.0709900862979209e+00
      -7.0703469827610943e-02 9.5471740142377814e-01
      7.5121163351500753e-01 -9.2200923652494504e-01
      -1.6542900921801476e+00 -1.3963580538971579e-01
      2.3256769903608494e+00 2.0386986835567580e-01
      -3.1516337580639320e+00 -5.3470218081162413e-01
      1.3647982243684746e+00 9.2148269379903769e-01
      8.0061418663244521e-01 -1.5181840810296201e+00
      4.3440577169740333e+00 -5.2297376969845990e+00
      2.8218788428086281e+00 -1.9008287234406346e-01
      2.3800117477552387e+00 6.3677193620729355e-01
      6.1991416664215128e-02 -3.1083408696417592e+00
      -3.6263246993697913e+00 -4.3909833043700569e-01
      -2.2053025398696904e+00 -4.3443422156381489e-01
      -1.4568791076452230e+00 6.2122746273673990e-01
      1.0632315084170785e+00 -1.2756425413437775e+00
      -8.7202514901768169e-01 -2.1385466043270438e+00
      -3.8624362639095250e-01 -8.4241975753819165e-01
      1.0695354378124568e-01 8.9826124209708383e-02
      1.5260312834002232e+00 -2.2007947262625160e+00
      6.7272924445657267e-01 1.4201463500669074e+00
      -1.2962277466965313e+00 3.9910943588042249e+00
      -1.7730747322556932e+00 1.4537563178104305e+00
      -1.4905175653164651e+00 1.6191457685709765e+00
      2.1559098975155107e+00 6.1582704553222282e-02
      -2.4529659135177435e+00 1.4795216442174148e+00
      -2.0109913829649257e+00 1.0739444653899461e+00
      7.9524105401670153e-01 -5.3539276200936448e-01
      8.9885533267264417e-01 -7.7549775603895821e-01
      -8.5580383959195250e-01 -1.6044109942478300e+00
      -1.2036819879661154e+00 -1.5402893872585051e+00
      -7.7096224215296216e-02 1.1669922369430299e+00
      -1.6235651518893863e+00 -2.1814221217574135e+00
      2.1892886164479268e+00 1.2977521135421430e+00
      -2.2488565072558639e+00 -9.4388937746227497e-01
      1.4716914978692617e+00 -5.0006267585037678e-01
      -1.3214251421884977e+00 -1.1895354073139670e+00
      -4.6555294474065129e-01 5.1514088450011652e-01
      -1.1037503437149989e+00 7.7057100403975440e-02
      2.3900258336875574e-01 1.0775453090045100e+00
      -5.1036047420245290e-01 1.0396069406698072e-01
      -8.0121745481426809e-03 1.2499321152729430e+00
      -1.9454297245626213e+00 9.6112425681973968e-01
      1.8901062724931212e-02 8.2696024738652896e-01
      7.9108513505891676e-01 2.8367676325559397e-02
      3.5485489131641916e+00 9.5969845031751477e-01
      2.0371752343837777e+00 -9.4962952670507705e-01
      -3.6959997135187100e-01 2.8561621653752467e-01
      -6.1636346126626729e-01 8.3107845386621260e-01
      -3.3250171199390706e+00 -2.3331699624119855e+00
      -6.3537097763759076e-01 -2.6644465105104391e+00
      3.3445442346103033e-01 3.2532640974385223e+00
      -1.7439550054408677e+00 -8.8484130598979016e-01
      3.6578070153487787e+00 2.0522673957487955e-01
      -1.4997581733314127e+00 -1.3343660428803430e+00
      9.4173190348143823e-02 -2.0518999783722545e+00
      -7.9714569312122430e-01 -2.6840218068052160e-02
      -3.5785483054009254e-01 -7.5864463791273373e-01
      -2.6723715549078381e-01 -1.4619201569143728e-01
      3.7251290334953385e-01 -8.0461630000909357e-01
      3.1418800233041128e-01 1.6518855996076121e-01
      7.0590786356293667e-01 -7.7430214988211166e-01
      -3.3586464783811576e+00 8.4497797119678308e-01
      2.2779880522101954e+00 -2.9254226215512796e-01
      3.6284593908687218e-01 -2.3092602054240249e-01
      -1.3975259203448728e-01 3.9315437056515329e-01
      1.5050296205512277e+00 -1.9826024681284096e+00
      1.2456625353005153e+00 1.1750182053128032e-01
      -1.8328218886996108e+00 6.0679124298505605e-01
      -8.5052925721604666e-01 -1.4845692494626679e+00
      1.5534785033659053e+00 -1.4791619447479754e+00
      -1.0575921083864790e+00 9.0905373376929777e-01
      -8.8977631180086503e-01 -3.4976168675582464e-01
      -2.0354713590670170e-01 -1.1000076293669608e-01
      -1.0040177270370747e+00 -4.0533266707041216e-01
      9.8502767940505352e-03 -1.5213387282796240e+00
      -7.3522278070533931e-01 6.3051920356457047e-01
      1.0356028876235816e-01 1.5874795832176261e-01
      1.1636026224761504e+00 -1.9508507673277460e+00
      1.3762850219662068e+00 -1.3297875142303519e+00
      4.2947359219353630e-02 2.3956344077497560e-01
      5.8975897085515872e-01 9.5520352321203691e-02
      6.1944525477291490e-01 4.5544497978357856e-01
      -4.6333021849171646e-03 -1.6360011540911623e+00
      1.5552171356168207e+00 -7.4596521234853441e-01
      1.7698567852863563e+00 2.6748639581136618e-01
      2.4116627959191456e-01 -1.6823886960440173e+00
      8.8220618772030399e-02 2.0324257821299649e-01
      -1.4849346599232653e+00 4.0876777868411013e-01
      -2.5894882766745109e-01 3.0173385139133474e-01
      -2.5262904605478370e-01 1.6813648184280465e+00
      -1.4379231426486658e+00 7.3949842815544187e-01
      7.9107948576852039e-01 -3.9541959457496521e-02
      3.9030226381272681e-02 1.3340243952946678e+00
      1.0758295018966262e+00 4.0679528786654845e-01
      -2.2139074294245181e-01 -9.1562113476635187e-01
      9.1250241495067164e-01 6.1867486427453378e-01
      3.2860125243032928e-01 1.6858936751472158e+00
      8.2233883779710337e-01 -1.1937444208910402e+00
      6.0400833200909988e-03 3.9428145909113849e-01
      -1.8399095895160614e-01 4.3373854806261097e-01
      2.3953522238265151e-01 -3.2539381758600677e-01
      -1.0816843957562203e+00 -5.8001174794262045e-01
      -8.2788440764371329e-01 -1.3055099336623557e+00
      -3.4674536282437035e-01 -5.0020570821353327e-01
      9.9591627969469709e-01 1.1313669921359451e-02
      1.5683756400396802e+00 -1.0545859616996105e-01
      -7.0105772079828199e-01 -8.6097730382749885e-02
      1.0362937532112868e+00 1.2859577603606276e+00
      -2.5901463483146632e+00 1.8359954330074322e+00
      8.0800666855783487e-01 3.3857365779581705e-01
      -9.2654822478807064e-01 -1.1536232738911345e+00
      -1.0599818643395587e+00 4.4522762915746483e-01
      1.4411065445674787e-01 3.9383516439497440e-01
      9.2788619871061517e-02 -5.2363641435253427e-01
      2.5119269982376230e-01 7.5366574633315433e-02
      1.1706397202903591e+00 -1.8977153723624691e+00
      1.3356877056006173e+00 1.4880306686067253e+00
      2.2258058841517099e+00 -3.7029379836758820e+00
      -7.0972178619269533e-01 4.1283358487932914e-01
      6.5057052793575354e-01 1.2942361349616863e-01
      -1.1481610288744819e+00 -2.9294932065448814e-01
      -9.5932483861455742e-01 -2.3573810660801117e-01
      -7.5389380086361657e-01 1.1172599517231674e+00
      6.6861127239742790e-01 -4.4908069313904025e-01
      -1.9168191793655327e+00 -1.0932732320733902e+00
      1.2798838341544778e+00 2.6234849013194389e-01
      6.9624625754149039e-01 -2.7436778584423838e-01
      2.7187726967402454e-01 -6.7381377888481642e-02
      -2.5178207992697565e-01 1.1767526640424191e+00
      6.4783321244765563e-05 -7.9425846023060176e-01
      -1.0415790973034891e-01 -8.5060221519565016e-01
      -3.7391880274692452e-01 1.9054989989271892e-01
      -1.4140945185999942e+00 -4.2743407978834330e-01
      1.2494264172808536e+00 4.9500236270925574e-01
      5.6647205827567382e-01 -1.1027271745671230e+00
      8.3734532193443734e-02 7.3035327938799943e-01
      -2.9902730282405460e-01 -1.6344696705896150e-01
      -9.1119959880023649e-01 -1.6593296136932907e+00
      7.4679954174923602e-01 2.2031508366436561e+00
      5.0509285504512391e-01 -9.6122852493653099e-01
      -1.1350412804061469e+00 3.1563451844547075e-01
      7.2901900944458342e-01 3.5645972635266615e-01
      -5.9333136057285973e-01 1.4555841988649758e+00
      1.0933206119003471e+00 -1.8101418361481758e-01
      -9.6618201325149722e-01 4.0993540328787920e-01
      6.2882032785147068e-01 7.3927501737683665e-01
      9.4340871243047586e-01 -7.5637980219419776e-01
      -1.7277336988272540e+00 4.1977832370139738e-02
      4.5746191486005577e-01 -1.3430958097712933e+00
      1.7880584369721977e+00 -3.0644681291138154e-01
      3.4467122606720080e-01 1.0855062508115281e+00
      3.1643378807986794e-03 -1.4023268105720266e+00
      -1.6986565471071602e+00 1.4250599300642933e-01
      2.2190526086760736e+00 -1.3254688379550932e+00
      8.5313435643897095e-01 -3.4815444426437664e-01
      7.7618498349550880e-01 -2.2205167149488164e-01
      -1.4510593304572512e+00 -1.9884785245612199e-01
      -1.5628517171833460e+00 -3.2991408770086061e-01
      -2.0967177742966752e+00 3.4156311572494160e+00
      2.3578157166987995e-01 -1.3646663060273363e+00
      -2.5342616243916100e-01 3.6570937212543886e-01
      -3.8442700830427487e-02 -1.3777109287815701e+00
      -1.7935088188813813e+00 1.5896160062770459e+00
      1.2598614515586615e+00 1.1372569574160439e-01
      -5.1646392503375667e-02 5.5377663022147117e-01
      1.4052929512462415e+00 -3.3551379045667035e-01
      -3.1152165995535769e-01 -1.3759865329654775e+00
      2.3159809543869422e-01 2.8370704851873056e+00
      -3.0194112631835129e-01 -2.2028330090889332e+00
      1.3967533501640514e+00 5.2309198088338699e-02
      -3.5467077919893181e-01 3.4114331162562112e-01
      -3.7269308732245521e-01 -1.8664411875503752e+00
      -1.8515691256550553e+00 1.1100953107181282e+00
      3.2795520660598996e+00 -1.4566910366074810e+00
      1.6610124916695164e+00 3.1962267561330884e+00
      8.4729371140711529e-01 -1.3532931584945855e+00
      -4.1334024133805691e-01 -1.1964585564105816e+00
      -8.5883121286522812e-02 1.3851207072849172e+00
      -3.9516024793294813e-01 4.9484490250948285e+00
      2.5067317429781899e-01 5.9650663738420451e-01
      2.4829836845987741e+00 -1.1926218293483810e+00
      -5.6176865686754185e-01 -5.9056928878669888e-02
      -2.0586938642282937e+00 2.7019836981902606e-01
      6.2426903541663403e-01 -3.8598733180385769e-01
      5.7357868252751143e-01 1.0911678596340122e+00
      2.8234804809336671e+00 -7.3542680078303080e-01
      -1.1932140819221864e+00 -1.9580772560337738e+00
      -4.2154074339347619e-01 -5.9723446889508855e-02
      -1.6969217002762347e+00 1.5435703218204895e+00
      1.5984053370175078e+00 -1.3880197502498217e+00
      -3.9920495674755824e-01 -1.2255738774148804e-01
      -2.8712626811348705e+00 -5.0588746982956401e-01
      -3.3923657221585342e+00 -5.1671311477887572e-01
      -1.8845515798133901e+00 -2.0250648918389667e+00
      -8.9352454769980216e-01 3.0400355605832821e+00
      2.2742523379628099e+00 1.0216961148000197e+00
      2.6592575837410215e+00 -3.3069175055298365e+00
      6.0594918921627672e-01 -1.8055804830576285e+00
      -2.5208553012243085e-01 4.3987712645510180e-01
      2.9263783963132289e-01 2.0822008499950377e+00
      -9.3073198898035087e-02 -3.4842756843774164e-01
      -5.2622926648764579e-01 -5.3073635447655931e-01
      6.9817164944305177e-01 -1.6965112413995505e-02
      1.0717283007792451e+00 -2.7844392526000405e-01
      -2.9339360549146387e+00 9.0861457534377754e-01
      1.4405659032094207e+00 -6.3391203762010584e-01
      -4.3288062863249865e-01 1.3956447352303332e+00
      2.8553539963612462e-01 -3.9151057462136536e+00
      3.1771534562323506e-01 1.0084857714073205e+00
      4.1021533689996809e-01 -1.2489183022357926e+00
      -1.6937017953636258e-01 -7.3881093675371801e-01
      -4.4605345289768294e+00 -4.3663541546047419e-01
      -2.6593115591792902e+00 -3.4434329482183035e-01
      -2.1103416976021405e+00 1.8844154291920840e+00
      5.8825157843770470e-01 -6.7423272960890257e-01
      1.5483541886912764e+00 -4.0560278058330879e-01
      1.1080369553189567e-01 -1.1906592909923734e+00
      -1.2906924206518589e+00 -1.6869380195553003e+00
      -1.0042613553401758e+00 -1.3044645334139133e+00
      7.4144167575304490e-03 1.2292983545157389e-01
      -2.1090624855659645e+00 1.8801853388918498e-02
      9.5490233471766411e-02 -2.1114174015390050e+00
      -1.4778834673421215e+00 1.5103573684161755e+00
      -1.1023280722958895e+00 -2.2295881655625308e-01
      1.3127168163502292e-01 1.6889186991605170e+00
      1.8305444622543565e+00 -1.8034362749842210e+00
      1.9291389202472771e+00 1.1802058492582043e-01
      7.0822172973690733e-01 1.5194228902812013e+00
      -2.2235603368815906e+00 -1.3955156852031574e+00
      7.2737891107447494e-02 -6.9235633339705716e-01
      9.5219301294018976e-01 -2.5472810133831545e+00
      -3.5412794205350999e+00 -5.4083449531803298e+00
      -4.9031520275673407e-01 1.4724748535945803e-01
      -1.8772075709811635e+00 -3.5193218094028526e-02
      2.5052037313741105e+00 -2.3826811930258409e+00
      -8.5431965577108726e-01 -1.2928855919770537e+00
      -1.1352926914132060e+00 2.1273376289377697e+00
      -1.6129385720993847e+00 2.7559761404136323e+00
      -3.8558859357243430e-01 2.3039590734567374e+00
      2.9565754849166292e-01 1.4985421550210992e-01
      1.7318419852636027e-01 -1.8759908974915243e+00
      -1.8473267016794281e-01 6.3495471615693655e-01
      -1.3774585625043705e+00 -4.4010990364335351e-01
      1.7035418489584031e+00 3.4824244979342811e-01
      3.5610826360770615e+00 -1.3655568453695457e-01
      4.5982707409753620e-01 -5.3764838413202432e+00
      1.6315118256453613e+00 -6.2312321141389171e-01
      2.0170557664252855e+00 -3.2323856230149828e-01
      -2.0404445456273121e+00 -1.9843706990856367e+00
      9.6355384927256993e-01 5.7143358786445764e-01
      7.0008205148743574e-01 1.7553274031832169e-01
      -8.1119394143346490e-01 -4.3519733096321884e+00
      -4.4664495860449606e-02 5.8309524969606907e-01
      2.7715241240418043e-01 -1.3639362454982731e+00
      2.4884833519182137e+00 -1.1402985047371732e+00
      -6.5122365112335689e-01 -1.2097670897972395e+00
      -1.3672047943179549e-01 2.1744061147445906e+00
      -1.3768032766261595e+00 4.3442669726675703e-01
      -4.6925380084587526e-01 -1.7875743690356632e-01
      -7.4677701461034074e-01 1.4014845111322398e+00
      -5.4801648633792666e-01 -4.6714806444826101e-01
      1.2560956166017527e+00 2.0313334049123051e+00
      -6.5924699588859237e-01 -4.4272162459621556e-01
      -7.7843815119977733e-02 5.5063721787426823e-01
      -7.2818980332023908e-01 -2.2968936388312530e-01
      -1.1506986883127945e+00 -3.3131369116592260e+00
      3.6448891104657828e-02 -1.2156962615048745e+00
      2.1984327864946236e+00 1.2972735178318346e+00
      -6.8268373708480046e-01 1.1903013922579142e+00
      1.0516636388511094e+00 -7.6380254004521198e-01
      -1.1616448878511678e+00 2.4346437505358237e-01
      -2.3680434659953978e-01 -1.8704141734607729e+00
      -6.1867074205578276e-01 -1.7530646882962392e-01
      6.9775862399057875e-01 1.0766065587314259e-01
      6.9615912201144137e-01 -1.9686989070667305e+00
      -1.0097905134720946e+00 -1.2415826325081563e+00
      -1.2197732137683255e+00 -2.9003468639756685e-01
      3.5053591012649010e-01 -4.4698062164525093e-01
      -9.2782595959478409e-01 -5.4455726916915947e-01
      7.5374459531451110e-01 1.6704333235628310e+00
      -5.5239798260055561e-01 -5.4992190791413331e-01
      8.7670106802565351e-01 9.5172351515635378e-01
      -3.8206270192252895e-01 1.8604642071306154e-01
      4.0281178257257555e-01 -7.5201633473104001e-01
      9.5037997480950887e-01 4.6886166976030091e-01
      -3.1902937029222744e-01 -1.3260530928846368e+00
      -7.1837751342992040e-01 -1.8953512122634020e-01
      -2.7414676876261362e-01 1.6167508399153159e+00
      -1.3395429379989339e+00 2.3454514037697119e-01
      9.6004161989016146e-01 1.8230159795697793e+00
      -1.9065892185086355e+00 3.1468287617819252e-01
      -8.0051719189888548e-01 -1.1614965853860579e-01
      1.9716842728497195e-02 -2.5109133315472465e-01
      1.0750695121992701e-01 -3.2873635600246942e-01
      1.1162874468880830e+00 -6.0485594660957087e-01
      -1.2687007731633746e+00 3.5180059712912731e-01
      2.7582611579074523e-01 1.5936471320316457e+00
      1.2914812500081894e+00 -5.7073623886845604e-01
      -4.7611242751341037e-01 -6.3202456286364661e-01
      6.2078182889485745e-01 1.5505876315695816e-01
      8.3714232219573734e-02 8.1673303560296728e-01
      -1.7324785701486276e+00 -2.6080718533944053e-01
      4.7813621394957708e-03 -9.2922207315340755e-01
      2.3688442844266963e-01 -1.0278829463519953e-01
      -5.3064446114461672e-01 -2.4432178985448724e-01
      8.2829205038982356e-01 -7.5995502850439334e-01
      -7.2329465845344920e-01 7.9243616076052670e-01
      4.9409507160198185e-01 4.7537943340803146e-01
      2.6538874926427858e-01 4.1336795441679675e-01
      3.9725905284833241e-01 -4.4662170268474433e-01
      -9.5094172737347982e-01 -1.2699695716695916e+00
      -1.0346757898793832e+00 -7.9517951748458005e-01
      4.5714064502271262e-01 9.4452164777762831e-02
      7.7282564272011234e-01 -1.1092971162103649e+00
      -3.0832193389186063e-01 -1.2332681200954432e-01
      5.8617575567463864e-01 1.1838812345165067e-01
      1.5072919861692374e-01 1.6065314558717825e+00
      2.1488337476384922e+00 -5.3205145165328172e-01
      1.0149735557998181e+00 -6.5628607928358784e-02
      2.0220795671660147e-02 7.3717408362942438e-01
      -1.0896903850630402e+00 6.5981198414336140e-01
      -1.8746034139195394e-01 -1.4815709783360942e-01
      1.7496933222622307e-01 1.0284188120465811e+00
      8.1335084289434934e-01 1.1612454683819049e+00
      -1.1648489502453750e-01 2.0433959284526670e+00
      7.4462109355635475e-01 8.3132705966435982e-01
      -1.0406273331117351e+00 1.2333961377156426e+00
      2.4980075127145557e-01 -6.3683316813598845e-01
      -6.6538226149682156e-01 -1.7854257433554416e-02
      1.9457252490485677e-01 -1.7932324772813071e+00
      1.6760424867541135e-01 9.8199345550542461e-01
      -9.3375432608486814e-03 -1.3824701827755079e-01
      4.2084036446298534e-01 2.3336053395106870e-01
      8.5259806946524641e-01 -8.4727986794842680e-01
      -6.3109173997103485e-01 -1.5074081277327946e+00
      3.0049806591706069e-01 -8.2836809614250906e-01
      6.7883944069680935e-01 1.3244045028771141e+00
      -2.5094732644641132e-01 -8.9401553729161420e-01
      -2.6628595785653619e-01 6.5876321622420053e-01
      1.0676734330952697e-01 1.5566597506832489e+00
      -5.4720741260459638e-01 -4.3617788073569064e-01
      2.4329592187956286e+00 -1.7263698622623940e+00
      -7.6258388459455220e-02 9.7724107687431983e-01
      -5.9638074628582094e-01 -1.0171766273464619e-01
      -1.5262648870687896e+00 1.9554431833000048e+00
      8.6563605059773507e-01 1.9654074937628232e+00
      -1.4723973614145907e+00 -3.6578996642155176e-01
      -2.3352864802362334e+00 7.5685548842762584e-01
      1.3491770964817680e+00 3.0613984847975279e-01
      3.6015515188257957e-01 -1.8734605959598363e+00
      3.9612633902641781e-01 1.2993140763975162e+00
      1.5421813134459852e+00 -1.7867374777783016e+00
      -1.5057395681855330e+00 4.4576672075624635e-01
      1.5271227432576893e+00 -9.8039396986421945e-01
      1.5700289002922587e+00 1.9085662467875897e-01
      -2.2482685134306543e-01 1.5479054270218446e+00
      7.5103301449607848e-02 1.6046518180342568e+00
      -7.8687191156993308e-01 -1.0987125801337860e-01
      7.2121964042591979e-01 4.6394742958412243e+00
      9.7876195295211221e-01 -1.3179955222634001e+00
      2.6430510992157452e-01 -1.4618453258255087e-01
      2.8778448702035671e+00 -1.7587540920867908e+00
      -1.7830467721338139e+00 2.1405654317177998e+00
      1.5116807427449215e+00 -9.8855519552265556e-02
      -1.1228578586632683e+00 1.5962208548896020e+00
      6.3804804158713746e-01 1.2083130830215820e+00
      -1.5480647597676476e+00 -5.4369509367753233e-01
      -2.7360166899659903e+00 2.5989615036858673e+00
      -6.5137097221746287e-01 -8.0623718936805944e-01
      3.0248517832554728e-01 -4.7860222055987910e-02
      9.8454183297507092e-01 2.3467874572286651e+00
      2.3082487441884929e+00 -9.2810590200422971e-01
      -8.3744680386228865e-01 7.3258960031017686e-02
      2.3873352359910629e+00 -1.1702417701716348e+00
      -3.5851330239721285e-01 1.7031386495715468e+00
      4.0233768022084787e-01 1.7553657833199954e-01
      8.6746935230429756e-02 -4.7555176056666942e-01
      2.2678328912344708e-03 -1.0385571612966613e+00
      1.4950376933003988e+00 5.2748903954595168e+00
      8.0245889279417537e-01 -1.5178775357611864e+00
      2.6932309017618237e+00 -3.2249238658142367e+00
      2.4620004818770829e+00 2.4562505794406233e+00
      1.4399448880388666e-01 5.3220662963505083e-01
      2.9124297189492537e-01 8.4334819142624445e-02
      -5.1238037407052073e-01 5.4208834007705342e-01
      7.5850044177669096e-01 -7.3213618596810370e-01
      1.8280165386947231e+00 2.5236623820298176e-01
      -1.1073410835927133e+00 2.1662595333535841e+00
      -3.8272213419840377e+00 1.4419425727324815e+00
      6.7256116905779195e-01 9.0586755406637043e-01
      2.5669635496398219e-01 6.4540031011000809e-01
      -9.0276393461099547e-01 7.7865478686463829e-01
      -5.0546616943020317e-01 -1.7819402020181609e+00
      -4.9736322289500562e-01 -1.4827810544032458e-01
      -2.0229650263265571e+00 1.9225926287895665e+00
      -6.3184390493476417e-01 -5.3073234535864655e-01
      7.2826291075207633e-02 -2.8284301434856620e+00
      2.4260515516639320e+00 -2.5051412776656110e+00
      6.4360900269645727e-01 9.4969472153816070e-01
      1.0380992923229533e+00 -1.3235963830596600e-01
      -7.5789375017870408e-01 1.8446119593274327e-01
      -2.5881547319302527e+00 2.9161201981593878e+00
      -2.0197042081382641e-01 -5.3507676123543635e-01
      3.5731429821918942e-01 1.1463324364106176e-01
      -6.9686231052509717e-01 -8.9390021831884572e-03
      3.6181661650673680e-01 -2.3519025357737418e+00
      -2.3860167110596944e+00 2.3001739880898867e-01
      -1.3184025024342381e+00 -1.5610595645020071e+00
      -1.2578688877543498e+00 4.9331615435877323e+00
      -1.1698803867984962e+00 -2.0225396885823685e-01
      -1.3418030675978518e+00 -1.4695599747164594e+00
      -1.0716672150404276e+00 1.6989362396395342e+00
      -1.3240527324413636e+00 6.4497791977141461e-01
      -2.0905958170588576e-01 -1.8656575735120029e+00
      1.5398120549516364e-01 -5.6868608373656171e-01
      -2.7007457271459251e-01 1.4122848063691198e+00
      -1.6946477501023651e+00 2.0586102626184538e-01
      3.3550168813140941e+00 1.2432367904350374e+00
      1.1721169871681312e+00 -3.0502224947494341e+00
      -9.6923435937322255e-01 9.5029365791263165e-01
      -1.3873972141153970e+00 7.4275940558239595e-01
      3.4439028982517639e-01 -1.1366733429495821e+00
      8.2253074833978257e-02 1.4335211839599205e+00
      -1.4674453376159819e+00 -4.3480580404862584e-01
      2.0656749404780874e+00 -1.0056472300680093e+00
      1.4785691287807490e+00 -1.8782238271247091e+00
      -1.9489293201815454e+00 2.2250052386575261e-01
      1.4045532777512668e+00 8.6805972796563136e-01
      -1.2653040198531835e+00 1.5540421025783884e+00
      7.6950597668300658e-01 2.8828098541930358e+00
      -1.0624020929711639e+00 -2.2043884884961384e+00
      -7.4397697495387494e-01 -1.2995378809660485e+00
      -6.4390450665952270e-01 4.7446833519439319e-01
      -2.6590082534811277e-01 2.9130811763526993e-01
      1.0462311110326710e+00 -2.1722339011509368e+00
      -1.2822928417076409e+00 1.9232729834785118e+00
      -2.0184036595459958e+00 2.1493290233197677e+00
      4.4280178307316609e+00 1.6970162128219252e-01
      -8.9055769332364518e-02 -1.7463098987529433e+00
      7.2118762195598118e-01 -1.8529707521789165e+00
      2.6260715128928811e+00 -1.7883463872299734e+00
      2.5510574354897928e+00 -2.2275812654593112e+00
      -6.3182775381018197e-01 -2.7094776161650498e+00
      -2.9426006143169503e-01 -9.1154365461336220e-02
      9.9427810826637986e-01 -1.5318538764202037e+00
      -2.0005320039377796e+00 -1.9148455080750715e+00
      -9.6748777107958261e-01 -8.2755630050561479e-01
      7.9036831448276756e-01 2.3017733581623667e-01
      4.6779262380103787e-01 1.0960124983343111e+00
      2.8759107436186460e-01 1.5198331850314508e+00
      1.2512178506390483e+00 -1.0758637791654046e-02
      -4.4126431308485153e-01 -1.9545321722550624e+00
      -1.6448391337947410e-01 3.3387268584200142e-01
      4.4599259987556528e-03 3.1302402729529364e+00
      6.3647304212906167e-02 1.3805752426990869e+00
      -1.5184334603988061e+00 1.3689690762923554e+00
      -9.9870641189131681e-01 2.4647773067272358e+00
      1.3782461258947647e+00 3.2015921925320950e-01
      -7.3377980892947914e-01 2.5983717020573280e+00
      -1.7861898786249453e+00 8.7790228321278407e-01
      1.7588915570792088e-01 6.7525952949306814e-02
      2.7766364595531652e+00 -2.5108503982643970e+00
      -9.1449956790937614e-01 7.0182081425309251e-01
      -4.4891556665382448e-01 -2.8172949646492640e-01
      1.3280502817239868e+00 8.8501513843075322e-02
      -1.4794637357478495e+00 1.5090185517751398e+00
      6.5454973609559464e-01 -1.8949373457009371e+00
      2.0868832635470930e-01 9.6630925034779883e-03
      -1.3685634947981993e+00 7.3561684720668141e-01
      -6.1881135495604880e-02 1.0666651827545857e+00
      2.4798680479543370e-01 -5.1437582926334241e-02
      1.8758790313277159e-02 -1.1886472759981610e+00
      8.0940115587003225e-01 2.8193540430309982e-01
      7.5769605440240695e-01 5.7815613104914794e-02
      -4.0518725773810027e-01 1.7332036903132904e-02
      -2.4889352028947362e+00 -2.6896931508962557e-01
      1.7602837624192458e-01 -5.0067505342682735e-02
      -1.0204262896986134e+00 9.4766243398191963e-01
      -1.7658107351211036e-01 6.5866216473162986e-01
      7.5978374768664003e-01 -6.2219190049804685e-01
      -4.8819820968131050e-01 -3.4930680119245616e-01
      2.0408896743457397e-01 -1.2601274998637728e+00
      -1.3652758171970543e+00 1.7977470987984642e-01
      -6.4288382142511855e-02 -7.8782043240563726e-01
      -6.2737295924674008e-01 1.1143377874771312e+00
      -9.2103711672968269e-01 -3.5276279655095738e-01
      -9.5115286909148847e-02 -5.1952707914420770e-01
      2.8747893314709955e-01 9.0444531910148396e-01
      -1.2620324037478747e+00 -1.1741475974442686e-01
      -1.7520382697313250e-02 1.8232845554573121e+00
      -3.6222751521438490e-01 -1.3437667186458746e-01
      -2.5464729629308258e-01 -2.5925324823431151e-01
      -8.7231804603117840e-03 -1.0396052448293525e+00
      -7.5398379546268446e-01 -4.6188868207672311e-02
      6.7770534620258105e-01 -6.0100415870845525e-01
      -2.9450060154839721e+00 4.0892636779011204e-01
      3.6291294718265171e-01 1.0116450483788633e+00
      1.7788616449857633e+00 -1.9125938564556935e-01
      -5.4548469726627280e-01 -1.0256524042454229e+00
      8.0183806041822592e-01 1.1398356669870902e+00
      -7.7217098027064959e-02 1.0573193301919472e+00
      -1.1066074832692470e+00 -1.9310928861700810e-01
      -9.8839122399958546e-01 -3.4641286853523362e-01
      3.5389412382262325e-01 1.8557199097649535e-01
      -1.8872659013857387e+00 1.6079663118663973e-01
      -1.0129229287628536e+00 -6.6084017985781973e-01
      1.4836537482297454e-01 7.0369700762966711e-02
      -5.8522474914481570e-01 1.7771104947934386e+00
      1.8059427822482617e+00 1.3750398532478317e-02
      5.6197027716455572e-01 -1.8458605687522875e-01
      -1.8642371037984728e+00 -1.3115954054378474e+00
      -1.6483336712656904e+00 -1.8609213818534582e+00
      9.2798814782629713e-01 -4.2918617649619212e-02
      3.0453031325178492e-01 -1.2879104624490469e+00
      6.5373874954902722e-01 5.9983400679282317e-01
      -3.8899292610615444e-01 -7.9707634399701424e-02
      1.3831509753315387e+00 1.1382096388993679e+00
      2.0472842056838694e+00 2.2596556463149087e+00
      5.7457651065697446e-01 -1.1129722351714666e+00
      -7.7463180864684983e-02 3.4589098139613161e-01
      -8.4091412213159378e-01 9.1356177822622497e-01
      -2.9217520841340533e-01 1.4863072778586437e+00
      3.4732568130239982e-01 1.3198744844586139e+00
      -1.4710094127840223e+00 -2.1229333161101491e-01
      1.9923374750223866e+00 1.6087128517379667e+00
      -2.8064427992800672e-01 -4.0906770953754001e-01
      5.4646072739886102e-03 6.5896886183007164e-01
      -6.3596319970195359e-01 -1.2903935444459549e+00
      7.1763209830887764e-01 -1.4493136997621789e+00
      7.6464871549759983e-01 -2.8192582638616992e-01
      -7.1085323873066475e-01 4.5130848387616795e-01
      -4.8560509197867524e-01 -6.7282247678652962e-01
      1.2434956825095809e+00 -2.5984546237430328e-01
      -7.8150084373481887e-01 1.8525761126201090e-01
      -5.8865733885260152e-01 8.1547825325680268e-01
      5.3500729078103404e-01 1.5170169992759763e+00
      9.5391111535385986e-01 1.7737781437877573e+00
      1.2271857144602452e+00 3.2886567534796285e-01
      2.0935201455932622e+00 1.2274735756207196e-01
      1.9884778037591708e-01 1.7252255923865150e+00
      1.9677542807874263e-01 -1.1033995318325984e+00
      -5.4060888305595989e-01 1.9466907312466857e-02
      -8.5415592502939536e-02 9.3486835942761093e-01
      3.6414021598284219e-01 1.8513168352542037e-03
      -1.0747874024652886e+00 -1.0197278569640678e+00
      5.9042085608533168e-01 2.0631998133259968e-01
      -1.2466058377777047e+00 1.1403517501556235e+00
      -4.9187867421370746e-01 -2.1293595387738269e+00
      -1.4439659351713381e+00 -2.8182083607006447e-01
      3.9413553059562872e-01 1.1401172611185999e+00
      -1.3452442612248447e-01 6.6272050929900606e-01
      1.6705786339243662e+00 1.1770323351753911e+00
      -1.1232151571624686e-01 -1.2751431268084357e-01
      -1.5436811429162280e+00 -1.1044454820661609e+00
      2.9306199803458710e-01 1.0362216359429108e+00
      1.6182982786437123e+00 4.8738452964562323e-01
      -4.4608367197587756e-01 2.2662512938244270e+00
      -3.2710134045666595e-01 -4.4259821847800063e-01
      2.6282665063971988e+00 2.2996931975114685e+00
      1.1762167423732164e+00 9.6227623201951318e-01
      2.3013255626145526e+00 7.2746374600808683e-01
      2.1631419385990691e+00 1.8474619587358960e+00
      -2.5161099659961046e+00 -9.9859716049005801e-02
      3.5816579391875427e+00 -2.6454676402608490e-01
      -2.2278877616898760e+00 -6.9591916378971963e-01
      5.3309661625719362e-01 -1.2865620157483966e+00
      -1.5324571919844954e+00 2.4765184808774641e+00
      1.5788922644379664e+00 -1.9685386460223235e+00
      -4.0824316830926305e-01 -1.2790132223412827e+00
      1.6344198432071924e-01 2.0087278798318220e+00
      1.3371059280789419e+00 7.7549230799705146e-02
      1.0725664422090468e+00 -4.5493494966331771e-01
      -1.9518283317888117e+00 -8.9253304605900319e-01
      1.5546587517171799e+00 -3.4506217265379802e-01
      -2.5986944047990079e-01 5.8472665261309020e-01
      1.4440305220003238e-01 -2.3173039382363814e+00
      -1.4663014842841077e-01 1.3119890316914609e+00
      2.5900882156247227e+00 -1.1115870052643997e+00
      1.6800783741382015e+00 1.0679705228986582e+00
      2.2218601686066877e+00 7.7314403036874046e-01
      2.4773417441906118e+00 9.2153383498074037e-01
      3.4991765126356253e+00 -2.9834787754837588e-01
      -2.4700727849606450e+00 2.4784326994144987e-01
      -3.2072366763186855e-01 5.6723056337456246e-01
      -1.8919550355473533e+00 -3.5120496502323734e-01
      -1.4518376398854489e+00 -1.6387560025838028e+00
      2.2874700807027972e+00 1.7463963658921613e+00
      8.7946651365187156e-01 -8.7768431048017181e-01
      -2.0477077052375154e+00 -2.5144337034728386e+00
      1.9749138172812395e+00 -3.4368869803584151e-01
      -7.2458560413115669e-01 1.3942171202148648e+00
      -1.0788297937465854e+00 1.0968571579144446e+00
      -5.7966396711352286e-01 -1.9516410771761614e+00
      1.5336107889351620e+00 -3.0159169708164818e-01
      -3.5143634797813292e+00 1.3490404858911320e-01
      5.6293917108080338e-01 1.1493044330642894e+00
      -2.3929003004277414e+00 -3.3485638090884984e+00
      4.6738123879810427e+00 -1.1766261795250701e+00
      -2.4954215611398447e+00 -6.8103956613655670e-01
      3.8298501203828921e+00 1.9559500098774407e+00
      -1.5053837962909364e+00 1.3928049462903387e+00
      -8.9810074559795827e-01 -1.1780751604138635e+00
      -1.6606692296498258e+00 1.9505443835857625e-01
      -2.0203839665428536e-02 9.0600173163688971e-02
      8.4122019276264490e-02 3.4327725240281426e-01
      -1.5936275381422487e+00 -2.1164758719892927e+00
      3.3735805876859293e-01 -1.4599617055015606e+00
      -2.0109219807732517e+00 1.4292410916832843e+00
      -1.6695510459654286e+00 5.9641485984563158e-01
      9.2631361175710536e-01 6.9266289107325574e-02
      -1.2423683049087118e+00 -2.1190052276401081e+00
      1.8035404006901139e+00 -1.0935915181133455e+00
      3.3974673401135864e-02 -2.1949487618687366e-01
      1.3818488011649441e-01 -1.2182707113253124e+00
      2.0011951322910698e-01 5.9001273290456058e-01
      -1.4026240660396534e+00 3.0536585114361658e+00
      1.1455755801915262e+00 -1.5898143145698309e+00
      3.4674407253402255e+00 2.5443636550666380e+00
      -7.7821017466979447e-02 1.0821730825340301e+00
      1.3683512602573551e+00 1.0273657263296625e+00
      -1.5409578912368729e+00 1.0230032670180271e+00
      -1.9137971499152482e+00 -1.6624938232650457e+00
      -5.0185752338583955e-01 7.0567587480337657e-01
      1.7244374100620985e-01 -2.1810263427911386e-01
      1.0948622858373827e+00 1.5971891283960629e+00
      -3.5377052976262897e+00 1.8636260909163107e+00
      -1.3611267885415379e-01 -1.4702439336071587e+00
      -1.3246411994728156e+00 3.1888926040471011e-01
      -4.2648577724194525e-01 3.9207219834491882e+00
      2.0544156803690310e+00 1.7857485473710133e+00
      -7.5956661063561637e-01 5.0609626934528851e-01
      -1.0705989911755591e+00 -9.1818048450301826e-01
      -6.4540811634448336e-01 -1.2023129826871668e+00
      4.6072686029495219e-01 7.0015575649666617e-01
      6.2072198281278057e-01 -1.0989674698006009e-01
      -2.4797658304865435e+00 1.6496288068839715e+00
      4.6373899592396628e-02 1.2099482616951579e-01
      1.5186279784417387e+00 3.9463203353522398e+00
      6.2538985024172555e-01 -1.4188592857888023e+00
      1.9884686113337424e+00 -3.3499186258717022e+00
      4.5182304873721391e-01 -9.3093985806261728e-02
      5.2876907913766691e-01 -9.5100425724003512e-01
      2.5226709262598175e+00 -4.4173619541887854e-01
      -4.7243490247953185e-01 -2.8544876405204156e-01
      9.8139005607658880e-01 -9.3474213452362953e-01
      -2.5688901358432688e+00 1.8829354606654491e+00
      -2.1234802327013433e-01 8.9894295119210132e-01
      6.4721511920937924e-01 5.4559038678950303e-02
      1.3469307440586025e+00 1.9583917113152167e+00
      1.7755331865873653e-02 6.7829690722623515e-02
      2.1347839014474265e-01 -3.1690649376195767e-01
      1.1590735411005777e-01 -2.5715599335624231e+00
      -1.3950345001298539e-01 -1.6849644249114248e-01
      -5.2571787043475937e-01 2.1707651944600048e+00
      -1.6693421741785319e-01 5.6897938236233592e-01
      -2.2263150427073057e+00 4.2132851314526498e-01
      -6.9396989314824953e-01 9.9690080856820640e-01
      6.8763260375897095e-01 3.2916943442489917e+00
      -7.0956982918682476e-01 6.2493230665164412e-01
      -1.0908526205300044e+00 -1.9795922773498413e+00
      -1.7816195623465141e-02 -2.7348040751989344e-01
      7.7631635346840244e-01 -1.8747665670752927e+00
      8.4952433897268542e-01 -2.0768689866934784e-01
      2.7540903007812578e-01 1.1590740311260371e-01
      9.4374282123528419e-01 -2.5201116180787739e+00
      4.5357072844109669e-01 2.7731511014872798e+00
      -4.4224357561297951e-02 -1.3344759080431954e+00
      -4.1080391932430943e-01 -8.8542299975810734e-01
      1.1283870538097287e+00 -5.1414009861377154e-02
      -1.2846885244907338e-01 2.3555953377710761e+00
      -4.0206901551262736e-01 -3.2932926690225583e-01
      8.9486730639998946e-01 -1.3382155980848141e+00
      7.5327878976101437e-02 -2.6481004620140142e-01
      -1.0258023024958438e+00 1.2278983322213937e+00
      -5.8123872803116472e-01 -5.9269422767872826e-01
      -4.6576947448278794e-01 -3.0702477570234377e-01
      9.4138010912284201e-02 1.3157255725745693e+00
      -1.2746116178248919e+00 2.2575060599768921e+00
      -1.2268956559182134e+00 1.1262376421857658e+00
      -3.7927087841727464e-02 3.0433404735375769e-01
      3.7465317982467111e-01 -5.3018822218799201e-02
      1.2865166730661373e+00 -1.7517449592982415e+00
      6.9133792079293238e-02 -8.0702782359286396e-01
      3.0673940577468140e-01 -3.1273265237053233e-01
      -3.6960275827551697e-01 -6.4404414755600059e-01
      4.5279625366993109e-01 -1.0219698986640551e+00
      -1.6699342957153405e+00 9.2553420223988228e-02
      6.6757797828320517e-02 -8.6892024730290632e-02
      -1.2506245541848569e+00 -3.0992159069921027e-01
      -1.0871577498028977e+00 1.1493775711314060e+00
      6.3868167342061188e-02 -6.4072235732136093e-02
      -4.6587456655037385e-01 2.1202476135377205e-01
      6.1674910232996372e-01 6.7291685201947049e-01
      -2.2427666941501140e-01 8.1232869466632573e-01
      3.6259336201745052e-01 2.4201050213820804e-01
      -3.1603351239651034e-01 4.1099289220878993e-01
      4.0395058788099975e-01 4.5497688730206964e-01
      -5.3215164466742504e-01 8.9522717032031948e-03
      -9.2803148449253814e-01 -1.3817194099514034e+00
      6.5048526823161035e-01 1.7042913872726726e+00
      -2.9612253301711022e-01 1.5002145053008515e+00
      5.3812518126256292e-01 1.2922185319197044e+00
      -4.5042669340929747e-01 -1.2103035838316546e-02
      1.9892364232943358e-01 -1.3266820786720848e-01
      -2.6694950836417473e+00 -3.4640546927131832e-01
      1.1508695438692829e-01 -9.1951446489683886e-01
      2.6274496587548185e-01 3.6785131895507905e-01
      8.5728855395506065e-01 1.5931660790661470e+00
      1.3673008632864279e+00 -1.2381123949349608e+00
      5.9277315186396995e-01 -2.1954066959610494e-01
      -4.9934185039416168e-01 -3.3751565366449260e-01
      -9.4275953778583965e-01 -8.2081187880484197e-01
      -7.7991116281147799e-01 4.1637185774271152e-01
      -2.6101855168202748e-01 -6.5369835743727595e-02
      -5.7378469083361161e-01 8.2340992427455739e-01
      -3.0812272406741154e-01 6.4521266076521833e-01
      -2.0185517063346381e-01 -1.4758668055638007e+00
      -3.1395273037469146e-01 3.2971459573992470e+00
      2.2765286810574756e+00 -6.0685020874922280e-01
      -1.5150867776635388e-01 2.9892402835624782e-01
      -3.9224544863371619e-01 5.7503250811217843e-01
      -1.4145104701640085e+00 1.2460800214565466e+00
      3.5233029543152017e-01 1.3930163245484606e+00
      8.4648006314507906e-01 4.5313627587899030e-01
      1.5706396654157867e-01 2.2738029158685977e+00
      -1.0690619175473752e+00 1.2586473353732099e+00
      9.0007450568337166e-01 1.1021542297641340e+00
      4.9599910602646347e-01 -8.6179623545766315e-01
      8.2214812103918045e-01 1.4342735241710505e-01
      7.5479125645779876e-01 1.9864998888539436e+00
      -8.1338791770841426e-02 -5.7728198375539641e-01
      2.1368835199641842e-01 3.3067202843450449e-01
      1.7723575449375100e+00 3.8768062091986627e-01
      2.2334495332117830e+00 7.2714653584595579e-01
      -1.0866899894304585e+00 6.3589887028508896e-01
      2.1010628346729798e-01 -5.2338553865006097e-02
      -1.9189361832324936e+00 -7.6922696820745529e-01
      -5.2250198798476355e-01 1.0330237097204504e+00
      3.7482089826860761e+00 3.3567563578811727e-01
